{"learner":{"attributes":{"best_iteration":"14","best_ntree_limit":"15"},"feature_names":[],"feature_types":[],"gradient_booster":{"model":{"gbtree_model_param":{"num_parallel_tree":"1","num_trees":"30","size_leaf_vector":"0"},"tree_info":[0,1,0,1,0,1,0,1,0,1,0,1,0,1,0,1,0,1,0,1,0,1,0,1,0,1,0,1,0,1],"trees":[{"base_weights":[3.7623763E-1,-5E-1,4.4680852E-1,-6.363636E-1,-1.4285715E-1,1.764706E-1,5.3956836E-1,-3.8961038E-1,-2.6595742E-2,1.1627907E-1,3.5801947E-1,3.5801947E-1,6.448598E-1,3.0303031E-2,2.3714927E-1,2.3714927E-1,3.5801947E-1,3.5801947E-1,5.0143963E-1,-2.6595742E-2,1.2E-1,1.3372615E-1,2.3714927E-1,-2.6595742E-2,4.6702128E-2,4.6702128E-2,1.3372615E-1,1.3372615E-1,1.8543771E-1],"categories":[],"categories_nodes":[],"categories_segments":[],"categories_sizes":[],"default_left":[1,1,1,0,1,1,1,0,0,1,1,1,0,1,1,0,0,0,0,1,1,1,0,0,0,0,0,0,0],"id":0,"left_children":[1,3,5,-1,7,9,11,-1,-1,13,15,17,-1,19,21,-1,-1,-1,-1,23,25,27,-1,-1,-1,-1,-1,-1,-1],"loss_changes":[6.4689283E0,2.987013E-1,2.2619743E0,0E0,3.7583563E-1,2.8776813E-1,1.9829426E0,0E0,0E0,3.3561224E-1,1.7253762E-1,7.571125E-2,0E0,2.1450329E-1,1.2944043E-2,0E0,0E0,0E0,0E0,6.890616E-2,2.1661665E-1,5.253151E-2,0E0,0E0,0E0,0E0,0E0,0E0,0E0],"parents":[2147483647,0,0,1,1,2,2,4,4,5,5,6,6,9,9,10,10,11,11,13,13,14,14,19,19,20,20,21,21],"right_children":[2,4,6,-1,8,10,12,-1,-1,14,16,18,-1,20,22,-1,-1,-1,-1,24,26,28,-1,-1,-1,-1,-1,-1,-1],"split_conditions":[2.25E1,5E-1,1.345E2,-1.909091E-1,1.75E5,6.185E2,3.25E1,-1.1688312E-1,-7.978722E-3,5E-1,2.64179E5,1.405E2,1.9345795E-1,1.315E2,5E-1,7.114478E-2,1.0740585E-1,1.0740585E-1,1.504319E-1,5.5E1,1.17E2,1.325E2,7.114478E-2,-7.978722E-3,1.4010639E-2,1.4010639E-2,4.0117845E-2,4.0117845E-2,5.5631313E-2],"split_indices":[4,1,8,0,6,2,4,0,0,10,6,8,0,8,5,0,0,0,0,0,2,8,0,0,0,0,0,0,0],"split_type":[0,0,0,0,0,0,0,0,0,0,0,0,0,0,0,0,0,0,0,0,0,0,0,0,0,0,0,0,0],"sum_hessian":[1E2,7E0,9.3E1,4.5E0,2.5E0,2.45E1,6.85E1,1E0,1.5E0,2.05E1,4E0,1.6E1,5.25E1,1.55E1,5E0,1.5E0,2.5E0,1.4E1,2E0,4E0,1.15E1,3.5E0,1.5E0,2.5E0,1.5E0,3E0,8.5E0,2.5E0,1E0],"tree_param":{"num_deleted":"0","num_feature":"11","num_nodes":"29","size_leaf_vector":"0"}},{"base_weights":[-3.7623763E-1,-5.176471E-1,3.529412E-1,-6.48855E-1,-8.235295E-2,-8.235295E-2,6.5217394E-1,-8.108108E-1,-4.2372882E-1,-3.6560395E-1,-8.235295E-2,-8.235295E-2,2.849105E-1,2.849105E-1,7.1428573E-1,-9.047619E-1,-6.172698E-1,-6.172698E-1,-3.6560395E-1,-2.2397846E-1,-8.235295E-2,-4.914369E-1,-3.6560395E-1,-2.2397846E-1,-1.531657E-1,-1.25E-1,-8.235295E-2,-1.531657E-1,-1.03676476E-1],"categories":[],"categories_nodes":[],"categories_segments":[],"categories_sizes":[],"default_left":[1,1,1,1,1,1,1,1,1,0,1,0,0,0,0,0,0,0,1,1,1,0,0,0,0,1,0,0,0],"id":1,"left_children":[1,3,5,7,9,11,13,15,17,-1,19,-1,-1,-1,-1,-1,-1,-1,21,23,25,-1,-1,-1,-1,27,-1,-1,-1],"loss_changes":[1.0597089E1,4.907894E0,2.9766326E0,2.0445976E0,9.6537817E-1,5.7896096E-1,3.0349112E-1,8.365593E-1,9.271798E-1,0E0,3.4279838E-1,0E0,0E0,0E0,0E0,0E0,0E0,0E0,4.613352E-2,2.995348E-2,7.768154E-3,0E0,0E0,0E0,0E0,2.6212817E-1,0E0,0E0,0E0],"parents":[2147483647,0,0,1,1,2,2,3,3,4,4,5,5,6,6,7,7,8,8,10,10,18,18,19,19,20,20,25,25],"right_children":[2,4,6,8,10,12,14,16,18,-1,20,-1,-1,-1,-1,-1,-1,-1,22,24,26,-1,-1,-1,-1,28,-1,-1,-1],"split_conditions":[1.815E0,6.75E1,1.515E2,1.05E0,8.5E-1,7.25E1,1.135E5,3.835E5,1.03E2,-1.0968119E-1,1.805E5,-2.4705887E-2,8.547315E-2,8.547315E-2,2.1428573E-1,-2.7142859E-1,-1.8518095E-1,-1.8518095E-1,4.45E1,7.4E1,5E-1,-1.4743108E-1,-1.0968119E-1,-6.719354E-2,-4.5949712E-2,7.75E1,-2.4705887E-2,-4.5949712E-2,-3.1102944E-2],"split_indices":[7,0,2,7,7,0,6,6,2,0,6,0,0,0,0,0,0,0,0,0,10,0,0,0,0,0,0,0,0],"split_type":[0,0,0,0,0,0,0,0,0,0,0,0,0,0,0,0,0,0,0,0,0,0,0,0,0,0,0,0,0],"sum_hessian":[1E2,8.4E1,1.6E1,6.45E1,1.95E1,5.5E0,1.05E1,3.6E1,2.85E1,2.5E0,1.7E1,4.5E0,1E0,1E0,9.5E0,3.05E1,5.5E0,5.5E0,2.3E1,4E0,1.3E1,2E0,2.1E1,2E0,2E0,7E0,6E0,4.5E0,2.5E0],"tree_param":{"num_deleted":"0","num_feature":"11","num_nodes":"29","size_leaf_vector":"0"}},{"base_weights":[2.6621294E-1,-4.415654E-1,3.2442155E-1,-5.719918E-1,-1.1039523E-1,1.1384329E-1,3.9187148E-1,1.2251578E-2,2.528574E-1,2.528574E-1,4.9404842E-1,-5.857192E-2,1.3255449E-1,3.6991283E-2,1.3255449E-1],"categories":[],"categories_nodes":[],"categories_segments":[],"categories_sizes":[],"default_left":[1,1,1,0,0,1,1,1,0,0,0,0,1,0,0],"id":2,"left_children":[1,3,5,-1,-1,7,9,11,-1,-1,-1,-1,13,-1,-1],"loss_changes":[4.208089E0,2.7899647E-1,1.2584562E0,0E0,0E0,7.044338E-1,1.6131468E0,7.89985E-1,0E0,0E0,0E0,0E0,8.28948E-2,0E0,0E0],"parents":[2147483647,0,0,1,1,2,2,5,5,6,6,7,7,12,12],"right_children":[2,4,6,-1,-1,8,10,12,-1,-1,-1,-1,14,-1,-1],"split_conditions":[2.25E1,5E-1,3.25E1,-1.7159754E-1,-3.3118572E-2,2.15E0,1.345E2,1.505E2,7.585722E-2,7.585722E-2,1.4821453E-1,-1.7571576E-2,4.75E1,1.1097386E-2,3.976635E-2],"split_indices":[4,1,4,0,0,7,8,2,0,0,0,0,0,0,0],"split_type":[0,0,0,0,0,0,0,0,0,0,0,0,0,0,0],"sum_hessian":[9.766399E1,6.9211726E0,9.074281E1,4.443846E0,2.4773266E0,2.2666368E1,6.807644E1,2.0172857E1,2.4935117E0,1.7300285E1,5.0776157E1,5.9171686E0,1.4255688E1,1.9601614E0,1.22955265E1],"tree_param":{"num_deleted":"0","num_feature":"11","num_nodes":"15","size_leaf_vector":"0"}},{"base_weights":[-2.6621294E-1,-3.4222004E-1,8.7156594E-1,-4.4607282E-1,2.3392512E-1,-7.028709E-1,-3.0077195E-1,-1.0607385E-1,2.6467294E-1,-7.934792E-1,-5.018214E-1,-4.872228E-1,-1.0607385E-1,-1.0607385E-1,-2.3294934E-3,-6.476503E-1,-5.018214E-1,-5.018214E-1,-2.9664832E-1,-2.9664832E-1,-1.0607385E-1,-5.420167E-2,7.929954E-2,-3.9923486E-1,-2.9664832E-1,-2.0136109E-1,-1.0607385E-1],"categories":[],"categories_nodes":[],"categories_segments":[],"categories_sizes":[],"default_left":[1,1,0,1,1,1,1,1,0,0,1,1,1,0,1,0,0,0,1,0,1,0,0,0,0,0,0],"id":3,"left_children":[1,3,-1,5,7,9,11,13,-1,-1,15,17,19,-1,21,-1,-1,-1,23,-1,25,-1,-1,-1,-1,-1,-1],"loss_changes":[8.830658E0,5.6811247E0,0E0,2.748003E0,1.6731793E0,1.756258E-1,2.6307964E0,3.163168E-2,0E0,0E0,1.7318726E-3,6.4959764E-1,6.4030886E-1,0E0,1.1016773E-1,0E0,0E0,0E0,1.6488683E-1,0E0,3.898275E-2,0E0,0E0,0E0,0E0,0E0,0E0],"parents":[2147483647,0,0,1,1,3,3,4,4,5,5,6,6,7,7,10,10,11,11,12,12,14,14,18,18,20,20],"right_children":[2,4,-1,6,8,10,12,14,-1,-1,16,18,20,-1,22,-1,-1,-1,24,-1,26,-1,-1,-1,-1,-1,-1],"split_conditions":[8.15E1,1.815E0,2.6146978E-1,9.5E-1,1.515E2,5E-1,2.64179E5,6.5E1,7.940188E-2,-2.3804377E-1,2.115E2,1.19E0,9.95E1,-3.1822156E-2,2.45E0,-1.942951E-1,-1.5054643E-1,-1.5054643E-1,1.355E2,-8.89945E-2,1.355E2,-1.6260501E-2,2.3789862E-2,-1.1977046E-1,-8.89945E-2,-6.0408328E-2,-3.1822156E-2],"split_indices":[0,7,0,7,2,10,6,2,0,0,2,7,2,0,7,0,0,0,8,0,8,0,0,0,0,0,0],"split_type":[0,0,0,0,0,0,0,0,0,0,0,0,0,0,0,0,0,0,0,0,0,0,0,0,0,0,0],"sum_hessian":[9.766399E1,9.220371E1,5.460269E0,7.831317E1,1.3890539E1,2.6912283E1,5.1400894E1,4.975585E0,8.914954E0,1.7288391E1,9.623892E0,3.0859863E1,2.0541029E1,1.9912099E0,2.984375E0,5.304118E0,4.3197737E0,1.5065459E1,1.5794404E1,4.3752785E0,1.616575E1,1.4943526E0,1.4900225E0,7.9213986E0,7.8730054E0,4.4403706E0,1.1725381E1],"tree_param":{"num_deleted":"0","num_feature":"11","num_nodes":"27","size_leaf_vector":"0"}},{"base_weights":[1.9008747E-1,-4.082476E-1,2.4126287E-1,-6.341372E-1,-1.866902E-1,6.501995E-2,3.0017903E-1,-3.960134E-1,-8.349236E-2,-3.979276E-2,1.8259948E-1,1.8259948E-1,3.956333E-1,-8.349236E-2,7.140336E-2,-6.0444996E-3,7.140336E-2],"categories":[],"categories_nodes":[],"categories_segments":[],"categories_sizes":[],"default_left":[1,1,1,0,1,1,1,0,0,1,0,0,0,0,1,0,0],"id":4,"left_children":[1,3,5,-1,7,9,11,-1,-1,13,-1,-1,-1,-1,15,-1,-1],"loss_changes":[2.9856007E0,2.7200747E-1,8.8891506E-1,0E0,3.1434178E-1,6.705935E-1,1.2636929E0,0E0,0E0,5.856414E-1,0E0,0E0,0E0,0E0,6.9493726E-2,0E0,0E0],"parents":[2147483647,0,0,1,1,2,2,4,4,5,5,6,6,9,9,14,14],"right_children":[2,4,6,-1,8,10,12,-1,-1,14,-1,-1,-1,-1,16,-1,-1],"split_conditions":[2.25E1,1.53E5,3.25E1,-1.9024117E-1,5E-1,2.15E0,1.345E2,-1.1880403E-1,-2.504771E-2,1.505E2,5.4779846E-2,5.4779846E-2,1.1869E-1,-2.504771E-2,4.75E1,-1.8133499E-3,2.142101E-2],"split_indices":[4,6,4,0,1,7,8,0,0,2,0,0,0,0,0,0,0],"split_type":[0,0,0,0,0,0,0,0,0,0,0,0,0,0,0,0,0],"sum_hessian":[9.328814E1,6.8004837E0,8.6487656E1,2.4452453E0,4.3552384E0,2.2195429E1,6.429223E1,2.8737302E0,1.4815085E0,1.9716673E1,2.4787564E0,1.6823038E1,4.746919E1,5.853189E0,1.3863484E1,1.9166483E0,1.19468355E1],"tree_param":{"num_deleted":"0","num_feature":"11","num_nodes":"17","size_leaf_vector":"0"}},{"base_weights":[-1.900875E-1,-2.5980997E-1,8.0377096E-1,-3.5418385E-1,2.384814E-1,-6.01675E-1,-2.2171706E-1,-5.7851225E-2,2.719805E-1,-6.9988704E-1,-4.1169602E-1,-4.006839E-1,-5.7851225E-2,-5.7851225E-2,-8.4451055E-3,-5.557915E-1,-4.1169602E-1,-4.1169602E-1,-2.2926757E-1,-2.2926757E-1,-5.7851225E-2,-3.3148166E-2,1.07064635E-1,-3.2048178E-1,-2.2926757E-1,-2.2926757E-1,-1.435594E-1,-1.435594E-1,-5.7851225E-2],"categories":[],"categories_nodes":[],"categories_segments":[],"categories_sizes":[],"default_left":[1,1,0,1,1,1,1,1,0,0,1,1,1,0,1,0,0,0,1,1,1,0,0,0,0,0,0,0,0],"id":5,"left_children":[1,3,-1,5,7,9,11,13,-1,-1,15,17,19,-1,21,-1,-1,-1,23,25,27,-1,-1,-1,-1,-1,-1,-1,-1],"loss_changes":[6.7424555E0,4.2633033E0,0E0,2.329197E0,1.5121183E0,2.9412365E-1,2.2246892E0,6.296605E-3,0E0,0E0,6.887114E-2,5.576172E-1,5.571763E-1,0E0,1.0845705E-1,0E0,0E0,0E0,1.810453E-1,2.2633672E-3,5.045885E-2,0E0,0E0,0E0,0E0,0E0,0E0,0E0,0E0],"parents":[2147483647,0,0,1,1,3,3,4,4,5,5,6,6,7,7,10,10,11,11,12,12,14,14,18,18,19,19,20,20],"right_children":[2,4,-1,6,8,10,12,14,-1,-1,16,18,20,-1,22,-1,-1,-1,24,26,28,-1,-1,-1,-1,-1,-1,-1,-1],"split_conditions":[8.15E1,1.815E0,2.4113129E-1,9.5E-1,1.515E2,5E-1,2.64179E5,6.5E1,8.1594154E-2,-2.0996612E-1,2.115E2,1.19E0,9.95E1,-1.7355368E-2,2.45E0,-1.6673745E-1,-1.2350881E-1,-1.2350881E-1,1.355E2,4.5E1,1.355E2,-9.94445E-3,3.2119393E-2,-9.6144535E-2,-6.878027E-2,-6.878027E-2,-4.306782E-2,-4.306782E-2,-1.7355368E-2],"split_indices":[0,7,0,7,2,10,6,2,0,0,2,7,2,0,7,0,0,0,8,4,8,0,0,0,0,0,0,0,0],"split_type":[0,0,0,0,0,0,0,0,0,0,0,0,0,0,0,0,0,0,0,0,0,0,0,0,0,0,0,0,0],"sum_hessian":[9.328814E1,8.7862854E1,5.4252872E0,7.411504E1,1.3747812E1,2.4604235E1,4.9510803E1,4.917836E0,8.829976E0,1.5708692E1,8.895543E0,2.9496239E1,2.0014566E1,1.967202E0,2.950634E0,4.876211E0,4.019332E0,1.4127274E1,1.5368965E1,4.1988254E0,1.5815741E1,1.4810634E0,1.4695706E0,7.724256E0,7.6447086E0,2.8065426E0,1.3922828E0,4.3519177E0,1.1463822E1],"tree_param":{"num_deleted":"0","num_feature":"11","num_nodes":"29","size_leaf_vector":"0"}},{"base_weights":[1.3539211E-1,-3.7180254E-1,1.8049192E-1,-4.9722752E-1,-9.565531E-2,3.212859E-2,2.3266596E-1,-7.622854E-2,1.3239728E-1,1.3239728E-1,3.2325205E-1,-9.565531E-2,2.8084371E-2,1.3239728E-1,2.2462395E-1,-3.378547E-2,2.8084371E-2,1.785106E-1,2.2782466E-1],"categories":[],"categories_nodes":[],"categories_segments":[],"categories_sizes":[],"default_left":[1,1,1,0,0,1,1,1,0,1,0,0,1,0,1,0,0,0,0],"id":6,"left_children":[1,3,5,-1,-1,7,9,11,-1,13,-1,-1,15,-1,17,-1,-1,-1,-1],"loss_changes":[2.1106348E0,2.504127E-1,6.327975E-1,0E0,0E0,6.3443935E-1,1.0016818E0,4.2073947E-1,0E0,2.2183359E-2,0E0,0E0,5.5381954E-2,0E0,6.4169735E-2,0E0,0E0,0E0,0E0],"parents":[2147483647,0,0,1,1,2,2,5,5,6,6,7,7,9,9,12,12,14,14],"right_children":[2,4,6,-1,-1,8,10,12,-1,14,-1,-1,16,-1,18,-1,-1,-1,-1],"split_conditions":[2.25E1,5E-1,3.25E1,-1.4916827E-1,-2.8696593E-2,2.15E0,1.345E2,1.505E2,3.9719187E-2,6.185E2,9.697562E-2,-2.8696593E-2,4.75E1,3.9719187E-2,2.64179E5,-1.0135641E-2,8.425312E-3,5.3553183E-2,6.83474E-2],"split_indices":[4,1,4,0,0,7,8,2,0,2,0,0,0,0,6,0,0,0,0],"split_type":[0,0,0,0,0,0,0,0,0,0,0,0,0,0,0,0,0,0,0],"sum_hessian":[8.833693E1,6.621968E0,8.171496E1,4.21389E0,2.4080775E0,2.1680256E1,6.0034702E1,1.9218193E1,2.4620628E0,1.6207863E1,4.382684E1,5.780562E0,1.3437632E1,1.2538977E1,3.6688862E0,1.8735732E0,1.1564058E1,1.4265783E0,2.242308E0],"tree_param":{"num_deleted":"0","num_feature":"11","num_nodes":"19","size_leaf_vector":"0"}},{"base_weights":[-1.3539211E-1,-1.9988787E-1,7.4487317E-1,-5.314666E-1,-7.362127E-2,-6.409189E-1,-3.0254394E-1,-1.8298344E-1,2.7249265E-1,-4.7173142E-1,-3.0254394E-1,-3.0254394E-1,4.4754602E-2,4.4754602E-2,2.7249265E-1,-3.0254394E-1,-1.2889467E-1,-1.2889467E-1,4.4754602E-2,4.4754602E-2,1.5862362E-1,-3.0254394E-1,-2.1571931E-1,-4.2070035E-2,4.4754602E-2,1.01689115E-1,1.5862362E-1],"categories":[],"categories_nodes":[],"categories_segments":[],"categories_sizes":[],"default_left":[1,1,0,1,1,0,1,1,1,0,0,1,1,1,0,1,0,0,1,0,1,0,0,0,0,0,0],"id":7,"left_children":[1,3,-1,5,7,-1,9,11,13,-1,-1,15,17,19,-1,21,-1,-1,23,-1,25,-1,-1,-1,-1,-1,-1],"loss_changes":[5.22085E0,3.4788423E0,0E0,4.1080284E-1,2.8307805E0,0E0,2.3432499E-1,2.06815E0,6.85426E-1,0E0,0E0,3.980024E-1,7.160022E-1,2.244468E-1,0E0,1.5376616E-1,0E0,0E0,2.4647486E-1,0E0,4.7011614E-2,0E0,0E0,0E0,0E0,0E0,0E0],"parents":[2147483647,0,0,1,1,3,3,4,4,6,6,7,7,8,8,11,11,12,12,13,13,15,15,18,18,20,20],"right_children":[2,4,-1,6,8,-1,10,12,14,-1,-1,16,18,20,-1,22,-1,-1,24,-1,26,-1,-1,-1,-1,-1,-1],"split_conditions":[8.15E1,9.5E-1,2.2346196E-1,5E-1,3.095E5,-1.9227569E-1,2.115E2,5E-1,2.1E2,-1.4151943E-1,-9.076318E-2,3.31E3,8.55E1,5.6E1,8.17478E-2,6.45E1,-3.86684E-2,-3.86684E-2,1.19E0,1.3426381E-2,3.44E5,-9.076318E-2,-6.4715795E-2,-1.2621011E-2,1.3426381E-2,3.0506736E-2,4.758709E-2],"split_indices":[0,7,0,10,6,0,2,5,2,0,0,2,2,0,0,0,0,0,7,0,6,0,0,0,0,0,0],"split_type":[0,0,0,0,0,0,0,0,0,0,0,0,0,0,0,0,0,0,0,0,0,0,0,0,0,0,0],"sum_hessian":[8.833693E1,8.302661E1,5.310316E0,2.2012426E1,6.1014183E1,1.3920101E1,8.092326E0,4.881244E1,1.2201745E1,4.391534E0,3.7007923E0,3.3680527E1,1.5131912E1,5.5179653E0,6.6837797E0,3.2326534E1,1.3539927E0,2.7703698E0,1.2361542E1,2.6675286E0,2.8504367E0,1.8827866E1,1.3498669E1,3.3699007E0,8.991641E0,1.3804493E0,1.4699873E0],"tree_param":{"num_deleted":"0","num_feature":"11","num_nodes":"27","size_leaf_vector":"0"}},{"base_weights":[9.3519494E-2,-3.4984607E-1,1.3454668E-1,-5.7250094E-1,-1.3768242E-1,6.232246E-2,2.300422E-1,-3.377131E-1,-1.0764969E-1,2.6643107E-2,1.4618233E-1,1.4618233E-1,3.9298612E-1,-5.1589303E-2,8.641272E-2,8.641272E-2,1.4618233E-1,1.4618233E-1,2.6958424E-1,2.6958424E-1,4.9445677E-1,-1.0764969E-1,1.7411709E-2,1.7411709E-2,8.641272E-2,-1.0764969E-1,-4.511899E-2,1.7411709E-2,5.1912215E-2,5.1912215E-2,8.641272E-2],"categories":[],"categories_nodes":[],"categories_segments":[],"categories_sizes":[],"default_left":[1,1,1,0,1,1,1,0,0,1,1,1,1,1,1,0,0,0,0,0,0,1,0,1,1,0,0,0,0,0,0],"id":8,"left_children":[1,3,5,-1,7,9,11,-1,-1,13,15,17,19,21,23,-1,-1,-1,-1,-1,-1,25,-1,27,29,-1,-1,-1,-1,-1,-1],"loss_changes":[1.5921721E0,2.7415854E-1,5.268773E-1,0E0,1.7878494E-1,2.4144776E-1,5.496018E-1,0E0,0E0,2.3586711E-1,1.6032338E-2,5.531002E-1,8.707738E-2,4.9533355E-1,2.640012E-1,0E0,0E0,0E0,0E0,0E0,0E0,5.2916348E-2,0E0,8.3821565E-3,1.4629424E-2,0E0,0E0,0E0,0E0,0E0,0E0],"parents":[2147483647,0,0,1,1,2,2,4,4,5,5,6,6,9,9,10,10,11,11,12,12,13,13,14,14,21,21,23,23,24,24],"right_children":[2,4,6,-1,8,10,12,-1,-1,14,16,18,20,22,24,-1,-1,-1,-1,-1,-1,26,-1,28,30,-1,-1,-1,-1,-1,-1],"split_conditions":[2.25E1,1.53E5,3.9E1,-1.7175029E-1,5E-1,1.405E2,5.765E2,-1.01313934E-1,-3.229491E-2,3.25E1,6.05E1,1.395E2,5E-1,2.15E0,1.355E2,2.5923816E-2,4.38547E-2,4.38547E-2,8.087528E-2,8.087528E-2,1.4833704E-1,1.505E2,5.2235126E-3,8.2E2,9.5E-1,-3.229491E-2,-1.3535698E-2,5.2235126E-3,1.5573665E-2,1.5573665E-2,2.5923816E-2],"split_indices":[4,6,4,0,1,8,2,0,0,4,0,8,9,7,8,0,0,0,0,0,0,2,0,2,7,0,0,0,0,0,0],"split_type":[0,0,0,0,0,0,0,0,0,0,0,0,0,0,0,0,0,0,0,0,0,0,0,0,0,0,0,0,0,0,0],"sum_hessian":[8.394216E1,6.472211E0,7.746995E1,2.3293176E0,4.1428933E0,4.5050457E1,3.241949E1,2.684398E0,1.4584951E0,4.0055367E1,4.995089E0,2.0187426E1,1.2232065E1,1.947833E1,2.0577038E1,2.8074656E0,2.1876233E0,1.4562541E1,5.6248837E0,6.0881553E0,6.1439095E0,1.7048267E1,2.4300628E0,8.094782E0,1.2482256E1,5.7251596E0,1.1323108E1,6.788381E0,1.306401E0,4.464022E0,8.018234E0],"tree_param":{"num_deleted":"0","num_feature":"11","num_nodes":"31","size_leaf_vector":"0"}},{"base_weights":[-9.351948E-2,-1.5288335E-1,6.9482565E-1,-2.4076076E-1,2.6393336E-1,-4.7281757E-1,-8.627774E-2,1.1586301E-2,2.7097115E-1,-6.326302E-1,-2.7954766E-1,-2.7954766E-1,1.1586301E-2,-4.5608896E-1,-2.7954766E-1,-2.7954766E-1,-1.3398068E-1,-1.3398068E-1,1.1586301E-2,-2.0676416E-1,-1.3398068E-1,-1.3398068E-1,-6.1197188E-2,-6.1197188E-2,1.1586301E-2],"categories":[],"categories_nodes":[],"categories_segments":[],"categories_sizes":[],"default_left":[1,1,0,1,1,1,1,0,0,0,1,1,1,0,0,0,1,1,1,0,0,0,0,0,0],"id":9,"left_children":[1,3,-1,5,7,9,11,-1,-1,-1,13,15,17,-1,-1,-1,19,21,23,-1,-1,-1,-1,-1,-1],"loss_changes":[4.081454E0,2.9870124E0,0E0,2.3409765E0,1.1748941E0,9.3432903E-1,1.2069012E0,0E0,0E0,0E0,9.0409935E-2,1.9863522E-1,5.447694E-1,0E0,0E0,0E0,1.4686528E-1,1.744473E-2,1.5180516E-1,0E0,0E0,0E0,0E0,0E0,0E0],"parents":[2147483647,0,0,1,1,3,3,4,4,5,5,6,6,10,10,11,11,12,12,16,16,17,17,18,18],"right_children":[2,4,-1,6,8,10,12,-1,-1,-1,14,16,18,-1,-1,-1,20,22,24,-1,-1,-1,-1,-1,-1],"split_conditions":[8.15E1,1.815E0,2.0844771E-1,2.43E5,1.515E2,1.19E0,9.5E-1,3.4758905E-3,8.129135E-2,-1.8978907E-1,1.13E2,5E-1,9.95E1,-1.368267E-1,-8.38643E-2,-8.38643E-2,1.375E2,4.5E1,1.27E2,-6.202925E-2,-4.0194206E-2,-4.0194206E-2,-1.8359156E-2,-1.8359156E-2,3.4758905E-3],"split_indices":[0,7,0,6,2,7,7,0,0,0,2,10,2,0,0,0,8,4,8,0,0,0,0,0,0],"split_type":[0,0,0,0,0,0,0,0,0,0,0,0,0,0,0,0,0,0,0,0,0,0,0,0,0],"sum_hessian":[8.3942154E1,7.881343E1,5.128729E0,6.543926E1,1.3374167E1,2.5329653E1,4.0109608E1,4.7508187E0,8.623348E0,1.50104065E1,1.0319246E1,1.128277E1,2.8826838E1,2.1794603E0,8.139786E0,6.4295545E0,4.8532157E0,4.2737927E0,2.4553045E1,2.6022525E0,2.2509634E0,2.9808009E0,1.2929921E0,1.3919783E0,2.3161066E1],"tree_param":{"num_deleted":"0","num_feature":"11","num_nodes":"25","size_leaf_vector":"0"}},{"base_weights":[6.945708E-2,-3.1778857E-1,1.058992E-1,-5.37791E-1,-1.1289761E-1,4.621255E-2,1.87744E-1,-3.1495675E-1,-1.05944686E-1,1.2527882E-2,1.1697828E-1,1.1697828E-1,3.5174787E-1,-2.8720444E-2,6.475308E-2,6.475308E-2,1.1697828E-1,1.1697828E-1,2.3436308E-1,2.3436308E-1,4.2496464E-1,-1.05944686E-1,1.8016316E-2,1.8016316E-2,6.475308E-2,2.3436308E-1,3.2966387E-1,-1.05944686E-1,-4.3964185E-2,-4.3964185E-2,1.8016316E-2],"categories":[],"categories_nodes":[],"categories_segments":[],"categories_sizes":[],"default_left":[1,1,1,0,1,1,1,0,0,1,1,1,1,1,1,0,0,0,0,1,0,1,1,0,0,0,0,0,0,0,0],"id":10,"left_children":[1,3,5,-1,7,9,11,-1,-1,13,15,17,19,21,23,-1,-1,-1,-1,25,-1,27,29,-1,-1,-1,-1,-1,-1,-1,-1],"loss_changes":[1.1794465E0,2.653436E-1,3.575021E-1,0E0,1.4452131E-1,1.977989E-1,5.103253E-1,0E0,0E0,2.0163752E-1,1.4801443E-2,4.858165E-1,1.11288905E-1,5.3667116E-1,2.0131215E-2,0E0,0E0,0E0,0E0,2.6710227E-2,0E0,3.759414E-2,6.1257824E-2,0E0,0E0,0E0,0E0,0E0,0E0,0E0,0E0],"parents":[2147483647,0,0,1,1,2,2,4,4,5,5,6,6,9,9,10,10,11,11,12,12,13,13,14,14,19,19,21,21,22,22],"right_children":[2,4,6,-1,8,10,12,-1,-1,14,16,18,20,22,24,-1,-1,-1,-1,26,-1,28,30,-1,-1,-1,-1,-1,-1,-1,-1],"split_conditions":[2.25E1,1.53E5,3.9E1,-1.6133732E-1,5E-1,1.405E2,5.765E2,-9.4487034E-2,-3.1783406E-2,2.25E0,6.05E1,1.395E2,2.185E5,3.25E1,1.345E2,1.9425925E-2,3.5093486E-2,3.5093486E-2,7.030892E-2,1.345E2,1.274894E-1,1.505E2,1.325E2,5.404895E-3,1.9425925E-2,7.030892E-2,9.889916E-2,-3.1783406E-2,-1.3189256E-2,-1.3189256E-2,5.404895E-3],"split_indices":[4,6,4,0,1,8,2,0,0,7,0,8,6,4,8,0,0,0,0,8,0,2,8,0,0,0,0,0,0,0,0],"split_type":[0,0,0,0,0,0,0,0,0,0,0,0,0,0,0,0,0,0,0,0,0,0,0,0,0,0,0,0,0,0,0],"sum_hessian":[8.01925E1,6.2334547E0,7.3959045E1,2.2223892E0,4.011066E0,4.367383E1,3.0285213E1,2.5706573E0,1.4404085E0,3.8890415E1,4.7834144E0,1.8935446E1,1.1349768E1,3.5010033E1,3.880382E0,2.7021246E0,2.0812898E0,1.3901775E1,5.0336704E0,3.0903616E0,8.259406E0,1.6769485E1,1.824055E1,1.9657251E0,1.9146571E0,1.3187301E0,1.7716315E0,5.640736E0,1.1128749E1,2.6597037E0,1.5580845E1],"tree_param":{"num_deleted":"0","num_feature":"11","num_nodes":"31","size_leaf_vector":"0"}},{"base_weights":[-6.9457084E-2,-1.9811389E-1,2.5903982E-1,-5.1910514E-1,-8.2282506E-2,3.0462965E-2,4.2692146E-1,-6.0708046E-1,-3.006938E-1,-3.006938E-1,3.0462965E-2,3.0462965E-2,2.286922E-1,2.286922E-1,5.6332725E-1,-4.5388713E-1,-3.006938E-1,-3.006938E-1,-1.3511541E-1,-1.3511541E-1,3.0462965E-2,3.0462965E-2,5.7139933E-2,3.9600974E-1,8.219512E-1,-2.1790461E-1,-1.3511541E-1,-5.2326225E-2,3.0462965E-2,3.0462965E-2,4.380145E-2,3.9600974E-1,6.089805E-1,-5.2326225E-2,-1.093163E-2,-1.093163E-2,3.0462965E-2],"categories":[],"categories_nodes":[],"categories_segments":[],"categories_sizes":[],"default_left":[1,1,1,1,1,1,1,0,1,1,1,1,0,0,1,0,0,0,1,0,1,1,0,1,0,0,0,1,1,0,0,0,0,0,0,0,0],"id":11,"left_children":[1,3,5,7,9,11,13,-1,15,17,19,21,-1,-1,23,-1,-1,-1,25,-1,27,29,-1,31,-1,-1,-1,33,35,-1,-1,-1,-1,-1,-1,-1,-1],"loss_changes":[3.4827871E0,2.147579E0,1.3019413E0,2.3375511E-1,2.0448644E0,3.241406E-1,9.1201663E-1,0E0,8.692965E-2,6.8228173E-1,3.8175592E-1,6.565675E-4,0E0,0E0,2.9346895E-1,0E0,0E0,0E0,4.8541903E-2,0E0,7.975356E-2,7.936843E-3,0E0,1.6988969E-1,0E0,0E0,0E0,5.5084616E-2,2.8527081E-2,0E0,0E0,0E0,0E0,0E0,0E0,0E0,0E0],"parents":[2147483647,0,0,1,1,2,2,3,3,4,4,5,5,6,6,8,8,9,9,10,10,11,11,14,14,18,18,20,20,21,21,23,23,27,27,28,28],"right_children":[2,4,6,8,10,12,14,-1,16,18,20,22,-1,-1,24,-1,-1,-1,26,-1,28,30,-1,32,-1,-1,-1,34,36,-1,-1,-1,-1,-1,-1,-1,-1],"split_conditions":[6.75E1,1.225E2,2.235E5,1.45E0,1.05E0,8.1E1,8.5E-1,-1.8212414E-1,6.5E1,3.835E5,4.45E1,4.25E1,6.8607666E-2,6.8607666E-2,5E-1,-1.3616614E-1,-9.020814E-2,-9.020814E-2,1.375E2,-4.0534627E-2,1.5E5,7.4E1,1.7141981E-2,1.7650001E0,2.4658537E-1,-6.537139E-2,-4.0534627E-2,4.51E2,1.275E2,9.13889E-3,1.3140435E-2,1.1880293E-1,1.8269415E-1,-1.5697869E-2,-3.279489E-3,-3.279489E-3,9.13889E-3],"split_indices":[0,2,6,7,7,0,7,0,2,6,0,4,0,0,1,0,0,0,8,0,6,0,0,7,0,0,0,2,8,0,0,0,0,0,0,0,0],"split_type":[0,0,0,0,0,0,0,0,0,0,0,0,0,0,0,0,0,0,0,0,0,0,0,0,0,0,0,0,0,0,0,0,0,0,0,0,0],"sum_hessian":[8.01925E1,5.7909122E1,2.2283375E1,1.4432448E1,4.3476673E1,7.254772E0,1.5028603E1,1.0295652E1,4.1367965E0,1.8754957E1,2.4721716E1,5.8781495E0,1.3766228E0,1.7925835E0,1.3236019E1,2.2753773E0,1.8614193E0,1.5190626E1,3.564331E0,1.6982236E0,2.3023493E1,4.651577E0,1.2265725E0,9.557358E0,3.6786618E0,1.1054572E0,2.458874E0,2.9865508E0,2.0036942E1,3.3432205E0,1.3083565E0,5.6300845E0,3.9272735E0,1.6287248E0,1.3578259E0,1.3552079E0,1.8681734E1],"tree_param":{"num_deleted":"0","num_feature":"11","num_nodes":"37","size_leaf_vector":"0"}},{"base_weights":[5.6383662E-2,-2.81074E-1,8.812961E-2,-5.073833E-1,-9.647219E-2,6.539702E-2,2.3369747E-1,-2.6969847E-1,-9.647219E-2,-5.6470264E-2,1.1795719E-1,1.4954725E-1,4.0194908E-1,-9.647219E-2,3.0743463E-2,3.0743463E-2,1.4954725E-1,1.4954725E-1,2.7574816E-1,2.7574816E-1,5.113623E-1,-9.647219E-2,-3.2864362E-2,3.0743463E-2,9.014536E-2,9.014536E-2,1.4954725E-1,-6.4668275E-2,-3.2864362E-2,6.044441E-2,9.014536E-2],"categories":[],"categories_nodes":[],"categories_segments":[],"categories_sizes":[],"default_left":[1,1,1,0,1,1,1,0,0,1,1,1,1,1,0,1,1,0,0,0,0,0,1,0,1,0,0,0,0,0,0],"id":12,"left_children":[1,3,5,-1,7,9,11,-1,-1,13,15,17,19,21,-1,23,25,-1,-1,-1,-1,-1,27,-1,29,-1,-1,-1,-1,-1,-1],"loss_changes":[8.6196476E-1,2.828951E-1,2.2360277E-1,0E0,9.236427E-2,4.155004E-1,2.3462641E-1,0E0,0E0,5.054029E-1,5.6966203E-1,9.872839E-2,5.009383E-2,3.9315164E-2,0E0,5.4602377E-2,4.8577785E-4,0E0,0E0,0E0,0E0,0E0,4.593881E-2,0E0,3.8547695E-2,0E0,0E0,0E0,0E0,0E0,0E0],"parents":[2147483647,0,0,1,1,2,2,4,4,5,5,6,6,9,9,10,10,11,11,12,12,13,13,15,15,16,16,22,22,24,24],"right_children":[2,4,6,-1,8,10,12,-1,-1,14,16,18,20,22,-1,24,26,-1,-1,-1,-1,-1,28,-1,30,-1,-1,-1,-1,-1,-1],"split_conditions":[2.25E1,1.53E5,1.405E2,-1.5221499E-1,5E-1,3.25E1,6.05E1,-8.090954E-2,-2.8941657E-2,2.15E0,1.345E2,5E-1,5E-1,1.505E2,9.223039E-3,6.185E2,7.5E-1,4.4864178E-2,8.272445E-2,8.272445E-2,1.534087E-1,-2.8941657E-2,2.75E1,9.223039E-3,2.64179E5,2.7043609E-2,4.4864178E-2,-1.9400483E-2,-9.859309E-3,1.8133324E-2,2.7043609E-2],"split_indices":[4,6,8,0,1,4,0,0,0,7,8,1,9,2,0,2,7,0,0,0,0,0,4,0,6,0,0,0,0,0,0],"split_type":[0,0,0,0,0,0,0,0,0,0,0,0,0,0,0,0,0,0,0,0,0,0,0,0,0,0,0,0,0,0,0],"sum_hessian":[7.714812E1,5.958262E0,7.118985E1,2.1349168E0,3.823345E0,6.2827637E1,8.362216E0,2.3882082E0,1.4351369E0,1.8909414E1,4.391822E1,4.287599E0,4.074617E0,1.6526703E1,2.3827124E0,1.4494763E1,2.9423458E1,2.9153478E0,1.372251E0,1.346683E0,2.7279341E0,5.5475254E0,1.09791765E1,1.1234213E1,3.260551E0,1.9065263E0,2.7516932E1,4.7446814E0,6.234495E0,1.3449912E0,1.9155598E0],"tree_param":{"num_deleted":"0","num_feature":"11","num_nodes":"31","size_leaf_vector":"0"}},{"base_weights":[-5.638367E-2,-1.06920786E-1,6.1405426E-1,-4.9063703E-1,-1.3097546E-2,-5.8123016E-1,-2.518673E-1,-2.518673E-1,1.3332729E-1,-2.518673E-1,-5.9270002E-2,-5.9270002E-2,2.3191881E-1,-2.518673E-1,-1.5556864E-1,-1.5556864E-1,-5.9270002E-2,-5.9270002E-2,8.632441E-2,8.632441E-2,2.5356674E-1,-2.0371798E-1,-1.5556864E-1,-5.9270002E-2,1.3527203E-2,1.3527203E-2,8.632441E-2,8.632441E-2,1.6994557E-1,1.6994557E-1,2.5356674E-1],"categories":[],"categories_nodes":[],"categories_segments":[],"categories_sizes":[],"default_left":[1,1,0,1,1,0,0,1,1,1,1,1,1,0,1,0,0,1,1,1,1,0,0,0,0,0,0,0,0,0,0],"id":13,"left_children":[1,3,-1,5,7,-1,-1,9,11,13,15,17,19,-1,21,-1,-1,23,25,27,29,-1,-1,-1,-1,-1,-1,-1,-1,-1,-1],"loss_changes":[2.71347E0,2.6404757E0,0E0,3.2777762E-1,2.3129992E0,0E0,0E0,7.73036E-1,9.485531E-1,1.1144209E-1,8.739656E-2,4.3750975E-1,5.6670666E-1,0E0,1.1605188E-2,0E0,0E0,1.6245425E-2,1.4580011E-2,1.588527E-1,2.007258E-1,0E0,0E0,0E0,0E0,0E0,0E0,0E0,0E0,0E0,0E0],"parents":[2147483647,0,0,1,1,3,3,4,4,7,7,8,8,9,9,10,10,11,11,12,12,14,14,17,17,18,18,19,19,20,20],"right_children":[2,4,-1,6,8,-1,-1,10,12,14,16,18,20,-1,22,-1,-1,24,26,28,30,-1,-1,-1,-1,-1,-1,-1,-1,-1,-1],"split_conditions":[8.15E1,9.7E1,1.8421629E-1,5E-1,1.05E0,-1.7436905E-1,-7.556019E-2,3.835E5,2.155E5,6.65E1,1.375E2,5E-1,5.4E1,-7.556019E-2,1.375E2,-4.6670593E-2,-1.7781E-2,4.5E1,1.355E2,2.69679E5,1.25E0,-6.1115395E-2,-4.6670593E-2,-1.7781E-2,4.0581613E-3,4.0581613E-3,2.5897324E-2,2.5897324E-2,5.098367E-2,5.098367E-2,7.6070026E-2],"split_indices":[0,2,0,3,7,0,0,6,6,0,8,5,0,0,8,0,0,4,8,6,7,0,0,0,0,0,0,0,0,0,0],"split_type":[0,0,0,0,0,0,0,0,0,0,0,0,0,0,0,0,0,0,0,0,0,0,0,0,0,0,0,0,0,0,0],"sum_hessian":[7.714811E1,7.252198E1,4.626133E0,1.34176E1,5.910438E1,1.0183418E1,3.2341812E0,2.0993668E1,3.8110714E1,1.756132E1,3.4323485E0,1.0772449E1,2.7338264E1,1.5239698E1,2.3216202E0,1.0298463E0,2.402502E0,7.388306E0,3.3841424E0,7.6570144E0,1.968125E1,1.1165469E0,1.2050735E0,6.215555E0,1.1727505E0,1.6334687E0,1.7506737E0,4.976451E0,2.6805634E0,8.18587E0,1.149538E1],"tree_param":{"num_deleted":"0","num_feature":"11","num_nodes":"31","size_leaf_vector":"0"}},{"base_weights":[4.3402843E-2,-2.503169E-1,7.124221E-2,-4.8572052E-1,-8.953734E-2,2.9116763E-2,1.3213496E-1,-2.3887339E-1,-8.953734E-2,-4.4433407E-2,8.062586E-2,8.062586E-2,3.0625108E-1,-8.953734E-2,1.8096227E-2,1.8096227E-2,8.062586E-2,8.062586E-2,1.9343847E-1,1.9343847E-1,3.8780835E-1,-8.953734E-2,-3.5720557E-2,-3.5720557E-2,1.8096227E-2,1.8096227E-2,4.9361043E-2,1.9343847E-1,2.9062343E-1,2.9062343E-1,4.936467E-1,-8.953734E-2,-6.262895E-2,-8.812165E-3,1.8096227E-2,1.8096227E-2,3.3728637E-2],"categories":[],"categories_nodes":[],"categories_segments":[],"categories_sizes":[],"default_left":[1,1,1,0,1,1,1,0,0,1,1,1,1,1,1,1,0,0,0,1,1,1,0,0,1,1,0,0,0,0,0,0,0,0,0,0,0],"id":14,"left_children":[1,3,5,-1,7,9,11,-1,-1,13,15,17,19,21,23,25,-1,-1,-1,27,29,31,-1,-1,33,35,-1,-1,-1,-1,-1,-1,-1,-1,-1,-1,-1],"loss_changes":[6.334089E-1,2.9787213E-1,1.7453846E-1,0E0,6.467989E-2,1.9489333E-1,4.9435848E-1,0E0,0E0,2.641394E-1,1.955058E-1,3.8701794E-1,1.3801253E-1,8.6677015E-2,3.510192E-2,3.1440124E-2,0E0,0E0,0E0,4.324954E-2,2.5116205E-3,2.0299584E-2,0E0,0E0,1.2156386E-2,6.0201883E-3,0E0,0E0,0E0,0E0,0E0,0E0,0E0,0E0,0E0,0E0,0E0],"parents":[2147483647,0,0,1,1,2,2,4,4,5,5,6,6,9,9,10,10,11,11,12,12,13,13,14,14,15,15,19,19,20,20,21,21,24,24,25,25],"right_children":[2,4,6,-1,8,10,12,-1,-1,14,16,18,20,22,24,26,-1,-1,-1,28,30,32,-1,-1,34,36,-1,-1,-1,-1,-1,-1,-1,-1,-1,-1,-1],"split_conditions":[2.25E1,1.53E5,3.9E1,-1.4571616E-1,5E-1,1.14E0,5.765E2,-7.166202E-2,-2.6861202E-2,5E-1,1.365E2,1.395E2,2.185E5,3.995E5,5.1E1,3E0,2.418776E-2,2.418776E-2,5.8031544E-2,1.345E2,5E-1,1.405E2,-1.0716167E-2,-1.0716167E-2,8.5E-1,1.37E2,1.4808313E-2,5.8031544E-2,8.718703E-2,8.718703E-2,1.4809401E-1,-2.6861202E-2,-1.8788684E-2,-2.6436495E-3,5.4288683E-3,5.4288683E-3,1.0118592E-2],"split_indices":[4,6,4,0,1,7,2,0,0,3,8,8,6,6,0,7,0,0,0,8,9,8,0,0,7,2,0,0,0,0,0,0,0,0,0,0,0],"split_type":[0,0,0,0,0,0,0,0,0,0,0,0,0,0,0,0,0,0,0,0,0,0,0,0,0,0,0,0,0,0,0,0,0,0,0,0,0],"sum_hessian":[7.4281624E1,5.7391505E0,6.854247E1,2.0586972E0,3.6804533E0,4.1388313E1,2.7154163E1,2.2597637E0,1.4206895E0,1.9067877E1,2.2320435E1,1.684805E1,1.0306115E1,1.1448879E1,7.618998E0,1.4956853E1,7.363581E0,1.2791085E1,4.0569634E0,2.853941E0,7.4521747E0,1.0356416E1,1.0924635E0,3.6255345E0,3.9934635E0,1.3145769E1,1.8110834E0,1.2715575E0,1.5823834E0,4.405356E0,3.0468187E0,8.465944E0,1.8904713E0,1.2206062E0,2.7728572E0,4.1710587E0,8.97471E0],"tree_param":{"num_deleted":"0","num_feature":"11","num_nodes":"37","size_leaf_vector":"0"}},{"base_weights":[-4.3402825E-2,-3.6851543E-1,5.008803E-2,-5.482689E-1,-1.592137E-1,-5.424323E-2,4.0157437E-1,-3.5374132E-1,-1.592137E-1,-1.592137E-1,1.7366557E-1,1.7366557E-1,6.7775047E-1,-2.564775E-1,-1.592137E-1,-1.592137E-1,7.2259307E-3,7.2259307E-3,1.7366557E-1,1.7366557E-1,4.2570803E-1,4.2570803E-1,8.832441E-1,-1.592137E-1,-7.599389E-2,-1.4095809E-2,7.2259307E-3,9.044575E-2,1.7366557E-1,-1.592137E-1,-1.17603794E-1,-1.17603794E-1,-7.599389E-2,9.044575E-2,1.3205566E-1],"categories":[],"categories_nodes":[],"categories_segments":[],"categories_sizes":[],"default_left":[1,1,1,0,1,1,1,0,1,1,1,1,1,0,0,1,1,0,1,0,0,0,0,1,1,0,0,1,0,0,0,0,0,0,0],"id":15,"left_children":[1,3,5,-1,7,9,11,-1,13,15,17,19,21,-1,-1,23,25,-1,27,-1,-1,-1,-1,29,31,-1,-1,33,-1,-1,-1,-1,-1,-1,-1],"loss_changes":[2.3066473E0,7.0732903E-1,2.1981554E0,0E0,4.2093152E-1,1.3670932E0,1.3545012E0,0E0,4.9659014E-2,5.61043E-1,5.9241486E-1,1.9224992E-1,3.091421E-1,0E0,0E0,2.0034981E-1,1.0961331E-3,0E0,1.5904295E-1,0E0,0E0,0E0,0E0,2.5952458E-2,3.6286086E-2,0E0,0E0,2.5158733E-2,0E0,0E0,0E0,0E0,0E0,0E0,0E0],"parents":[2147483647,0,0,1,1,2,2,4,4,5,5,6,6,8,8,9,9,10,10,11,11,12,12,15,15,16,16,18,18,23,23,24,24,27,27],"right_children":[2,4,6,-1,8,10,12,-1,14,16,18,20,22,-1,-1,24,26,-1,28,-1,-1,-1,-1,30,32,-1,-1,34,-1,-1,-1,-1,-1,-1,-1],"split_conditions":[9.5E-1,5.9E1,3.095E5,-1.6448069E-1,1.375E2,5E-1,2.1E2,-1.061224E-1,5E-1,7.75E1,8.55E1,6.25E1,1.37E2,-7.6943256E-2,-4.7764115E-2,5.25E1,3.65E1,2.1677793E-3,1.19E0,5.209967E-2,1.2771241E-1,1.2771241E-1,2.6497325E-1,3.45E0,1.45E0,-4.228743E-3,2.1677793E-3,5E-1,5.209967E-2,-4.7764115E-2,-3.528114E-2,-3.528114E-2,-2.2798168E-2,2.7133726E-2,3.9616697E-2],"split_indices":[7,0,6,0,8,5,2,0,9,0,2,0,8,0,0,4,4,0,7,0,0,0,0,7,7,0,0,1,0,0,0,0,0,0,0],"split_type":[0,0,0,0,0,0,0,0,0,0,0,0,0,0,0,0,0,0,0,0,0,0,0,0,0,0,0,0,0,0,0,0,0,0,0],"sum_hessian":[7.4281624E1,1.5933045E1,5.834858E1,8.741203E0,7.1918416E0,4.564539E1,1.270319E1,3.8238091E0,3.3680325E0,3.1351376E1,1.4294014E1,5.452797E0,7.250393E0,1.5242739E0,1.8437587E0,2.8157478E1,3.1938975E0,2.2787342E0,1.201528E1,4.152361E0,1.3004361E0,3.4042923E0,3.8461006E0,2.5427626E1,2.729853E0,1.5259734E0,1.6679242E0,3.382433E0,8.632846E0,2.3555258E1,1.8723683E0,1.0217774E0,1.7080756E0,1.8585402E0,1.5238929E0],"tree_param":{"num_deleted":"0","num_feature":"11","num_nodes":"35","size_leaf_vector":"0"}},{"base_weights":[3.2129418E-2,-2.2414634E-1,5.62934E-2,-4.596838E-1,-8.392647E-2,3.5123322E-2,1.9717343E-1,-2.2267918E-1,-8.392647E-2,-5.2945912E-2,7.54325E-2,1.16148375E-1,3.7990925E-1,-8.392647E-2,1.1243295E-2,1.1243295E-2,1.16148375E-1,1.16148375E-1,2.4802881E-1,2.4802881E-1,4.7749755E-1,-8.392647E-2,-3.6341585E-2,1.1243295E-2,6.369583E-2,6.369583E-2,1.16148375E-1,-6.0134027E-2,-3.6341585E-2,3.7469566E-2,6.369583E-2,8.99221E-2,1.16148375E-1],"categories":[],"categories_nodes":[],"categories_segments":[],"categories_sizes":[],"default_left":[1,1,1,0,1,1,1,0,0,1,1,1,1,1,0,1,1,0,0,0,0,0,1,0,1,0,1,0,0,0,0,0,0],"id":16,"left_children":[1,3,5,-1,7,9,11,-1,-1,13,15,17,19,21,-1,23,25,-1,-1,-1,-1,-1,27,-1,29,-1,31,-1,-1,-1,-1,-1,-1],"loss_changes":[4.636845E-1,2.8077766E-1,1.9397843E-1,0E0,5.347588E-2,2.1620862E-1,2.5598142E-1,0E0,0E0,3.5634872E-1,4.4239783E-1,9.992073E-2,4.101211E-2,4.1599214E-2,0E0,5.1494054E-2,2.073884E-2,0E0,0E0,0E0,0E0,0E0,2.5645237E-2,0E0,3.1220801E-2,0E0,1.2409627E-2,0E0,0E0,0E0,0E0,0E0,0E0],"parents":[2147483647,0,0,1,1,2,2,4,4,5,5,6,6,9,9,10,10,11,11,12,12,13,13,15,15,16,16,22,22,24,24,26,26],"right_children":[2,4,6,-1,8,10,12,-1,-1,14,16,18,20,22,-1,24,26,-1,-1,-1,-1,-1,28,-1,30,-1,32,-1,-1,-1,-1,-1,-1],"split_conditions":[2.25E1,1.53E5,1.405E2,-1.3790515E-1,5E-1,3.25E1,6.05E1,-6.680376E-2,-2.5177943E-2,2.15E0,1.345E2,5E-1,5E-1,1.505E2,3.3729887E-3,6.185E2,7.5E-1,3.4844514E-2,7.440865E-2,7.440865E-2,1.4324927E-1,-2.5177943E-2,2.75E1,3.3729887E-3,2.64179E5,1.910875E-2,5.765E2,-1.8040208E-2,-1.0902476E-2,1.124087E-2,1.910875E-2,2.6976632E-2,3.4844514E-2],"split_indices":[4,6,8,0,1,4,0,0,0,7,8,1,9,2,0,2,7,0,0,0,0,0,4,0,6,0,2,0,0,0,0,0,0],"split_type":[0,0,0,0,0,0,0,0,0,0,0,0,0,0,0,0,0,0,0,0,0,0,0,0,0,0,0,0,0,0,0,0,0],"sum_hessian":[7.183911E1,5.476886E0,6.636223E1,1.9404117E0,3.536474E0,5.877883E1,7.583395E0,2.143492E0,1.3929819E0,1.8357368E1,4.0421467E1,3.9000075E0,3.6833878E0,1.606397E1,2.293397E0,1.3700618E1,2.6720846E1,2.7051141E0,1.1948932E0,1.1892693E0,2.4941185E0,5.4222183E0,1.0641752E1,1.0616659E1,3.0839589E0,1.5455438E0,2.5175303E1,4.7421265E0,5.8996253E0,1.3199162E0,1.7640425E0,1.6906755E1,8.268548E0],"tree_param":{"num_deleted":"0","num_feature":"11","num_nodes":"33","size_leaf_vector":"0"}},{"base_weights":[-3.212941E-2,-7.821016E-2,5.737E-1,-4.4798723E-1,6.8660234E-3,-5.39406E-1,-2.205606E-1,-8.259065E-2,2.4774492E-1,-2.205606E-1,5.443304E-2,8.257714E-2,2.4774492E-1,-2.205606E-1,-8.306378E-2,-8.306378E-2,8.257714E-2,8.257714E-2,1.6516103E-1,-1.518122E-1,-8.306378E-2,-8.306378E-2,-2.4332106E-4,-2.4332106E-4,8.257714E-2],"categories":[],"categories_nodes":[],"categories_segments":[],"categories_sizes":[],"default_left":[1,1,0,1,1,0,0,1,1,1,1,1,0,0,1,1,1,0,0,0,0,0,0,0,0],"id":17,"left_children":[1,3,-1,5,7,-1,-1,9,11,13,15,17,-1,-1,19,21,23,-1,-1,-1,-1,-1,-1,-1,-1],"loss_changes":[2.0783238E0,2.160249E0,0E0,2.9710078E-1,1.8038985E0,0E0,0E0,1.4123628E0,3.17155E-1,1.6897619E-1,5.766357E-1,1.7685571E-1,0E0,0E0,1.5182853E-1,3.171469E-1,2.2575092E-1,0E0,0E0,0E0,0E0,0E0,0E0,0E0,0E0],"parents":[2147483647,0,0,1,1,3,3,4,4,7,7,8,8,9,9,10,10,11,11,14,14,15,15,16,16],"right_children":[2,4,-1,6,8,-1,-1,10,12,14,16,18,-1,-1,20,22,24,-1,-1,-1,-1,-1,-1,-1,-1],"split_conditions":[8.15E1,9.7E1,1.7211E-1,5E-1,1.815E0,-1.6182181E-1,-6.616818E-2,2.43E5,3.65E1,1.19E0,5E-1,6.45E1,7.4323475E-2,-6.616818E-2,5E-1,1.45E0,1.355E2,2.4773143E-2,4.954831E-2,-4.554366E-2,-2.4919135E-2,-2.4919135E-2,-7.299632E-5,-7.299632E-5,2.4773143E-2],"split_indices":[0,2,0,3,7,0,0,6,4,7,9,0,0,0,10,7,8,0,0,0,0,0,0,0,0],"split_type":[0,0,0,0,0,0,0,0,0,0,0,0,0,0,0,0,0,0,0,0,0,0,0,0,0],"sum_hessian":[7.183911E1,6.757046E1,4.268657E0,1.1840578E1,5.5729877E1,8.933856E0,2.9067218E0,4.6258232E1,9.471646E0,1.6042192E1,3.0216038E1,4.0910144E0,5.3806324E0,8.216085E0,7.826108E0,1.0399879E1,1.9816158E1,1.9614241E0,2.12959E0,5.7305717E0,2.0955362E0,8.103876E0,2.296004E0,4.9336367E0,1.4882522E1],"tree_param":{"num_deleted":"0","num_feature":"11","num_nodes":"25","size_leaf_vector":"0"}},{"base_weights":[2.1102713E-2,-2.0309924E-1,4.2466946E-2,-4.4577914E-1,-8.031614E-2,2.4331557E-2,1.6693816E-1,-2.042878E-1,-8.031614E-2,-5.6139104E-2,6.221987E-2,9.5634855E-2,3.5322228E-1,-8.031614E-2,3.0403826E-3,3.0403826E-3,9.5634855E-2,9.5634855E-2,2.2442856E-1,2.2442856E-1,4.4724527E-1,-8.031614E-2,-3.863788E-2,3.0403826E-3,4.9337618E-2,4.9337618E-2,9.5634855E-2,-5.947701E-2,-3.863788E-2,2.6189E-2,4.9337618E-2,7.248624E-2,9.5634855E-2],"categories":[],"categories_nodes":[],"categories_segments":[],"categories_sizes":[],"default_left":[1,1,1,0,1,1,1,0,0,1,1,1,1,1,0,1,1,0,0,0,0,0,1,0,1,0,1,0,0,0,0,0,0],"id":18,"left_children":[1,3,5,-1,7,9,11,-1,-1,13,15,17,19,21,-1,23,25,-1,-1,-1,-1,-1,27,-1,29,-1,31,-1,-1,-1,-1,-1,-1],"loss_changes":[3.461052E-1,2.8147852E-1,1.4301237E-1,0E0,4.053092E-2,1.8044758E-1,2.3946169E-1,0E0,0E0,3.01866E-1,3.634492E-1,1.01666555E-1,3.9198756E-2,4.1123986E-2,0E0,4.965397E-2,2.3872137E-2,0E0,0E0,0E0,0E0,0E0,2.029441E-2,0E0,2.6073806E-2,0E0,1.4024019E-2,0E0,0E0,0E0,0E0,0E0,0E0],"parents":[2147483647,0,0,1,1,2,2,4,4,5,5,6,6,9,9,10,10,11,11,12,12,13,13,15,15,16,16,22,22,24,24,26,26],"right_children":[2,4,6,-1,8,10,12,-1,-1,14,16,18,20,22,-1,24,26,-1,-1,-1,-1,-1,28,-1,30,-1,32,-1,-1,-1,-1,-1,-1],"split_conditions":[2.25E1,1.53E5,1.405E2,-1.3373375E-1,5E-1,3.25E1,6.05E1,-6.128634E-2,-2.4094844E-2,2.15E0,1.345E2,5E-1,5E-1,1.505E2,9.121148E-4,6.185E2,7.5E-1,2.8690457E-2,6.732857E-2,6.732857E-2,1.3417359E-1,-2.4094844E-2,2.75E1,9.121148E-4,2.64179E5,1.4801286E-2,5.765E2,-1.7843103E-2,-1.1591365E-2,7.856701E-3,1.4801286E-2,2.1745872E-2,2.8690457E-2],"split_indices":[4,6,8,0,1,4,0,0,0,7,8,1,9,2,0,2,7,0,0,0,0,0,4,0,6,0,2,0,0,0,0,0,0],"split_type":[0,0,0,0,0,0,0,0,0,0,0,0,0,0,0,0,0,0,0,0,0,0,0,0,0,0,0,0,0,0,0,0,0],"sum_hessian":[6.945659E1,5.3026514E0,6.415394E1,1.8671513E0,3.4355E0,5.7038883E1,7.115056E0,2.0569139E0,1.378586E0,1.8104721E1,3.8934162E1,3.7463987E0,3.3686574E0,1.58909025E1,2.213819E0,1.3314684E1,2.5619478E1,2.6278338E0,1.1185647E0,1.1049663E0,2.263691E0,5.3080225E0,1.058288E1,1.0292371E1,3.0223138E0,1.4154408E0,2.4204039E1,4.74879E0,5.83409E0,1.2874055E0,1.7349082E0,1.6168373E1,8.035665E0],"tree_param":{"num_deleted":"0","num_feature":"11","num_nodes":"33","size_leaf_vector":"0"}},{"base_weights":[-2.1102712E-2,-4.352762E-1,4.125876E-2,-5.331148E-1,-1.9700873E-1,-6.9024004E-2,2.9308817E-1,-1.9700873E-1,3.4705807E-2,1.12032086E-1,4.793712E-1,-1.9700873E-1,-8.115146E-2,-5.6953523E-2,1.12032086E-1,1.12032086E-1,2.9570162E-1,3.1448692E-1,7.0157313E-1,-1.3908009E-1,-8.115146E-2,-8.115146E-2,2.7539281E-2,2.7539281E-2,1.12032086E-1,2.9570162E-1,5.0803006E-1,-8.115146E-2,-2.680609E-2,-2.680609E-2,2.7539281E-2],"categories":[],"categories_nodes":[],"categories_segments":[],"categories_sizes":[],"default_left":[1,1,1,0,0,1,1,1,1,1,1,0,1,1,1,0,0,1,0,0,0,1,1,0,0,0,0,0,0,0,0],"id":19,"left_children":[1,3,5,-1,-1,7,9,11,13,15,17,-1,19,21,23,-1,-1,25,-1,-1,-1,27,29,-1,-1,-1,-1,-1,-1,-1,-1],"loss_changes":[1.837745E0,3.4180653E-1,1.7462807E0,0E0,0E0,1.1004303E0,1.0999973E0,2.9729366E-2,6.040471E-1,1.4869872E-1,2.516036E-1,0E0,4.8708662E-2,3.3824313E-1,1.9850391E-1,0E0,0E0,1.8498701E-1,0E0,0E0,0E0,1.5516222E-1,6.969705E-3,0E0,0E0,0E0,0E0,0E0,0E0,0E0,0E0],"parents":[2147483647,0,0,1,1,2,2,5,5,6,6,7,7,8,8,9,9,10,10,12,12,13,13,14,14,17,17,21,21,22,22],"right_children":[2,4,6,-1,-1,8,10,12,14,16,18,-1,20,22,24,-1,-1,26,-1,-1,-1,28,30,-1,-1,-1,-1,-1,-1,-1,-1],"split_conditions":[8.5E-1,3.89E5,6.75E1,-1.5993445E-1,-5.910262E-2,1.21E2,2.235E5,5E-1,1.8499999E0,8.1E1,2.79E5,-5.910262E-2,1.25E0,1.9465E3,3.65E1,3.360963E-2,8.871049E-2,1.615E0,2.1047194E-1,-4.172403E-2,-2.434544E-2,6.45E1,1.05E0,8.261785E-3,3.360963E-2,8.871049E-2,1.5240902E-1,-2.434544E-2,-8.041827E-3,-8.041827E-3,8.261785E-3],"split_indices":[7,6,0,0,0,2,6,3,7,0,6,0,7,2,4,0,0,7,0,0,0,0,7,0,0,0,0,0,0,0,0],"split_type":[0,0,0,0,0,0,0,0,0,0,0,0,0,0,0,0,0,0,0,0,0,0,0,0,0,0,0,0,0,0,0],"sum_hessian":[6.945659E1,8.306841E0,6.114975E1,7.046413E0,1.2604281E0,4.3031174E1,1.8118578E1,9.380008E0,3.3651165E1,6.2291007E0,1.1889478E1,6.891388E0,2.48862E0,2.7848085E1,5.8030796E0,5.0134873E0,1.2156134E0,8.211489E0,3.6779888E0,1.2700641E0,1.2185559E0,2.5016228E1,2.831857E0,1.8567436E0,3.9463358E0,5.2449646E0,2.9665241E0,1.988147E1,5.134759E0,1.4538202E0,1.3780367E0],"tree_param":{"num_deleted":"0","num_feature":"11","num_nodes":"31","size_leaf_vector":"0"}},{"base_weights":[1.790712E-2,-1.7986527E-1,3.6493834E-2,-4.230729E-1,-7.168572E-2,-7.168572E-2,5.1730163E-2,-1.855574E-1,-7.168572E-2,-7.168572E-2,-9.977777E-3,5.963472E-3,1.22968554E-1,-7.168572E-2,-4.0831745E-2,-9.977777E-3,6.4466015E-2,6.4466015E-2,2.894397E-1,-9.977777E-3,2.7244119E-2,2.7244119E-2,6.4466015E-2,6.4466015E-2,1.7695287E-1,1.7695287E-1,4.4068712E-1,-9.977777E-3,8.633171E-3,8.633171E-3,2.7244119E-2,6.4466015E-2,1.038604E-1],"categories":[],"categories_nodes":[],"categories_segments":[],"categories_sizes":[],"default_left":[1,1,1,0,1,1,1,0,0,1,0,1,1,0,0,1,1,1,1,1,1,0,0,1,0,0,0,0,0,0,0,0,0],"id":20,"left_children":[1,3,5,-1,7,9,11,-1,-1,13,-1,15,17,-1,-1,19,21,23,25,27,29,-1,-1,31,-1,-1,-1,-1,-1,-1,-1,-1,-1],"loss_changes":[2.578969E-1,2.645505E-1,1.18762575E-1,0E0,3.2635223E-2,1.266562E-1,1.8443161E-1,0E0,0E0,2.58677E-2,0E0,1.300526E-1,3.592645E-1,0E0,0E0,7.9747625E-2,1.2774038E-1,2.843853E-1,9.568012E-2,6.900318E-3,1.2010928E-2,0E0,0E0,3.4250468E-3,0E0,0E0,0E0,0E0,0E0,0E0,0E0,0E0,0E0],"parents":[2147483647,0,0,1,1,2,2,4,4,5,5,6,6,9,9,11,11,12,12,15,15,16,16,17,17,18,18,19,19,20,20,23,23],"right_children":[2,4,6,-1,8,10,12,-1,-1,14,-1,16,18,-1,-1,20,22,24,26,28,30,-1,-1,32,-1,-1,-1,-1,-1,-1,-1,-1,-1],"split_conditions":[2.25E1,1.53E5,1.315E2,-1.2692188E-1,5E-1,6.285E2,3.9E1,-5.566722E-2,-2.1505715E-2,5E-1,-2.9933332E-3,1.14E0,5.765E2,-2.1505715E-2,-1.2249524E-2,5E-1,1.365E2,1.395E2,5E-1,1.405E2,8.5E-1,8.173236E-3,1.9339805E-2,2.885E5,5.3085864E-2,5.3085864E-2,1.3220614E-1,-2.9933332E-3,2.5899515E-3,2.5899515E-3,8.173236E-3,1.9339805E-2,3.1158121E-2],"split_indices":[4,6,8,0,1,2,4,0,0,10,0,7,2,0,0,3,8,8,10,8,7,0,0,6,0,0,0,0,0,0,0,0,0],"split_type":[0,0,0,0,0,0,0,0,0,0,0,0,0,0,0,0,0,0,0,0,0,0,0,0,0,0,0,0,0,0,0,0,0],"sum_hessian":[6.737244E1,5.0423284E0,6.2330112E1,1.7568922E0,3.2854364E0,6.5370736E0,5.5793037E1,1.9131463E0,1.37229E0,5.2226267E0,1.3144469E0,3.4629333E1,2.1163702E1,3.49107E0,1.7315564E0,1.6657215E1,1.797212E1,1.34846E1,7.679103E0,1.0622341E1,6.034874E0,1.1080319E1,6.8918004E0,1.0393544E1,3.0910563E0,5.274475E0,2.4046276E0,8.8679695E0,1.7543721E0,1.1804135E0,4.8544602E0,6.5086675E0,3.8848767E0],"tree_param":{"num_deleted":"0","num_feature":"11","num_nodes":"33","size_leaf_vector":"0"}},{"base_weights":[-1.7907111E-2,-5.385287E-1,2.5829118E-2,-2.5634977E-1,8.54501E-2,-2.5634977E-1,-8.544984E-2,5.4274872E-2,7.8101933E-1,6.488037E-4,4.176471E-1,-8.544984E-2,1.9024885E-1,2.0914795E-1,4.176471E-1,-8.544984E-2,5.2399505E-2,5.2399505E-2,2.0914795E-1],"categories":[],"categories_nodes":[],"categories_segments":[],"categories_sizes":[],"default_left":[1,0,1,1,1,0,0,1,0,1,1,1,1,0,0,0,0,0,0],"id":21,"left_children":[1,-1,3,5,7,-1,-1,9,-1,11,13,15,17,-1,-1,-1,-1,-1,-1],"loss_changes":[1.5707519E0,0E0,1.4940757E0,1.5936565E-1,1.1934181E0,0E0,0E0,1.1033028E0,0E0,1.0221752E0,1.3932443E-1,6.380707E-1,4.6619278E-1,0E0,0E0,0E0,0E0,0E0,0E0],"parents":[2147483647,0,0,2,2,3,3,4,4,7,7,9,9,10,10,11,11,12,12],"right_children":[2,-1,4,6,8,-1,-1,10,-1,12,14,16,18,-1,-1,-1,-1,-1,-1],"split_conditions":[4.45E1,-1.6155861E-1,8.5E-1,3.86E5,6.1E1,-7.690494E-2,-2.5634952E-2,7.65E1,2.3430581E-1,5E-1,1.84E5,3.095E5,1.205E2,6.274439E-2,1.2529413E-1,-2.5634952E-2,1.5719851E-2,1.5719851E-2,6.274439E-2],"split_indices":[0,0,7,6,4,0,0,0,0,5,6,6,2,0,0,0,0,0,0],"split_type":[0,0,0,0,0,0,0,0,0,0,0,0,0,0,0,0,0,0,0],"sum_hessian":[6.737244E1,4.3444495E0,6.302799E1,7.037686E0,5.5990303E1,5.8375487E0,1.2001373E0,5.462027E1,1.3700365E0,4.8582596E1,6.0376725E0,3.1202965E1,1.7379631E1,1.3986899E0,4.6389823E0,2.3703812E1,7.4991546E0,3.902197E0,1.3477433E1],"tree_param":{"num_deleted":"0","num_feature":"11","num_nodes":"19","size_leaf_vector":"0"}},{"base_weights":[1.4574877E-2,-1.6207746E-1,3.0889241E-2,-4.0093896E-1,-6.559411E-2,-6.559411E-2,4.6025038E-2,-1.694021E-1,-6.559411E-2,-6.559411E-2,-9.784535E-3,3.977181E-3,1.1314444E-1,-6.559411E-2,-3.768932E-2,-9.784535E-3,5.856081E-2,5.856081E-2,2.7216372E-1,-9.784535E-3,2.4388138E-2,2.4388138E-2,5.856081E-2,5.856081E-2,1.6536227E-1,1.6536227E-1,4.1801578E-1,-9.784535E-3,7.301802E-3,7.301802E-3,2.4388138E-2,5.856081E-2,1.0311563E-1],"categories":[],"categories_nodes":[],"categories_segments":[],"categories_sizes":[],"default_left":[1,1,1,0,1,1,1,0,0,1,0,1,1,0,0,1,1,1,1,1,1,0,0,1,0,0,0,0,0,0,0,0,0],"id":22,"left_children":[1,3,5,-1,7,9,11,-1,-1,13,-1,15,17,-1,-1,19,21,23,25,27,29,-1,-1,31,-1,-1,-1,-1,-1,-1,-1,-1,-1],"loss_changes":[1.9755837E-1,2.378544E-1,1.1030173E-1,0E0,2.6131436E-2,1.1457822E-1,1.5625954E-1,0E0,0E0,1.9039795E-2,0E0,1.2777787E-1,3.107385E-1,0E0,0E0,6.81677E-2,1.1105485E-1,2.5480458E-1,8.184999E-2,5.9794486E-3,1.2212679E-2,0E0,0E0,6.1064065E-3,0E0,0E0,0E0,0E0,0E0,0E0,0E0,0E0,0E0],"parents":[2147483647,0,0,1,1,2,2,4,4,5,5,6,6,9,9,11,11,12,12,15,15,16,16,17,17,18,18,19,19,20,20,23,23],"right_children":[2,4,6,-1,8,10,12,-1,-1,14,-1,16,18,-1,-1,20,22,24,26,28,30,-1,-1,32,-1,-1,-1,-1,-1,-1,-1,-1,-1],"split_conditions":[2.25E1,1.53E5,1.315E2,-1.2028169E-1,5E-1,6.285E2,3.9E1,-5.082063E-2,-1.9678233E-2,5E-1,-2.9353604E-3,1.14E0,5.765E2,-1.9678233E-2,-1.1306796E-2,5E-1,1.365E2,1.395E2,5E-1,1.405E2,8.5E-1,7.3164417E-3,1.7568244E-2,2.885E5,4.960868E-2,4.960868E-2,1.2540475E-1,-2.9353604E-3,2.1905405E-3,2.1905405E-3,7.3164417E-3,1.7568244E-2,3.0934691E-2],"split_indices":[4,6,8,0,1,2,4,0,0,10,0,7,2,0,0,3,8,8,10,8,7,0,0,6,0,0,0,0,0,0,0,0,0],"split_type":[0,0,0,0,0,0,0,0,0,0,0,0,0,0,0,0,0,0,0,0,0,0,0,0,0,0,0,0,0,0,0,0,0],"sum_hessian":[6.581259E1,4.8087444E0,6.100385E1,1.6341888E0,3.1745553E0,6.4769487E0,5.4526897E1,1.8242159E0,1.3503395E0,5.1590343E0,1.3179145E0,3.4176083E1,2.0350815E1,3.480603E0,1.6784314E0,1.6377747E1,1.7798338E1,1.3070926E1,7.279889E0,1.0479255E1,5.898491E0,1.09586735E1,6.8396645E0,1.0188456E1,2.8824694E0,5.089735E0,2.1901543E0,8.737722E0,1.7415326E0,1.1255814E0,4.7729096E0,6.3848605E0,3.8035953E0],"tree_param":{"num_deleted":"0","num_feature":"11","num_nodes":"33","size_leaf_vector":"0"}},{"base_weights":[-1.4574883E-2,-3.386746E-1,5.4835107E-2,-4.6954355E-1,-1.4191975E-1,-2.2911986E-2,3.8262534E-1,-5.333726E-1,-3.0573165E-1,-1.03701286E-1,1.7985667E-1,1.7985667E-1,6.685777E-1,-1.4191975E-1,3.8077693E-2,3.8077693E-2,1.7985667E-1,1.7985667E-1,4.2421716E-1,-1.4191975E-1,-5.1921025E-2,-5.1921025E-2,3.8077693E-2,3.8077693E-2,1.08967185E-1,-1.4191975E-1,-9.6920386E-2,-5.1921025E-2,-6.9216657E-3,-6.9216657E-3,3.8077693E-2],"categories":[],"categories_nodes":[],"categories_segments":[],"categories_sizes":[],"default_left":[1,1,1,1,0,1,1,0,0,1,1,1,0,1,1,1,0,0,0,1,0,1,1,0,0,0,0,0,0,0,0],"id":23,"left_children":[1,3,5,7,-1,9,11,-1,-1,13,15,17,-1,19,21,23,-1,-1,-1,25,-1,27,29,-1,-1,-1,-1,-1,-1,-1,-1],"loss_changes":[1.521571E0,4.6597242E-1,1.433067E0,3.3327818E-2,0E0,1.3390839E0,1.1575742E0,0E0,0E0,9.619494E-1,5.491835E-2,1.6975781E-1,0E0,2.3357081E-1,1.6608322E-1,1.0453921E-1,0E0,0E0,0E0,6.12607E-2,0E0,1.080451E-1,9.084372E-2,0E0,0E0,0E0,0E0,0E0,0E0,0E0,0E0],"parents":[2147483647,0,0,1,1,2,2,3,3,5,5,6,6,9,9,10,10,11,11,13,13,14,14,15,15,19,19,21,21,22,22],"right_children":[2,4,6,8,-1,10,12,-1,-1,14,16,18,-1,20,22,24,-1,-1,-1,26,-1,28,30,-1,-1,-1,-1,-1,-1,-1,-1],"split_conditions":[9.7E1,5E-1,1.815E0,2.8000002E0,-4.2575926E-2,3.835E5,3.65E1,-1.6001178E-1,-9.17195E-2,6.45E1,5.35E1,6.45E1,2.0057331E-1,1.9465E3,1.19E0,1.385E2,5.3957004E-2,5.3957004E-2,1.2726516E-1,5E-1,-1.5576308E-2,7.75E1,1.35E2,1.1423308E-2,3.2690156E-2,-4.2575926E-2,-2.9076116E-2,-1.5576308E-2,-2.0764999E-3,-2.0764999E-3,1.1423308E-2],"split_indices":[2,3,7,7,0,6,4,0,0,0,0,0,0,2,7,8,0,0,0,5,0,0,8,0,0,0,0,0,0,0,0],"split_type":[0,0,0,0,0,0,0,0,0,0,0,0,0,0,0,0,0,0,0,0,0,0,0,0,0,0,0,0,0,0,0],"sum_hessian":[6.581259E1,1.092422E1,5.488837E1,7.8294487E0,3.0947716E0,4.5117302E1,9.771069E0,6.0190864E0,1.8103621E0,3.96386E1,5.4787025E0,3.9350264E0,5.836042E0,2.2880207E1,1.6758392E1,2.5243306E0,2.9543717E0,1.9457388E0,1.9892877E0,2.0600557E1,2.2796497E0,8.952635E0,7.8057575E0,1.2435358E0,1.280795E0,1.2540036E1,8.060521E0,6.1737757E0,2.7788594E0,3.1135283E0,4.6922297E0],"tree_param":{"num_deleted":"0","num_feature":"11","num_nodes":"31","size_leaf_vector":"0"}},{"base_weights":[7.1366075E-3,-9.688332E-3,1.3836314E-1,-8.95578E-2,4.0881906E-2,6.43374E-2,3.3143178E-1,-1.9308648E-1,-2.4337946E-2,-2.4337946E-2,6.43374E-2,6.43374E-2,1.9788459E-1,1.9788459E-1,4.1884694E-1,-4.6084264E-1,-1.0871221E-1,-1.0871221E-1,-2.4337946E-2,-2.4337946E-2,1.9999728E-2,1.9999728E-2,6.43374E-2,-1.8244861E-1,-1.0871221E-1,-1.0871221E-1,-6.652508E-2,-2.169109E-3,1.9999728E-2,4.2168565E-2,6.43374E-2,-2.8477743E-1,-1.4558041E-1,4.2168565E-2,5.3252984E-2,5.3252984E-2,6.43374E-2],"categories":[],"categories_nodes":[],"categories_segments":[],"categories_sizes":[],"default_left":[1,1,1,1,1,1,1,1,1,1,1,0,0,0,0,0,1,1,0,0,1,0,1,1,0,0,0,0,0,1,1,0,0,0,0,0,0],"id":24,"left_children":[1,3,5,7,9,11,13,15,17,19,21,-1,-1,-1,-1,-1,23,25,-1,-1,27,-1,29,31,-1,-1,-1,-1,-1,33,35,-1,-1,-1,-1,-1,-1],"loss_changes":[1.4453146E-1,2.3961608E-1,2.4316859E-1,3.8516772E-1,2.6075205E-1,1.0964906E-1,3.6995083E-2,6.235036E-1,3.923057E-2,5.4420307E-2,3.9069355E-2,0E0,0E0,0E0,0E0,0E0,3.1052925E-2,1.8300757E-2,0E0,0E0,2.3155306E-2,0E0,1.3712555E-2,1.8522078E-1,0E0,0E0,0E0,0E0,0E0,4.0745623E-2,4.806161E-3,0E0,0E0,0E0,0E0,0E0,0E0],"parents":[2147483647,0,0,1,1,2,2,3,3,4,4,5,5,6,6,7,7,8,8,9,9,10,10,16,16,17,17,20,20,22,22,23,23,29,29,30,30],"right_children":[2,4,6,8,10,12,14,16,18,20,22,-1,-1,-1,-1,-1,24,26,-1,-1,28,-1,30,32,-1,-1,-1,-1,-1,34,36,-1,-1,-1,-1,-1,-1],"split_conditions":[1.405E2,3.25E1,6.05E1,1.6500001E0,1.345E2,5E-1,5E-1,1.505E2,2.25E1,6.185E2,7.5E-1,1.930122E-2,5.936538E-2,5.936538E-2,1.2565409E-1,-1.382528E-1,2.75E1,5E-1,-7.301384E-3,-7.301384E-3,5E-1,5.9999186E-3,5.765E2,1.1500001E0,-3.2613665E-2,-3.2613665E-2,-1.9957524E-2,-6.507327E-4,5.9999186E-3,2.91E5,1.365E2,-8.543323E-2,-4.3674126E-2,1.265057E-2,1.5975896E-2,1.5975896E-2,1.930122E-2],"split_indices":[8,4,0,7,8,1,9,2,4,2,7,0,0,0,0,0,4,1,0,0,3,0,2,7,0,0,0,0,0,6,8,0,0,0,0,0,0],"split_type":[0,0,0,0,0,0,0,0,0,0,0,0,0,0,0,0,0,0,0,0,0,0,0,0,0,0,0,0,0,0,0,0,0,0,0,0,0],"sum_hessian":[6.3854534E1,5.741886E1,6.43567E0,2.1961857E1,3.5457005E1,3.3978739E0,3.0377963E0,1.5976759E1,5.985098E0,1.2352091E1,2.3104916E1,2.386764E0,1.0111097E0,1.0031044E0,2.0346918E0,5.0984282E0,1.087833E1,2.021877E0,3.9632208E0,9.5069475E0,2.8451436E0,1.0582224E0,2.2046692E1,6.8850183E0,3.9933124E0,1.0034162E0,1.0184609E0,1.2694381E0,1.5757054E0,1.4739562E1,7.3071313E0,2.1862464E0,4.698772E0,9.993564E0,4.7459974E0,2.3463788E0,4.960752E0],"tree_param":{"num_deleted":"0","num_feature":"11","num_nodes":"37","size_leaf_vector":"0"}},{"base_weights":[-7.136618E-3,-4.4862904E-2,5.093941E-1,-3.8321444E-1,2.2772195E-2,-4.7755322E-1,-1.8022113E-1,-4.096869E-2,2.322656E-1,-1.8022113E-1,7.4395046E-2,9.564846E-2,2.322656E-1,-1.8022113E-1,-5.291304E-2,-5.291304E-2,9.564846E-2,9.564846E-2,1.6395703E-1,-5.291304E-2,2.136771E-2,2.136771E-2,9.564846E-2],"categories":[],"categories_nodes":[],"categories_segments":[],"categories_sizes":[],"default_left":[1,1,0,1,1,0,0,1,1,1,1,1,0,0,0,1,1,0,0,0,0,0,0],"id":25,"left_children":[1,3,-1,5,7,-1,-1,9,11,13,15,17,-1,-1,-1,19,21,-1,-1,-1,-1,-1,-1],"loss_changes":[1.2866595E0,1.412897E0,0E0,2.3791301E-1,1.1399379E0,0E0,0E0,1.2239424E0,8.442223E-2,1.7797351E-1,3.916853E-1,7.264444E-2,0E0,0E0,0E0,2.6738647E-1,1.38399E-1,0E0,0E0,0E0,0E0,0E0,0E0],"parents":[2147483647,0,0,1,1,3,3,4,4,7,7,8,8,9,9,10,10,11,11,15,15,16,16],"right_children":[2,4,-1,6,8,-1,-1,10,12,14,16,18,-1,-1,-1,20,22,-1,-1,-1,-1,-1,-1],"split_conditions":[8.15E1,9.7E1,1.5281823E-1,5E-1,3.835E5,-1.4326598E-1,-5.406634E-2,1.05E0,5.35E1,6.65E1,3.65E1,1.385E2,6.9679685E-2,-5.406634E-2,-1.5873913E-2,6.45E1,4.7E1,2.8694538E-2,4.9187113E-2,-1.5873913E-2,6.4103133E-3,6.4103133E-3,2.8694538E-2],"split_indices":[0,2,0,3,6,0,0,7,0,0,4,8,0,0,0,0,0,0,0,0,0,0,0],"split_type":[0,0,0,0,0,0,0,0,0,0,0,0,0,0,0,0,0,0,0,0,0,0,0],"sum_hessian":[6.3854534E1,6.0359177E1,3.4953578E0,9.278186E0,5.108099E1,6.8491883E0,2.428997E0,4.5607685E1,5.473304E0,1.3286339E1,3.2321346E1,2.5221071E0,2.951197E0,1.1315263E1,1.9710755E0,1.7841854E1,1.4479493E1,1.2311662E0,1.2909409E0,1.0049364E1,7.79249E0,1.3925995E0,1.3086894E1],"tree_param":{"num_deleted":"0","num_feature":"11","num_nodes":"23","size_leaf_vector":"0"}},{"base_weights":[7.328916E-3,-1.2978423E-1,2.0209657E-2,-3.8710657E-1,-5.4787286E-2,7.0828776E-4,9.830461E-2,-1.4175494E-1,-5.4787286E-2,-5.4787286E-2,3.624221E-2,4.950645E-2,3.9382237E-1,-5.4787286E-2,-9.272538E-3,-3.6876925E-4,4.950645E-2,4.950645E-2,2.2166441E-1,2.2166441E-1,5.3395855E-1,-9.272538E-3,2.4568839E-2,2.4568839E-2,4.950645E-2,4.950645E-2,1.3558543E-1,-9.272538E-3,7.6481504E-3,7.6481504E-3,2.4568839E-2,2.4568839E-2,3.7037645E-2],"categories":[],"categories_nodes":[],"categories_segments":[],"categories_sizes":[],"default_left":[1,1,1,0,1,1,1,0,0,1,1,1,1,0,0,1,1,1,0,0,0,1,1,1,0,0,0,0,0,0,0,0,0],"id":26,"left_children":[1,3,5,-1,7,9,11,-1,-1,13,15,17,19,-1,-1,21,23,25,-1,-1,-1,27,29,31,-1,-1,-1,-1,-1,-1,-1,-1,-1],"loss_changes":[1.1451805E-1,2.4653324E-1,8.9451455E-2,0E0,1.7519142E-2,2.0546746E-1,5.182158E-1,0E0,0E0,2.9724717E-2,2.4668995E-2,1.259512E-1,1.4209789E-1,0E0,0E0,8.9703895E-2,3.3629544E-2,6.5795295E-2,0E0,0E0,0E0,8.340394E-3,8.181363E-3,6.395448E-3,0E0,0E0,0E0,0E0,0E0,0E0,0E0,0E0,0E0],"parents":[2147483647,0,0,1,1,2,2,4,4,5,5,6,6,9,9,10,10,11,11,12,12,15,15,16,16,17,17,21,21,22,22,23,23],"right_children":[2,4,6,-1,8,10,12,-1,-1,14,16,18,20,-1,-1,22,24,26,-1,-1,-1,28,30,32,-1,-1,-1,-1,-1,-1,-1,-1,-1],"split_conditions":[2.25E1,1.53E5,5.945E2,-1.16131976E-1,5E-1,1.315E2,1.14E0,-4.2526484E-2,-1.6436186E-2,5E-1,3.25E1,1.395E2,5E-1,-1.6436186E-2,-2.7817616E-3,1.505E2,1.355E2,3.9E1,6.649933E-2,6.649933E-2,1.6018757E-1,1.25E0,5E-1,4.75E1,1.4851935E-2,1.4851935E-2,4.067563E-2,-2.7817616E-3,2.2944452E-3,2.2944452E-3,7.370652E-3,7.370652E-3,1.1111294E-2],"split_indices":[4,6,2,0,1,8,7,0,0,10,4,8,9,0,0,2,8,4,0,0,0,7,1,4,0,0,0,0,0,0,0,0,0],"split_type":[0,0,0,0,0,0,0,0,0,0,0,0,0,0,0,0,0,0,0,0,0,0,0,0,0,0,0,0,0,0,0,0,0],"sum_hessian":[6.235652E1,4.5754848E0,5.7781036E1,1.5435027E0,3.0319824E0,4.7042862E1,1.0738173E1,1.713181E0,1.3188014E0,5.028904E0,4.2013958E1,7.1105704E0,3.6276026E0,3.3877141E0,1.6411899E0,1.2944616E1,2.9069342E1,4.903653E0,2.206917E0,1.260478E0,2.3671246E0,5.3846755E0,7.5599413E0,9.004239E0,2.0065104E1,3.8556473E0,1.0480058E0,2.8551514E0,2.529524E0,4.3761153E0,3.1838257E0,6.403635E0,2.6006043E0],"tree_param":{"num_deleted":"0","num_feature":"11","num_nodes":"33","size_leaf_vector":"0"}},{"base_weights":[-7.3289145E-3,-4.9975604E-1,3.0807044E-2,-2.344745E-1,8.474549E-2,-2.344745E-1,-7.486451E-2,-7.486451E-2,1.6424274E-1,-7.486451E-2,4.468912E-2,6.954319E-2,3.6560577E-1,-7.486451E-2,-1.5087694E-2,-1.5087694E-2,4.468912E-2,4.468912E-2,2.1757448E-1,2.1757448E-1,6.4223444E-1,-7.486451E-2,-4.49761E-2,4.468912E-2,1.311318E-1,2.1757448E-1,3.9944845E-1],"categories":[],"categories_nodes":[],"categories_segments":[],"categories_sizes":[],"default_left":[1,0,1,1,1,0,0,1,1,1,1,1,1,1,0,0,0,1,0,1,0,0,0,0,0,0,0],"id":27,"left_children":[1,-1,3,5,7,-1,-1,9,11,13,15,17,19,21,-1,-1,-1,23,-1,25,-1,-1,-1,-1,-1,-1,-1],"loss_changes":[1.2051793E0,0E0,1.196501E0,1.4407015E-1,8.654704E-1,0E0,0E0,2.3974718E-1,7.2004807E-1,7.132459E-2,1.0328313E-1,4.2002994E-1,4.859153E-1,2.9426366E-2,0E0,0E0,0E0,1.7470494E-1,0E0,7.5896055E-2,0E0,0E0,0E0,0E0,0E0,0E0,0E0],"parents":[2147483647,0,0,2,2,3,3,4,4,7,7,8,8,9,9,10,10,11,11,12,12,13,13,17,17,19,19],"right_children":[2,-1,4,6,8,-1,-1,10,12,14,16,18,20,22,-1,-1,-1,24,-1,26,-1,-1,-1,-1,-1,-1,-1],"split_conditions":[4.45E1,-1.4992681E-1,8.5E-1,3.86E5,2.155E5,-7.0342354E-2,-2.2459352E-2,5E-1,6.75E1,2.8000002E0,1.19E0,3.31E3,2.79E5,7.4E1,-4.5263083E-3,-4.5263083E-3,1.3406736E-2,5E-1,6.5272346E-2,1.615E0,1.9267035E-1,-2.2459352E-2,-1.3492831E-2,1.3406736E-2,3.9339542E-2,6.5272346E-2,1.1983454E-1],"split_indices":[0,0,7,6,6,0,0,3,0,7,7,2,6,0,0,0,0,10,0,7,0,0,0,0,0,0,0],"split_type":[0,0,0,0,0,0,0,0,0,0,0,0,0,0,0,0,0,0,0,0,0,0,0,0,0,0,0],"sum_hessian":[6.235652E1,3.6120224E0,5.87445E1,6.2029743E0,5.2541527E1,5.02816E0,1.1748141E0,1.4448029E1,3.80935E1,9.244132E0,5.203897E0,2.6823816E1,1.126968E1,7.8557596E0,1.388372E0,1.4565526E0,3.7473445E0,2.5301058E1,1.5227594E0,7.8217473E0,3.4479325E0,6.0015993E0,1.8541605E0,1.8133818E1,7.1672406E0,5.096184E0,2.7255635E0],"tree_param":{"num_deleted":"0","num_feature":"11","num_nodes":"27","size_leaf_vector":"0"}},{"base_weights":[8.73182E-3,-9.453381E-2,2.471297E-2,-3.3315858E-1,-3.4910418E-2,-8.574345E-3,8.581616E-2,-5.425943E-1,-1.840345E-1,-3.4910418E-2,3.8620908E-2,3.8620908E-2,2.604295E-1,-6.936252E-1,-3.633144E-1,-3.4910418E-2,1.8552449E-3,1.8552449E-3,3.8620908E-2,3.8620908E-2,1.4952521E-1,1.4952521E-1,4.0017816E-1,-3.4910418E-2,-1.6527586E-2,-1.6527586E-2,1.8552449E-3,3.8620908E-2,9.0941235E-2,-3.4910418E-2,-2.5719002E-2,-7.3361704E-3,1.8552449E-3,6.478107E-2,9.407306E-2],"categories":[],"categories_nodes":[],"categories_segments":[],"categories_sizes":[],"default_left":[1,1,1,1,0,1,1,1,0,1,1,1,1,0,0,1,1,0,0,1,0,0,0,1,0,0,1,0,1,0,0,0,0,0,0],"id":28,"left_children":[1,3,5,7,-1,9,11,13,-1,15,17,19,21,-1,-1,23,25,-1,-1,27,-1,-1,-1,29,-1,-1,31,-1,33,-1,-1,-1,-1,-1,-1],"loss_changes":[1.0490451E-1,4.7841805E-1,1.1181973E-1,2.8519332E-1,0E0,1.9545428E-1,3.334037E-1,2.2314787E-2,0E0,6.809116E-2,1.0758633E-1,2.1548572E-1,6.905216E-2,0E0,0E0,7.6298565E-3,1.330614E-2,0E0,0E0,1.0778874E-2,0E0,0E0,0E0,1.4135987E-3,0E0,0E0,6.804509E-3,0E0,1.8430732E-2,0E0,0E0,0E0,0E0,0E0,0E0],"parents":[2147483647,0,0,1,1,2,2,3,3,5,5,6,6,7,7,9,9,10,10,11,11,12,12,15,15,16,16,19,19,23,23,26,26,28,28],"right_children":[2,4,6,8,-1,10,12,14,-1,16,18,20,22,-1,-1,24,26,-1,-1,28,-1,-1,-1,30,-1,-1,32,-1,34,-1,-1,-1,-1,-1,-1],"split_conditions":[1.315E2,4.5E2,3.9E1,1.6500001E0,-1.0473126E-2,1.14E0,5.765E2,3.65E1,-5.5210352E-2,5E-1,1.365E2,1.395E2,5E-1,-2.0808758E-1,-1.0899432E-1,3.9E5,8.5E-1,5.565735E-4,1.1586273E-2,2.885E5,4.4857565E-2,4.4857565E-2,1.20053455E-1,1.405E2,-4.9582757E-3,-4.9582757E-3,4.75E1,1.1586273E-2,5.5E1,-1.0473126E-2,-7.7157007E-3,-2.2008512E-3,5.565735E-4,1.9434322E-2,2.8221918E-2],"split_indices":[8,2,4,7,0,7,2,4,0,3,8,8,10,0,0,6,7,0,0,6,0,0,0,8,0,0,0,0,4,0,0,0,0,0,0],"split_type":[0,0,0,0,0,0,0,0,0,0,0,0,0,0,0,0,0,0,0,0,0,0,0,0,0,0,0,0,0,0,0,0,0,0,0],"sum_hessian":[6.1151154E1,7.536583E0,5.361457E1,4.733249E0,2.8033335E0,3.5263615E1,1.835096E1,2.4734006E0,2.2598488E0,1.5663108E1,1.9600504E1,1.1667937E1,6.6830225E0,1.4375703E0,1.0358301E0,1.0147542E1,5.515567E0,1.2226571E1,7.373934E0,9.356077E0,2.3118594E0,4.7239523E0,1.9590706E0,8.686117E0,1.4614239E0,1.0627935E0,4.452773E0,5.873584E0,3.4824936E0,7.0895963E0,1.5965211E0,1.8176498E0,2.6351233E0,2.472865E0,1.0096287E0],"tree_param":{"num_deleted":"0","num_feature":"11","num_nodes":"35","size_leaf_vector":"0"}},{"base_weights":[-8.731814E-3,-8.184707E-2,2.2152944E-1,-4.75988E-1,-2.2621823E-2,6.984118E-2,4.0470505E-1,-2.493049E-1,5.301119E-2,6.984118E-2,2.3727311E-1,2.3727311E-1,5.4033375E-1,-2.493049E-1,-9.8146856E-2,-9.8146856E-2,6.984118E-2,3.8880342E-1,6.9753385E-1,-9.8146856E-2,-1.4152836E-2,-1.4152836E-2,6.984118E-2,-5.6149848E-2,-1.4152836E-2,2.7844174E-2,6.984118E-2],"categories":[],"categories_nodes":[],"categories_segments":[],"categories_sizes":[],"default_left":[1,1,1,0,1,1,1,1,1,0,0,0,1,0,0,1,1,0,0,0,1,0,1,0,0,0,0],"id":29,"left_children":[1,3,5,-1,7,9,11,13,15,-1,-1,-1,17,-1,-1,19,21,-1,-1,-1,23,-1,25,-1,-1,-1,-1],"loss_changes":[1.0644844E0,1.1074278E0,7.4328E-1,0E0,7.7076626E-1,1.407504E-1,3.8020396E-1,3.6729687E-1,6.162814E-1,0E0,0E0,0E0,1.1459756E-1,0E0,0E0,1.6249728E-1,9.188077E-2,0E0,0E0,0E0,7.628252E-2,0E0,4.596877E-2,0E0,0E0,0E0,0E0],"parents":[2147483647,0,0,1,1,2,2,4,4,5,5,6,6,7,7,8,8,12,12,15,15,16,16,20,20,22,22],"right_children":[2,4,6,-1,8,10,12,14,16,-1,-1,-1,18,-1,-1,20,22,-1,-1,-1,24,-1,26,-1,-1,-1,-1],"split_conditions":[3.095E5,4.7E1,2.1E2,-1.4279641E-1,1.215E2,6.25E1,9.5E-1,7.1E1,1.19E0,2.0952355E-2,7.118194E-2,7.118194E-2,1.37E2,-7.4791476E-2,-2.9444057E-2,2.425E5,1.28E2,1.1664103E-1,2.0926017E-1,-2.9444057E-2,8.5E-1,-4.245851E-3,1.5E5,-1.6844954E-2,-4.245851E-3,8.353253E-3,2.0952355E-2],"split_indices":[6,0,2,0,2,0,7,0,7,0,0,0,8,0,0,6,8,0,0,0,7,0,6,0,0,0,0],"split_type":[0,0,0,0,0,0,0,0,0,0,0,0,0,0,0,0,0,0,0,0,0,0,0,0,0,0,0],"sum_hessian":[6.1151157E1,4.690263E1,1.4248527E1,5.207837E0,4.1694794E1,5.447591E0,8.800936E0,9.577009E0,3.2117783E1,4.2487535E0,1.198837E0,2.0569022E0,6.744034E0,6.955621E0,2.6213887E0,1.249157E1,1.9626213E1,3.0901785E0,3.6538553E0,4.462648E0,8.028923E0,1.7840041E0,1.7842209E1,1.6850421E0,6.3438807E0,2.5391848E0,1.5303023E1],"tree_param":{"num_deleted":"0","num_feature":"11","num_nodes":"27","size_leaf_vector":"0"}}]},"name":"gbtree"},"learner_model_param":{"base_score":"5E-1","boost_from_average":"1","num_class":"2","num_feature":"11","num_target":"1"},"objective":{"name":"multi:softmax","softmax_multiclass_param":{"num_class":"2"}}},"version":[1,7,3]}