{"learner":{"attributes":{"best_iteration":"3","best_ntree_limit":"4"},"feature_names":[],"feature_types":[],"gradient_booster":{"model":{"gbtree_model_param":{"num_parallel_tree":"1","num_trees":"16","size_leaf_vector":"0"},"tree_info":[0,1,2,3,0,1,2,3,0,1,2,3,0,1,2,3],"trees":[{"base_weights":[6.557377E-3,-0E0,1.1764706E-1,-7.2727273E-3,5.882353E-2,2.57754E-2,5.882353E-2],"categories":[],"categories_nodes":[],"categories_segments":[],"categories_sizes":[],"default_left":[1,1,0,0,1,0,0],"id":0,"left_children":[1,3,-1,-1,5,-1,-1],"loss_changes":[2.7772421E-2,1.8686695E-2,0E0,0E0,5.2053142E-2,0E0,0E0],"parents":[2147483647,0,0,1,1,4,4],"right_children":[2,4,-1,-1,6,-1,-1],"split_conditions":[8.15E1,8.4915E1,3.529412E-2,-2.1818182E-3,7.675E1,7.7326205E-3,1.764706E-2],"split_indices":[3,2,0,0,1,0,0],"split_type":[0,0,0,0,0,0,0],"sum_hessian":[3.7125E1,3.6E1,1.125E0,3.3375E1,2.625E0,1.125E0,1.5E0],"tree_param":{"num_deleted":"0","num_feature":"7","num_nodes":"7","size_leaf_vector":"0"}},{"base_weights":[8.196721E-1,3.3663365E-1,1.018868E0,-4E-1,4.7191012E-1,7.2E-1,1.3263158E0,1.5384616E-1,6.777508E-1,1.0231578E0,1.5180722E0,3.5955057E-2,4.157985E-1,3.5955057E-2,1.1764706E-1],"categories":[],"categories_nodes":[],"categories_segments":[],"categories_sizes":[],"default_left":[1,1,1,0,1,0,1,1,0,0,0,1,0,0,0],"id":1,"left_children":[1,3,5,-1,7,-1,9,11,-1,-1,-1,13,-1,-1,-1],"loss_changes":[3.3253727E0,1.446835E0,1.4800377E0,0E0,1.2994015E0,0E0,4.0303612E-1,1.2241914E0,0E0,0E0,0E0,1.2888603E-2,0E0,0E0,0E0],"parents":[2147483647,0,0,1,1,2,2,4,4,6,6,7,7,11,11],"right_children":[2,4,6,-1,8,-1,10,12,-1,-1,-1,14,-1,-1,-1],"split_conditions":[5E-1,6.05E1,5E-1,-1.20000005E-1,7.325E1,2.1600002E-1,6.4E1,5E-1,2.0332526E-1,3.0694735E-1,4.554217E-1,7.97E1,1.2473955E-1,1.07865175E-2,3.529412E-2],"split_indices":[0,3,4,0,2,0,1,4,0,0,0,1,0,0,0],"split_type":[0,0,0,0,0,0,0,0,0,0,0,0,0,0,0],"sum_hessian":[3.7125E1,1.1625E1,2.55E1,1.5E0,1.0125E1,1.4625E1,1.0875E1,7.125E0,3E0,1.5E0,9.375E0,3.75E0,3.375E0,2.625E0,1.125E0],"tree_param":{"num_deleted":"0","num_feature":"7","num_nodes":"15","size_leaf_vector":"0"}},{"base_weights":[-3.6065573E-1,-5.5837566E-1,-0E0,-6.3583815E-1,-2.7918783E-1,-2.7918783E-1,3.3766234E-1,2.9237255E-2,5.6E-1,2.9237255E-2,2.9461864E-1,2.9461864E-1,7.692308E-1,2.9461864E-1,5.319247E-1,5.319247E-1,1.0588236E0],"categories":[],"categories_nodes":[],"categories_segments":[],"categories_sizes":[],"default_left":[1,1,1,0,0,0,1,1,1,0,0,1,1,0,0,0,0],"id":2,"left_children":[1,3,5,-1,-1,-1,7,9,11,-1,-1,13,15,-1,-1,-1,-1],"loss_changes":[2.718648E0,7.5332737E-1,2.4541917E0,0E0,0E0,0E0,8.44239E-1,4.7996476E-1,2.0511365E-1,0E0,0E0,8.96596E-2,1.2398255E-1,0E0,0E0,0E0,0E0],"parents":[2147483647,0,0,1,1,2,2,6,6,7,7,8,8,11,11,12,12],"right_children":[2,4,6,-1,-1,-1,8,10,12,-1,-1,14,16,-1,-1,-1,-1],"split_conditions":[7.29E1,8.185E1,7.4175E1,-1.9075145E-1,-8.375635E-2,-8.375635E-2,7.25E1,8.867E1,5E-1,8.771177E-3,8.83856E-2,8.3E1,7.55E1,8.83856E-2,1.5957743E-1,1.5957743E-1,3.176471E-1],"split_indices":[2,1,5,0,0,0,3,5,4,0,0,1,1,0,0,0,0],"split_type":[0,0,0,0,0,0,0,0,0,0,0,0,0,0,0,0,0],"sum_hessian":[3.7125E1,2.3625E1,1.35E1,2.0625E1,3E0,4.875E0,8.625E0,3.375E0,5.25E0,2.25E0,1.125E0,3E0,2.25E0,1.875E0,1.125E0,1.125E0,1.125E0],"tree_param":{"num_deleted":"0","num_feature":"7","num_nodes":"17","size_leaf_vector":"0"}},{"base_weights":[-4.6557376E-1,-5.873606E-1,3.6363637E-1,-6.431718E-1,-2.4E-1,-1.1186212E-1,9.5652175E-1,-4.415859E-1,-1.1186212E-1,-1.1186212E-1,1.1764706E-1,-2.76724E-1,-1.1186212E-1],"categories":[],"categories_nodes":[],"categories_segments":[],"categories_sizes":[],"default_left":[1,1,1,0,1,1,0,0,1,0,0,0,0],"id":3,"left_children":[1,3,5,-1,7,9,-1,-1,11,-1,-1,-1,-1],"loss_changes":[4.063711E0,4.9751377E-1,2.025595E0,0E0,4.7382143E-1,9.94201E-2,0E0,0E0,9.864575E-2,0E0,0E0,0E0,0E0],"parents":[2147483647,0,0,1,1,2,2,4,4,5,5,8,8],"right_children":[2,4,6,-1,8,10,-1,-1,12,-1,-1,-1,-1],"split_conditions":[7.755E1,6.691E1,7.77E1,-1.9295155E-1,5E-1,5E-1,2.8695655E-1,-1.3247578E-1,6.9E1,-3.3558637E-2,3.529412E-2,-8.301721E-2,-3.3558637E-2],"split_indices":[3,6,2,0,0,0,0,0,3,0,0,0,0],"split_type":[0,0,0,0,0,0,0,0,0,0,0,0,0],"sum_hessian":[3.7125E1,3.2625E1,4.5E0,2.7375E1,5.25E0,2.625E0,1.875E0,3E0,2.25E0,1.5E0,1.125E0,1.125E0,1.125E0],"tree_param":{"num_deleted":"0","num_feature":"7","num_nodes":"13","size_leaf_vector":"0"}},{"base_weights":[1.5229652E-2,7.697298E-3,1.4082114E-1,-4.3739312E-4,7.425922E-2,-1.4673218E-2,6.848071E-4,3.6910914E-2,7.425922E-2,-6.9942055E-3,1.8913202E-2,-6.9942055E-3,5.959498E-3,5.959498E-3,1.9546034E-2,-5.1735365E-4,5.959498E-3],"categories":[],"categories_nodes":[],"categories_segments":[],"categories_sizes":[],"default_left":[1,1,0,1,1,0,1,0,0,1,1,0,1,0,0,0,0],"id":4,"left_children":[1,3,-1,5,7,-1,9,-1,-1,11,13,-1,15,-1,-1,-1,-1],"loss_changes":[3.4620866E-2,2.2286013E-2,0E0,5.5475783E-4,5.384361E-2,0E0,1.7356047E-2,0E0,0E0,6.4070835E-3,1.7337129E-4,0E0,1.6700802E-4,0E0,0E0,0E0,0E0],"parents":[2147483647,0,0,1,1,3,3,4,4,6,6,9,9,10,10,12,12],"right_children":[2,4,-1,6,8,-1,10,-1,-1,12,14,-1,16,-1,-1,-1,-1],"split_conditions":[8.15E1,8.4915E1,4.2246345E-2,5.379E1,7.675E1,-4.4019655E-3,6.05E1,1.1073275E-2,2.2277767E-2,5.4085E1,5.5835E1,-2.0982618E-3,5.933E1,1.7878496E-3,5.8638104E-3,-1.552061E-4,1.7878496E-3],"split_indices":[3,2,0,5,1,0,2,0,0,6,5,0,2,0,0,0,0],"split_type":[0,0,0,0,0,0,0,0,0,0,0,0,0,0,0,0,0],"sum_hessian":[3.674293E1,3.56652E1,1.077733E0,3.309667E1,2.5685308E0,1.5360093E0,3.156066E1,1.0505154E0,1.5180153E0,3.768709E0,2.779195E1,1.144315E0,2.624394E0,1.4880679E0,2.6303883E1,1.5066335E0,1.1177604E0],"tree_param":{"num_deleted":"0","num_feature":"7","num_nodes":"17","size_leaf_vector":"0"}},{"base_weights":[5.7364243E-1,2.539573E-1,6.9332486E-1,-3.962973E-1,3.6820966E-1,4.736411E-1,8.096329E-1,-1.4043823E-2,4.736411E-1,4.736411E-1,6.4163697E-1,6.4163697E-1,1.0202136E0,-1.4043823E-2,2.2979864E-1,2.2979864E-1,4.736411E-1,1.0787741E-1,2.2979864E-1],"categories":[],"categories_nodes":[],"categories_segments":[],"categories_sizes":[],"default_left":[1,1,1,0,1,1,1,1,1,0,0,0,0,0,1,0,0,0,0],"id":5,"left_children":[1,3,5,-1,7,9,11,13,15,-1,-1,-1,-1,-1,17,-1,-1,-1,-1],"loss_changes":[1.4843836E0,1.1414219E0,1.0824747E0,0E0,9.827393E-1,1.0028684E-1,6.180115E-1,4.4021767E-1,2.0458698E-2,0E0,0E0,0E0,0E0,0E0,1.3660192E-3,0E0,0E0,0E0,0E0],"parents":[2147483647,0,0,1,1,2,2,4,4,5,5,6,6,7,7,8,8,14,14],"right_children":[2,4,6,-1,8,10,12,14,16,-1,-1,-1,-1,-1,18,-1,-1,-1,-1],"split_conditions":[5E-1,6.05E1,5.565E1,-1.188892E-1,7.3479996E1,6.4E1,5E-1,6.945E1,6.46E1,1.4209233E-1,1.924911E-1,1.924911E-1,3.060641E-1,-4.213147E-3,7.195E1,6.89396E-2,1.4209233E-1,3.2363225E-2,6.89396E-2],"split_indices":[0,3,6,0,1,1,4,3,2,0,0,0,0,0,2,0,0,0,0],"split_type":[0,0,0,0,0,0,0,0,0,0,0,0,0,0,0,0,0,0,0],"sum_hessian":[4.239853E1,1.239964E1,2.9998888E1,1.4841503E0,1.091549E1,6.170888E0,2.3828E1,4.4630146E0,6.4524755E0,3.5173843E0,2.653504E0,1.275419E1,1.107381E1,2.0095549E0,2.4534597E0,2.0416424E0,4.410833E0,1.216102E0,1.2373576E0],"tree_param":{"num_deleted":"0","num_feature":"7","num_nodes":"19","size_leaf_vector":"0"}},{"base_weights":[-3.1778106E-1,-6.0096323E-1,-5.5636115E-2,-3.2829967E-1,2.6769266E-1,-3.2829967E-1,-3.0303508E-2,-3.0303508E-2,4.024877E-1,-9.280161E-2,-3.0303508E-2,2.240668E-1,6.00517E-1,-1.7930159E-1,-6.1552558E-2,1.860921E-1,3.191689E-1,2.526305E-1,4.1229188E-1],"categories":[],"categories_nodes":[],"categories_segments":[],"categories_sizes":[],"default_left":[1,0,1,1,1,0,1,0,1,1,0,1,0,0,0,0,1,0,0],"id":6,"left_children":[1,-1,3,5,7,-1,9,-1,11,13,-1,15,-1,-1,-1,-1,17,-1,-1],"loss_changes":[2.5924342E0,0E0,2.1113873E0,3.6990297E-1,7.649393E-1,0E0,1.0835302E-2,0E0,1.828264E-1,8.707884E-2,0E0,4.009691E-2,0E0,0E0,0E0,0E0,8.431876E-2,0E0,0E0],"parents":[2147483647,0,0,2,2,3,3,4,4,6,6,8,8,9,9,11,11,16,16],"right_children":[2,-1,4,6,8,-1,10,-1,12,14,-1,16,-1,-1,-1,-1,18,-1,-1],"split_conditions":[7.15E1,-1.8028897E-1,7.1125E1,8.8275E1,6.533E1,-9.84899E-2,7.7535E1,-9.091053E-3,8.292E1,6.6645004E1,-9.091053E-3,5E-1,1.801551E-1,-5.379048E-2,-1.8465769E-2,5.582763E-2,5E-1,7.578915E-2,1.2368757E-1],"split_indices":[5,0,3,5,2,0,1,0,1,2,0,0,0,0,0,0,4,0,0],"split_type":[0,0,0,0,0,0,0,0,0,0,0,0,0,0,0,0,0,0,0],"sum_hessian":[3.43725E1,1.5901941E1,1.847056E1,9.147802E0,9.322759E0,6.1342907E0,3.013512E0,1.3400435E0,7.982715E0,2.0091054E0,1.0044065E0,5.320511E0,2.662204E0,1.0058024E0,1.003303E0,1.5862043E0,3.7343066E0,2.600553E0,1.1337535E0],"tree_param":{"num_deleted":"0","num_feature":"7","num_nodes":"19","size_leaf_vector":"0"}},{"base_weights":[-4.1526848E-1,-6.072271E-1,1.4190091E-1,-2.326631E-1,6.7805755E-1,-2.326631E-1,1.08281955E-1,2.2269723E-1,1.1362553E0,2.2269723E-1,6.2759E-1],"categories":[],"categories_nodes":[],"categories_segments":[],"categories_sizes":[],"default_left":[1,0,1,1,1,0,0,1,0,0,0],"id":7,"left_children":[1,-1,3,5,7,-1,-1,9,-1,-1,-1],"loss_changes":[3.7509685E0,0E0,2.7281497E0,1.9421566E-1,1.0638545E0,0E0,0E0,2.9005203E-1,0E0,0E0,0E0],"parents":[2147483647,0,0,2,2,3,3,4,4,7,7],"right_children":[2,-1,4,6,8,-1,-1,10,-1,-1,-1],"split_conditions":[6.691E1,-1.8216813E-1,5E-1,8.9915E1,7.45E1,-6.979893E-2,3.2484587E-2,9.05E1,3.4087658E-1,6.680917E-2,1.88277E-1],"split_indices":[6,0,0,2,2,0,0,5,0,0,0],"split_type":[0,0,0,0,0,0,0,0,0,0,0],"sum_hessian":[3.3265392E1,2.4674557E1,8.590837E0,4.613988E0,3.9768488E0,3.4775434E0,1.1364448E0,2.406224E0,1.5706247E0,1.3344291E0,1.0717949E0],"tree_param":{"num_deleted":"0","num_feature":"7","num_nodes":"11","size_leaf_vector":"0"}},{"base_weights":[2.5708335E-2,1.7654313E-2,1.5569866E-1,1.0339503E-2,8.191579E-2,-2.765447E-2,1.3059014E-2,4.6127647E-2,8.6676486E-2,-7.297728E-3,3.273628E-2,-7.297728E-3,1.2719275E-2,1.2719275E-2,3.367135E-2,2.7107736E-3,1.2719275E-2],"categories":[],"categories_nodes":[],"categories_segments":[],"categories_sizes":[],"default_left":[1,1,0,1,1,0,1,0,0,1,1,0,1,0,0,0,0],"id":8,"left_children":[1,3,-1,5,7,-1,9,-1,-1,11,13,-1,15,-1,-1,-1,-1],"loss_changes":[3.6215235E-2,1.6156705E-2,0E0,3.8350364E-3,5.5503786E-2,0E0,3.20334E-2,0E0,0E0,9.604509E-3,2.763383E-4,0E0,4.3210108E-4,0E0,0E0,0E0,0E0],"parents":[2147483647,0,0,1,1,3,3,4,4,6,6,9,9,10,10,12,12],"right_children":[2,4,-1,6,8,-1,10,-1,-1,12,14,-1,16,-1,-1,-1,-1],"split_conditions":[8.15E1,8.4915E1,4.6709597E-2,5.379E1,7.675E1,-8.296342E-3,6.05E1,1.3838295E-2,2.6002947E-2,5.4085E1,5.5835E1,-2.1893186E-3,5.933E1,3.8157827E-3,1.0101405E-2,8.132321E-4,3.8157827E-3],"split_indices":[3,2,0,5,1,0,2,0,0,6,5,0,2,0,0,0,0],"split_type":[0,0,0,0,0,0,0,0,0,0,0,0,0,0,0,0,0],"sum_hessian":[3.6216846E1,3.5173367E1,1.0434806E0,3.2621048E1,2.5523188E0,1.5665166E0,3.1054531E1,1.0067799E0,1.5455389E0,3.7464657E0,2.7308065E1,1.1340759E0,2.61239E0,1.4723134E0,2.583575E1,1.5018164E0,1.1105735E0],"tree_param":{"num_deleted":"0","num_feature":"7","num_nodes":"17","size_leaf_vector":"0"}},{"base_weights":[4.2717382E-1,2.864645E-1,5.8533293E-1,6.967137E-2,4.3589872E-1,4.3589872E-1,7.07228E-1,-5.434683E-1,2.5278506E-1,2.5278506E-1,4.3589872E-1,5.7156336E-1,8.085937E-1,7.2070576E-2,2.5278506E-1,-1.4534162E-1,1.6242781E-1],"categories":[],"categories_nodes":[],"categories_segments":[],"categories_sizes":[],"default_left":[1,1,1,1,1,0,1,0,1,0,0,0,0,1,0,0,0],"id":9,"left_children":[1,3,5,7,9,-1,11,-1,13,-1,-1,-1,-1,15,-1,-1,-1],"loss_changes":[8.591509E-1,1.2413187E0,7.055578E-1,2.160951E0,3.0759811E-2,0E0,8.28619E-2,0E0,7.691234E-2,0E0,0E0,0E0,0E0,8.926163E-1,0E0,0E0,0E0],"parents":[2147483647,0,0,1,1,2,2,3,3,4,4,6,6,8,8,13,13],"right_children":[2,4,6,8,10,-1,12,-1,14,-1,-1,-1,-1,16,-1,-1,-1],"split_conditions":[5E-1,7.09E1,6.1E1,5E-1,6.02E1,1.3076963E-1,5E-1,-1.6304049E-1,6.164E1,7.583552E-2,1.3076963E-1,1.7146902E-1,2.4257812E-1,6.4E1,7.583552E-2,-4.360249E-2,4.8728347E-2],"split_indices":[4,2,3,0,3,0,0,0,5,0,0,0,0,2,0,0,0],"split_type":[0,0,0,0,0,0,0,0,0,0,0,0,0,0,0,0,0],"sum_hessian":[4.5140377E1,2.5375666E1,1.9764713E1,1.4063174E1,1.131249E1,2.3015223E0,1.7463192E1,3.3057494E0,1.0757424E1,1.1899357E0,1.0122555E1,5.125454E0,1.2337737E1,3.3117738E0,7.445651E0,1.8871632E0,1.4246106E0],"tree_param":{"num_deleted":"0","num_feature":"7","num_nodes":"17","size_leaf_vector":"0"}},{"base_weights":[-2.7893156E-1,-5.7222605E-1,-3.1276535E-2,-3.017513E-1,2.7757964E-1,-3.017513E-1,-1.2085825E-2,-1.2085825E-2,5.085141E-1,-1.2085825E-2,2.4821414E-1,2.4821414E-1,6.6867024E-1,2.4821414E-1,4.5844218E-1,4.5844218E-1,9.204643E-1],"categories":[],"categories_nodes":[],"categories_segments":[],"categories_sizes":[],"default_left":[1,0,1,1,1,0,0,1,1,0,0,1,1,0,0,0,0],"id":10,"left_children":[1,-1,3,5,7,-1,-1,9,11,-1,-1,13,15,-1,-1,-1,-1],"loss_changes":[2.363678E0,0E0,1.9561176E0,6.3466465E-1,8.8607544E-1,0E0,0E0,5.236495E-1,1.092937E-1,0E0,0E0,7.125841E-2,1.2198663E-1,0E0,0E0,0E0,0E0],"parents":[2147483647,0,0,2,2,3,3,4,4,7,7,8,8,11,11,12,12],"right_children":[2,-1,4,6,8,-1,-1,10,12,-1,-1,14,16,-1,-1,-1,-1],"split_conditions":[7.15E1,-1.7166781E-1,7.29E1,8.185E1,7.25E1,-9.052539E-2,-3.6257477E-3,8.867E1,5E-1,-3.6257477E-3,7.446425E-2,8.3E1,7.55E1,7.446425E-2,1.3753267E-1,1.3753267E-1,2.761393E-1],"split_indices":[5,0,2,1,3,0,0,5,4,0,0,1,1,0,0,0,0],"split_type":[0,0,0,0,0,0,0,0,0,0,0,0,0,0,0,0,0],"sum_hessian":[3.178787E1,1.3952975E1,1.7834896E1,8.629829E0,9.205067E0,6.8215694E0,1.80826E0,3.7757955E0,5.4292707E0,2.6595745E0,1.116221E0,2.9983702E0,2.4309006E0,1.7497438E0,1.2486265E0,1.1645389E0,1.2663617E0],"tree_param":{"num_deleted":"0","num_feature":"7","num_nodes":"17","size_leaf_vector":"0"}},{"base_weights":[-3.739163E-1,-5.78247E-1,1.4555958E-1,-2.1634372E-1,6.2285924E-1,-2.1634372E-1,1.2354907E-1,2.0325777E-1,9.980408E-1,2.0325777E-1,5.988411E-1],"categories":[],"categories_nodes":[],"categories_segments":[],"categories_sizes":[],"default_left":[1,0,1,1,1,0,0,1,0,0,0],"id":11,"left_children":[1,-1,3,5,7,-1,-1,9,-1,-1,-1],"loss_changes":[3.354724E0,0E0,2.3146732E0,1.9670933E-1,7.821802E-1,0E0,0E0,2.8879762E-1,0E0,0E0,0E0],"parents":[2147483647,0,0,2,2,3,3,4,4,7,7],"right_children":[2,-1,4,6,8,-1,-1,10,-1,-1,-1],"split_conditions":[6.691E1,-1.734741E-1,5E-1,8.9915E1,7.45E1,-6.490312E-2,3.706472E-2,9.05E1,2.9941225E-1,6.0977332E-2,1.7965233E-1],"split_indices":[6,0,0,2,2,0,0,5,0,0,0],"split_type":[0,0,0,0,0,0,0,0,0,0,0],"sum_hessian":[2.9812172E1,2.1314995E1,8.497177E0,4.377828E0,4.119349E0,3.2699776E0,1.1078507E0,2.3887985E0,1.7305508E0,1.2792737E0,1.1095246E0],"tree_param":{"num_deleted":"0","num_feature":"7","num_nodes":"11","size_leaf_vector":"0"}},{"base_weights":[3.0245017E-2,2.2443356E-2,1.52741E-1,-4.7309335E-2,2.7113054E-2,-1.0098141E-2,4.7221784E-2,-1.0098141E-2,1.8561821E-2,1.8561821E-2,5.8268894E-2,4.2318404E-3,1.8561821E-2,4.9228054E-2,8.759218E-2,3.8415357E-2,5.6090526E-2],"categories":[],"categories_nodes":[],"categories_segments":[],"categories_sizes":[],"default_left":[1,1,0,0,1,1,1,0,1,0,1,0,0,1,0,0,0],"id":12,"left_children":[1,3,-1,-1,5,7,9,-1,11,-1,13,-1,-1,15,-1,-1,-1],"loss_changes":[3.1759154E-2,1.2939369E-2,0E0,0E0,5.2593738E-2,1.3854957E-2,1.9742385E-2,0E0,1.123365E-3,0E0,6.2458217E-3,0E0,0E0,5.781874E-4,0E0,0E0,0E0],"parents":[2147483647,0,0,1,1,4,4,5,5,6,6,8,8,10,10,13,13],"right_children":[2,4,-1,-1,6,8,10,-1,12,-1,14,-1,-1,16,-1,-1,-1],"split_conditions":[9.64E1,5.379E1,4.58223E-2,-1.4192801E-2,6.05E1,5.4085E1,5.5835E1,-3.0294424E-3,5.933E1,5.5685467E-3,8.4915E1,1.2695522E-3,5.5685467E-3,6.9354996E1,2.6277654E-2,1.1524607E-2,1.6827159E-2],"split_indices":[5,5,0,0,2,6,5,0,2,0,2,0,0,5,0,0,0],"split_type":[0,0,0,0,0,0,0,0,0,0,0,0,0,0,0,0,0],"sum_hessian":[3.5819305E1,3.478697E1,1.0323342E0,1.6097972E0,3.3177174E1,3.7350264E0,2.9442146E1,1.1443151E0,2.590711E0,1.8423645E0,2.7599781E1,1.5023217E0,1.0883894E0,2.5165052E1,2.4347284E0,9.798817E0,1.5366237E1],"tree_param":{"num_deleted":"0","num_feature":"7","num_nodes":"17","size_leaf_vector":"0"}},{"base_weights":[3.351228E-1,1.1012223E-2,3.8899085E-1,-4.788038E-1,2.0000154E-1,2.0000154E-1,4.9197924E-1,-6.168659E-1,-1.3940114E-1,2.0000154E-1,3.459904E-1,3.459904E-1,6.5692663E-1,2.0000154E-1,2.7299595E-1],"categories":[],"categories_nodes":[],"categories_segments":[],"categories_sizes":[],"default_left":[1,1,1,1,0,1,1,0,0,1,0,0,0,0,0],"id":13,"left_children":[1,3,5,7,-1,9,11,-1,-1,13,-1,-1,-1,-1,-1],"loss_changes":[8.193717E-1,1.9315166E0,8.53981E-1,2.0098686E-1,0E0,3.056937E-1,5.432167E-1,0E0,0E0,1.0792917E-1,0E0,0E0,0E0,0E0,0E0],"parents":[2147483647,0,0,1,1,2,2,3,3,5,5,6,6,9,9],"right_children":[2,4,6,8,-1,10,12,-1,-1,14,-1,-1,-1,-1,-1],"split_conditions":[5.5305E1,6.4E1,5E-1,6.45E1,6.0000464E-2,7.325E1,5E-1,-1.8505977E-1,-4.1820344E-2,7.1215E1,1.0379712E-1,1.0379712E-1,1.97078E-1,6.0000464E-2,8.1898786E-2],"split_indices":[6,1,0,3,0,2,4,0,0,6,0,0,0,0,0],"split_type":[0,0,0,0,0,0,0,0,0,0,0,0,0,0,0],"sum_hessian":[4.6175953E1,6.752471E0,3.942348E1,3.8796134E0,2.8728578E0,1.3001091E1,2.642239E1,2.4325287E0,1.4470845E0,8.622767E0,4.3783226E0,1.45205E1,1.190189E1,6.855075E0,1.767693E0],"tree_param":{"num_deleted":"0","num_feature":"7","num_nodes":"15","size_leaf_vector":"0"}},{"base_weights":[-2.455771E-1,-5.5044335E-1,-9.50318E-3,-2.7997327E-1,2.751865E-1,-2.7997327E-1,-2.3933798E-3,-2.3933798E-3,4.4442782E-1,-2.3933798E-3,1.3611156E-1,2.2101721E-1,5.5006737E-1,2.2101721E-1,3.8554227E-1],"categories":[],"categories_nodes":[],"categories_segments":[],"categories_sizes":[],"default_left":[1,0,1,1,1,0,0,1,1,0,0,1,0,0,0],"id":14,"left_children":[1,-1,3,5,7,-1,-1,9,11,-1,-1,13,-1,-1,-1],"loss_changes":[2.1885424E0,0E0,1.7189873E0,6.108568E-1,7.381998E-1,0E0,0E0,4.1420568E-2,7.440686E-2,0E0,0E0,2.2053556E-1,0E0,0E0,0E0],"parents":[2147483647,0,0,2,2,3,3,4,4,7,7,8,8,11,11],"right_children":[2,-1,4,6,8,-1,-1,10,12,-1,-1,14,-1,-1,-1],"split_conditions":[7.15E1,-1.6513301E-1,7.29E1,8.185E1,7.186E1,-8.399198E-2,-7.1801397E-4,5E-1,5E-1,-7.1801397E-4,4.083347E-2,6.8865E1,1.6502021E-1,6.630517E-2,1.1566269E-1],"split_indices":[5,0,2,1,3,0,0,4,0,0,0,6,0,0,0],"split_type":[0,0,0,0,0,0,0,0,0,0,0,0,0,0,0],"sum_hessian":[2.9481358E1,1.2284925E1,1.7196432E1,8.045586E0,9.1508465E0,6.2798615E0,1.7657244E0,2.535818E0,6.615029E0,1.3763559E0,1.1594622E0,2.966275E0,3.648754E0,1.1991322E0,1.7671427E0],"tree_param":{"num_deleted":"0","num_feature":"7","num_nodes":"15","size_leaf_vector":"0"}},{"base_weights":[-3.39418E-1,-4.868095E-1,3.7422407E-1,-5.2326155E-1,-5.6292713E-2,-5.6292713E-2,7.3498315E-1,-5.610576E-1,-2.8977713E-1,-5.6292713E-2,1.5815079E-1],"categories":[],"categories_nodes":[],"categories_segments":[],"categories_sizes":[],"default_left":[1,1,1,1,0,1,0,0,0,0,0],"id":15,"left_children":[1,3,5,7,-1,9,-1,-1,-1,-1,-1],"loss_changes":[3.10693E0,4.673953E-1,1.0003872E0,8.463764E-2,0E0,9.0563044E-2,0E0,0E0,0E0,0E0,0E0],"parents":[2147483647,0,0,1,1,2,2,3,3,5,5],"right_children":[2,4,6,8,-1,10,-1,-1,-1,-1,-1],"split_conditions":[7.755E1,9.45E1,7.77E1,7.2555E1,-1.6887814E-2,8.2630005E1,2.2049496E-1,-1.6831729E-1,-8.693314E-2,-1.6887814E-2,4.744524E-2],"split_indices":[3,5,2,3,0,1,0,0,0,0,0],"split_type":[0,0,0,0,0,0,0,0,0,0,0],"sum_hessian":[2.6805872E1,2.2480692E1,4.3251805E0,2.1115873E1,1.3648185E0,2.1459842E0,2.1791964E0,1.7673689E1,3.442184E0,1.1077142E0,1.03827E0],"tree_param":{"num_deleted":"0","num_feature":"7","num_nodes":"11","size_leaf_vector":"0"}}]},"name":"gbtree"},"learner_model_param":{"base_score":"5E-1","boost_from_average":"1","num_class":"4","num_feature":"7","num_target":"1"},"objective":{"name":"multi:softmax","softmax_multiclass_param":{"num_class":"4"}}},"version":[1,7,3]}