{"learner":{"attributes":{"best_iteration":"27","best_ntree_limit":"28"},"feature_names":[],"feature_types":[],"gradient_booster":{"model":{"gbtree_model_param":{"num_parallel_tree":"1","num_trees":"56","size_leaf_vector":"0"},"tree_info":[0,1,0,1,0,1,0,1,0,1,0,1,0,1,0,1,0,1,0,1,0,1,0,1,0,1,0,1,0,1,0,1,0,1,0,1,0,1,0,1,0,1,0,1,0,1,0,1,0,1,0,1,0,1,0,1],"trees":[{"base_weights":[8.289963E-1,-8E-1,9.56E-1,-8.7096775E-1,-4.5454547E-1,7.799998E-2,9.878049E-1,-6.627566E-1,7.799998E-2],"categories":[],"categories_nodes":[],"categories_segments":[],"categories_sizes":[],"default_left":[1,1,1,0,1,0,0,0,0],"id":0,"left_children":[1,3,5,-1,7,-1,-1,-1,-1],"loss_changes":[5.6417816E1,9.4429016E-2,1.0898178E1,0E0,1.1459808E0,0E0,0E0,0E0,0E0],"parents":[2147483647,0,0,1,1,2,2,4,4],"right_children":[2,4,6,-1,8,-1,-1,-1,-1],"split_conditions":[9E0,1.5E0,1.75E1,-2.6129034E-1,1.5E0,2.3399994E-2,2.9634148E-1,-1.98827E-1,2.3399994E-2],"split_indices":[22,6,20,0,1,0,0,0,0],"split_type":[0,0,0,0,0,0,0,0,0],"sum_hessian":[2.68E2,1.9E1,2.49E2,1.45E1,4.5E0,4E0,2.45E2,3E0,1.5E0],"tree_param":{"num_deleted":"0","num_feature":"31","num_nodes":"9","size_leaf_vector":"0"}},{"base_weights":[-8.289963E-1,-9.758551E-1,9.0697676E-1,-9.8785424E-1,-3.4439176E-2,-0E0,9.512195E-1,-9.918699E-1,-5.111467E-1],"categories":[],"categories_nodes":[],"categories_segments":[],"categories_sizes":[],"default_left":[1,1,1,1,0,0,0,0,0],"id":1,"left_children":[1,3,5,7,-1,-1,-1,-1,-1],"loss_changes":[6.946474E1,4.2852936E0,8.6273384E-1,4.5729065E-1,0E0,0E0,0E0,0E0,0E0],"parents":[2147483647,0,0,1,1,2,2,3,3],"right_children":[2,4,6,8,-1,-1,-1,-1,-1],"split_conditions":[1.536E4,7.85E2,5.52E2,3E0,-1.0331754E-2,-0E0,2.8536585E-1,-2.97561E-1,-1.5334402E-1],"split_indices":[19,26,21,16,0,0,0,0,0],"split_type":[0,0,0,0,0,0,0,0,0],"sum_hessian":[2.68E2,2.475E2,2.05E1,2.46E2,1.5E0,1E0,1.95E1,2.45E2,1E0],"tree_param":{"num_deleted":"0","num_feature":"31","num_nodes":"9","size_leaf_vector":"0"}},{"base_weights":[6.3425714E-1,-6.359069E-1,7.362599E-1,-6.9161E-1,-3.616856E-1,5.01765E-2,7.648426E-1,-5.266478E-1,5.01765E-2],"categories":[],"categories_nodes":[],"categories_segments":[],"categories_sizes":[],"default_left":[1,1,1,0,1,0,0,0,0],"id":2,"left_children":[1,3,5,-1,7,-1,-1,-1,-1],"loss_changes":[3.2545708E1,3.9185047E-2,7.179291E0,0E0,7.247669E-1,0E0,0E0,0E0,0E0],"parents":[2147483647,0,0,1,1,2,2,4,4],"right_children":[2,4,6,-1,8,-1,-1,-1,-1],"split_conditions":[9E0,1.5E0,1.75E1,-2.0748301E-1,7.5E-1,1.5052951E-2,2.294528E-1,-1.5799434E-1,1.5052951E-2],"split_indices":[22,10,20,0,0,0,0,0,0],"split_type":[0,0,0,0,0,0,0,0,0],"sum_hessian":[2.465877E2,1.7941494E1,2.2864621E2,1.36472225E1,4.294272E0,3.9405642E0,2.2470564E2,2.828071E0,1.4662007E0],"tree_param":{"num_deleted":"0","num_feature":"31","num_nodes":"9","size_leaf_vector":"0"}},{"base_weights":[-6.3425714E-1,-7.545859E-1,7.406698E-1,-7.6537204E-1,-6.9580674E-3,6.954469E-2,7.8716135E-1,-7.691081E-1,-3.8616505E-1],"categories":[],"categories_nodes":[],"categories_segments":[],"categories_sizes":[],"default_left":[1,1,1,1,0,0,0,0,0],"id":3,"left_children":[1,3,5,7,-1,-1,-1,-1,-1],"loss_changes":[4.1520638E1,2.8549347E0,5.8267593E-1,2.2155762E-1,0E0,0E0,0E0,0E0,0E0],"parents":[2147483647,0,0,1,1,2,2,3,3],"right_children":[2,4,6,8,-1,-1,-1,-1,-1],"split_conditions":[1.536E4,7.85E2,2.5E-1,6.85E2,-2.0874203E-3,2.0863406E-2,2.3614842E-1,-2.3073244E-1,-1.1584952E-1],"split_indices":[19,26,8,21,0,0,0,0,0],"split_type":[0,0,0,0,0,0,0,0,0],"sum_hessian":[2.465877E2,2.2715874E2,1.942896E1,2.2567874E2,1.4800036E0,1.420423E0,1.8008537E1,2.2380505E2,1.8736805E0],"tree_param":{"num_deleted":"0","num_feature":"31","num_nodes":"9","size_leaf_vector":"0"}},{"base_weights":[5.4027975E-1,-5.465816E-1,6.328086E-1,-5.7861257E-1,-1.9244199E-1,4.31135E-2,6.6202146E-1,-6.565553E-1,-3.8552728E-1],"categories":[],"categories_nodes":[],"categories_segments":[],"categories_sizes":[],"default_left":[1,1,1,1,0,0,0,0,0],"id":4,"left_children":[1,3,5,7,-1,-1,-1,-1,-1],"loss_changes":[2.1350056E1,8.0610275E-2,5.355057E0,1.4240456E-1,0E0,0E0,0E0,0E0,0E0],"parents":[2147483647,0,0,1,1,2,2,3,3],"right_children":[2,4,6,8,-1,-1,-1,-1,-1],"split_conditions":[9E0,7.465E2,1.75E1,1.5E0,-5.7732597E-2,1.29340505E-2,1.9860645E-1,-1.969666E-1,-1.1565819E-1],"split_indices":[22,26,20,6,0,0,0,0,0],"split_type":[0,0,0,0,0,0,0,0,0],"sum_hessian":[2.0785936E2,1.5922585E1,1.9193678E2,1.4020607E1,1.9019773E0,3.7986526E0,1.8813812E2,1.0585574E1,3.4350333E0],"tree_param":{"num_deleted":"0","num_feature":"31","num_nodes":"9","size_leaf_vector":"0"}},{"base_weights":[-5.402796E-1,-6.5164775E-1,6.500437E-1,-6.6275406E-1,-8.020103E-4,4.61484E-3,7.003492E-1,-6.6688776E-1,-3.3177805E-1],"categories":[],"categories_nodes":[],"categories_segments":[],"categories_sizes":[],"default_left":[1,1,1,1,0,0,0,0,0],"id":5,"left_children":[1,3,5,7,-1,-1,-1,-1,-1],"loss_changes":[2.8110844E1,2.1650314E0,5.9321404E-1,2.2827911E-1,0E0,0E0,0E0,0E0,0E0],"parents":[2147483647,0,0,1,1,2,2,3,3],"right_children":[2,4,6,8,-1,-1,-1,-1,-1],"split_conditions":[1.536E4,7.85E2,2.5E-1,1.595E2,-2.406031E-4,1.384452E-3,2.1010478E-1,-2.0006634E-1,-9.953342E-2],"split_indices":[19,26,8,27,0,0,0,0,0],"split_type":[0,0,0,0,0,0,0,0,0],"sum_hessian":[2.0785934E2,1.9048947E2,1.7369884E1,1.8905869E2,1.4307873E0,1.3348783E0,1.6035006E1,1.8741159E2,1.64709E0],"tree_param":{"num_deleted":"0","num_feature":"31","num_nodes":"9","size_leaf_vector":"0"}},{"base_weights":[4.8236898E-1,-4.838109E-1,5.7085955E-1,-5.265748E-1,-1.9909184E-1,4.3524325E-2,6.0251075E-1,-6.116529E-1,-3.6283332E-1,-3.6283332E-1,4.3524325E-2],"categories":[],"categories_nodes":[],"categories_segments":[],"categories_sizes":[],"default_left":[1,1,1,1,1,0,0,0,0,0,0],"id":6,"left_children":[1,3,5,7,9,-1,-1,-1,-1,-1,-1],"loss_changes":[1.4765289E1,7.4878454E-2,4.225273E0,1.442349E-1,1.8235461E-1,0E0,0E0,0E0,0E0,0E0,0E0],"parents":[2147483647,0,0,1,1,2,2,3,3,4,4],"right_children":[2,4,6,8,10,-1,-1,-1,-1,-1,-1],"split_conditions":[9E0,1.5E0,1.75E1,1.5E0,9.3E1,1.3057298E-2,1.8075323E-1,-1.8349588E-1,-1.0885E-1,-1.0885E-1,1.3057298E-2],"split_indices":[22,5,20,10,25,0,0,0,0,0,0],"split_type":[0,0,0,0,0,0,0,0,0,0,0],"sum_hessian":[1.6846751E2,1.3760191E1,1.5470732E2,1.1224808E1,2.5353835E0,3.605423E0,1.511019E2,8.7501745E0,2.4746335E0,1.3457879E0,1.1895955E0],"tree_param":{"num_deleted":"0","num_feature":"31","num_nodes":"11","size_leaf_vector":"0"}},{"base_weights":[-4.823689E-1,-5.908613E-1,5.907249E-1,-6.037507E-1,-6.8217516E-5,-6.8217516E-5,6.467973E-1,-6.084409E-1,-3.0190945E-1],"categories":[],"categories_nodes":[],"categories_segments":[],"categories_sizes":[],"default_left":[1,1,1,1,0,0,0,0,0],"id":7,"left_children":[1,3,5,7,-1,-1,-1,-1,-1],"loss_changes":[2.0078876E1,1.8626022E0,5.872369E-1,2.070961E-1,0E0,0E0,0E0,0E0,0E0],"parents":[2147483647,0,0,1,1,2,2,3,3],"right_children":[2,4,6,8,-1,-1,-1,-1,-1],"split_conditions":[1.536E4,7.85E2,2.5E-1,1.595E2,-2.0465255E-5,-2.0465255E-5,1.940392E-1,-1.8253227E-1,-9.0572834E-2],"split_indices":[19,26,8,27,0,0,0,0,0],"split_type":[0,0,0,0,0,0,0,0,0],"sum_hessian":[1.684675E2,1.5340704E2,1.5060446E1,1.5199489E2,1.4121625E0,1.2602503E0,1.3800196E1,1.5052283E2,1.4720602E0],"tree_param":{"num_deleted":"0","num_feature":"31","num_nodes":"9","size_leaf_vector":"0"}},{"base_weights":[4.407082E-1,-4.34996E-1,5.282218E-1,-4.9945936E-1,-1.950585E-1,4.661289E-2,5.6355506E-1,-5.888537E-1,-3.4725893E-1,-3.4725893E-1,4.661289E-2],"categories":[],"categories_nodes":[],"categories_segments":[],"categories_sizes":[],"default_left":[1,1,1,1,1,0,0,0,0,0,0],"id":8,"left_children":[1,3,5,7,9,-1,-1,-1,-1,-1,-1],"loss_changes":[1.0561701E1,1.0051513E-1,3.4338646E0,7.9170704E-2,3.644024E-1,0E0,0E0,0E0,0E0,0E0,0E0],"parents":[2147483647,0,0,1,1,2,2,3,3,4,4],"right_children":[2,4,6,8,10,-1,-1,-1,-1,-1,-1],"split_conditions":[9E0,1.5E0,1.75E1,1.5E0,1.5E0,1.3983867E-2,1.6906652E-1,-1.7665613E-1,-1.0417768E-1,-1.0417768E-1,1.3983867E-2],"split_indices":[22,1,20,5,6,0,0,0,0,0,0],"split_type":[0,0,0,0,0,0,0,0,0,0,0],"sum_hessian":[1.3381812E2,1.1797354E1,1.2202076E2,8.446446E0,3.3509068E0,3.384299E0,1.1863646E2,6.1714926E0,2.274954E0,2.099014E0,1.2518928E0],"tree_param":{"num_deleted":"0","num_feature":"31","num_nodes":"11","size_leaf_vector":"0"}},{"base_weights":[-4.4070822E-1,-5.507191E-1,5.5029434E-1,-5.652365E-1,-2.1237135E-4,-2.1237135E-4,6.124334E-1,-5.7753074E-1,-2.8272444E-1,-4.301276E-1,-2.8272444E-1],"categories":[],"categories_nodes":[],"categories_segments":[],"categories_sizes":[],"default_left":[1,1,1,1,0,0,0,0,1,0,0],"id":9,"left_children":[1,3,5,7,-1,-1,-1,-1,9,-1,-1],"loss_changes":[1.5001074E1,1.5453224E0,5.480509E-1,2.7755737E-1,0E0,0E0,0E0,0E0,8.559221E-2,0E0,0E0],"parents":[2147483647,0,0,1,1,2,2,3,3,8,8],"right_children":[2,4,6,8,-1,-1,-1,-1,10,-1,-1],"split_conditions":[1.536E4,7.85E2,2.5E-1,5.97E2,-6.3711406E-5,-6.3711406E-5,1.8373002E-1,-1.7325923E-1,1.5E0,-1.2903829E-1,-8.4817335E-2],"split_indices":[19,26,8,21,0,0,0,0,9,0,0],"split_type":[0,0,0,0,0,0,0,0,0,0,0],"sum_hessian":[1.3381813E2,1.20847206E2,1.2970928E1,1.1950674E2,1.3404696E0,1.2301761E0,1.1740752E1,1.1377873E2,5.728003E0,3.9948666E0,1.7331362E0],"tree_param":{"num_deleted":"0","num_feature":"31","num_nodes":"11","size_leaf_vector":"0"}},{"base_weights":[4.0717322E-1,-3.951811E-1,4.9540555E-1,-4.5219684E-1,-8.936366E-2,5.0112233E-2,5.3546774E-1,-5.528091E-1,-2.7078024E-1],"categories":[],"categories_nodes":[],"categories_segments":[],"categories_sizes":[],"default_left":[1,1,1,1,0,0,0,0,0],"id":10,"left_children":[1,3,5,7,-1,-1,-1,-1,-1],"loss_changes":[7.709379E0,1.5263176E-1,2.8371696E0,1.7388725E-1,0E0,0E0,0E0,0E0,0E0],"parents":[2147483647,0,0,1,1,2,2,3,3],"right_children":[2,4,6,8,-1,-1,-1,-1,-1],"split_conditions":[9E0,1.5E0,1.75E1,1.5E0,-2.6809098E-2,1.5033671E-2,1.6064033E-1,-1.6584274E-1,-8.1234075E-2],"split_indices":[22,5,20,6,0,0,0,0,0],"split_type":[0,0,0,0,0,0,0,0,0],"sum_hessian":[1.0513404E2,1.0071195E1,9.506284E1,8.085169E0,1.9860263E0,3.1494336E0,9.191341E1,5.867213E0,2.2179558E0],"tree_param":{"num_deleted":"0","num_feature":"31","num_nodes":"9","size_leaf_vector":"0"}},{"base_weights":[-4.071732E-1,-5.2127886E-1,5.1740223E-1,-5.3783613E-1,-1.9383132E-3,-1.9383132E-3,5.890291E-1,-5.528205E-1,-2.698872E-1,-4.1135386E-1,-2.698872E-1],"categories":[],"categories_nodes":[],"categories_segments":[],"categories_sizes":[],"default_left":[1,1,1,1,0,0,0,0,1,0,0],"id":11,"left_children":[1,3,5,7,-1,-1,-1,-1,9,-1,-1],"loss_changes":[1.1466774E1,1.2983685E0,5.5588603E-1,3.1629372E-1,0E0,0E0,0E0,0E0,3.323835E-2,0E0,0E0],"parents":[2147483647,0,0,1,1,2,2,3,3,8,8],"right_children":[2,4,6,8,-1,-1,-1,-1,10,-1,-1],"split_conditions":[1.536E4,7.85E2,2.5E-1,5.97E2,-5.81494E-4,-5.81494E-4,1.7670873E-1,-1.6584615E-1,1.5E0,-1.23406164E-1,-8.096617E-2],"split_indices":[19,26,8,21,0,0,0,0,9,0,0],"split_type":[0,0,0,0,0,0,0,0,0,0,0],"sum_hessian":[1.0513402E2,9.397266E1,1.1161358E1,9.271573E1,1.2569314E0,1.1776274E0,9.98373E0,8.791307E1,4.8026557E0,3.203177E0,1.5994785E0],"tree_param":{"num_deleted":"0","num_feature":"31","num_nodes":"11","size_leaf_vector":"0"}},{"base_weights":[3.771457E-1,-3.5785398E-1,4.6756166E-1,-4.215488E-1,-5.2318107E-2,5.485384E-2,5.132862E-1,-5.29335E-1,-2.3693345E-1],"categories":[],"categories_nodes":[],"categories_segments":[],"categories_sizes":[],"default_left":[1,1,1,1,0,0,0,0,0],"id":12,"left_children":[1,3,5,7,-1,-1,-1,-1,-1],"loss_changes":[5.701994E0,1.6651058E-1,2.3566837E0,1.7708611E-1,0E0,0E0,0E0,0E0,0E0],"parents":[2147483647,0,0,1,1,2,2,3,3],"right_children":[2,4,6,8,-1,-1,-1,-1,-1],"split_conditions":[9E0,1.5E0,1.75E1,1.5E0,-1.5695432E-2,1.6456153E-2,1.5398586E-1,-1.5880051E-1,-7.108004E-2],"split_indices":[22,5,20,6,0,0,0,0,0],"split_type":[0,0,0,0,0,0,0,0,0],"sum_hessian":[8.2283775E1,8.689353E0,7.359442E1,6.8761783E0,1.8131747E0,2.9101062E0,7.068432E1,4.867531E0,2.0086474E0],"tree_param":{"num_deleted":"0","num_feature":"31","num_nodes":"9","size_leaf_vector":"0"}},{"base_weights":[-3.771458E-1,-5.3405446E-1,3.1566304E-1,-5.415143E-1,-1.0919571E-1,-7.518072E-2,5.7131255E-1,-1.0919571E-1,2.4806592E-1],"categories":[],"categories_nodes":[],"categories_segments":[],"categories_sizes":[],"default_left":[1,1,1,0,0,1,0,0,0],"id":13,"left_children":[1,3,5,-1,-1,7,-1,-1,-1],"loss_changes":[9.222175E0,2.1536446E-1,1.6424235E0,0E0,0E0,7.464391E-1,0E0,0E0,0E0],"parents":[2147483647,0,0,1,1,2,2,5,5],"right_children":[2,4,6,-1,-1,8,-1,-1,-1],"split_conditions":[5.685E2,7.735E2,1.536E4,-1.6245429E-1,-3.2758713E-2,4.825E2,1.7139377E-1,-3.2758713E-2,7.441978E-2],"split_indices":[21,26,19,0,0,26,0,0,0],"split_type":[0,0,0,0,0,0,0,0,0],"sum_hessian":[8.228381E1,6.727613E1,1.5007678E1,6.615631E1,1.1198258E0,6.2137914E0,8.793886E0,3.4323695E0,2.7814221E0],"tree_param":{"num_deleted":"0","num_feature":"31","num_nodes":"9","size_leaf_vector":"0"}},{"base_weights":[3.5099414E-1,-2.492375E-1,4.523075E-1,-3.2605955E-1,4.10142E-2,1.01535E-1,4.9378964E-1,-3.9525795E-1,-1.4252268E-1,3.5714442E-1,5.188669E-1,-4.8687226E-1,-2.6889032E-1,2.9766232E-1,4.3800566E-1],"categories":[],"categories_nodes":[],"categories_segments":[],"categories_sizes":[],"default_left":[1,1,1,1,0,0,1,1,0,1,0,0,0,0,0],"id":14,"left_children":[1,3,5,7,-1,-1,9,11,-1,13,-1,-1,-1,-1,-1],"loss_changes":[4.1037397E0,2.3908275E-1,1.4151077E0,1.16943836E-1,0E0,0E0,1.2769699E-3,6.755042E-2,0E0,9.2571855E-2,0E0,0E0,0E0,0E0,0E0],"parents":[2147483647,0,0,1,1,2,2,3,3,6,6,7,7,9,9],"right_children":[2,4,6,8,-1,-1,10,12,-1,14,-1,-1,-1,-1,-1],"split_conditions":[2.75E1,1.5E0,1.75E1,1.5E0,1.230426E-2,3.0460501E-2,7.5E-1,9E0,-4.2756803E-2,2.56E2,1.5566008E-1,-1.4606169E-1,-8.06671E-2,8.9298695E-2,1.314017E-1],"split_indices":[22,5,20,10,0,0,14,22,0,26,0,0,0,0,0],"split_type":[0,0,0,0,0,0,0,0,0,0,0,0,0,0,0],"sum_hessian":[6.462918E1,9.122544E0,5.5506638E1,7.1158075E0,2.0067368E0,2.0553987E0,5.345124E1,5.4288535E0,1.6869544E0,1.0651774E1,4.2799465E1,4.103812E0,1.325041E0,3.5414245E0,7.1103497E0],"tree_param":{"num_deleted":"0","num_feature":"31","num_nodes":"15","size_leaf_vector":"0"}},{"base_weights":[-3.5099405E-1,-5.1964575E-1,3.0596858E-1,-5.294581E-1,-1.06838584E-1,-6.859462E-2,5.5664515E-1,-1.06838584E-1,2.4402526E-1],"categories":[],"categories_nodes":[],"categories_segments":[],"categories_sizes":[],"default_left":[1,1,1,0,0,1,0,0,0],"id":15,"left_children":[1,3,5,-1,-1,7,-1,-1,-1],"loss_changes":[7.430562E0,2.3699474E-1,1.3560582E0,0E0,0E0,6.023939E-1,0E0,0E0,0E0],"parents":[2147483647,0,0,1,1,2,2,5,5],"right_children":[2,4,6,-1,-1,8,-1,-1,-1],"split_conditions":[5.685E2,7.735E2,1.536E4,-1.5883744E-1,-3.205158E-2,4.825E2,1.6699356E-1,-3.205158E-2,7.320758E-2],"split_indices":[21,26,19,0,0,26,0,0,0],"split_type":[0,0,0,0,0,0,0,0,0],"sum_hessian":[6.462916E1,5.159341E1,1.3035745E1,5.0570347E1,1.023064E0,5.5176234E0,7.5181217E0,2.933066E0,2.5845573E0],"tree_param":{"num_deleted":"0","num_feature":"31","num_nodes":"9","size_leaf_vector":"0"}},{"base_weights":[3.258492E-1,-2.7744433E-1,4.1708875E-1,-3.4770137E-1,-5.9008305E-3,6.982221E-2,4.7770035E-1,-4.7066608E-1,-1.768011E-1,3.2622308E-1,5.0782406E-1,2.7376127E-1,4.1702357E-1],"categories":[],"categories_nodes":[],"categories_segments":[],"categories_sizes":[],"default_left":[1,1,1,1,0,0,1,0,0,1,0,0,0],"id":16,"left_children":[1,3,5,7,-1,-1,9,-1,-1,11,-1,-1,-1],"loss_changes":[2.980782E0,1.3985449E-1,1.6675773E0,1.5645653E-1,0E0,0E0,3.1076431E-2,0E0,0E0,8.109975E-2,0E0,0E0,0E0],"parents":[2147483647,0,0,1,1,2,2,3,3,6,6,9,9],"right_children":[2,4,6,8,-1,-1,10,-1,-1,12,-1,-1,-1],"split_conditions":[9E0,1.5E0,1.75E1,1.5E0,-1.7702492E-3,2.0946663E-2,7.5E-1,-1.4119983E-1,-5.3040333E-2,2.56E2,1.5234722E-1,8.212838E-2,1.2510708E-1],"split_indices":[22,5,20,1,0,0,14,0,0,26,0,0,0],"split_type":[0,0,0,0,0,0,0,0,0,0,0,0,0],"sum_hessian":[5.105022E1,6.438273E0,4.4611946E1,4.892073E0,1.5461996E0,2.4959087E0,4.211604E1,3.166494E0,1.7255795E0,8.9484005E0,3.3167637E1,3.4193952E0,5.529005E0],"tree_param":{"num_deleted":"0","num_feature":"31","num_nodes":"13","size_leaf_vector":"0"}},{"base_weights":[-3.2584915E-1,-5.0690836E-1,2.9397646E-1,-5.199742E-1,-1.0646595E-1,-6.607005E-2,5.4048467E-1,-1.0646595E-1,2.3720731E-1],"categories":[],"categories_nodes":[],"categories_segments":[],"categories_sizes":[],"default_left":[1,1,1,0,0,1,0,0,0],"id":17,"left_children":[1,3,5,-1,-1,7,-1,-1,-1],"loss_changes":[5.990364E0,2.1668816E-1,1.1362766E0,0E0,0E0,4.9231598E-1,0E0,0E0,0E0],"parents":[2147483647,0,0,1,1,2,2,5,5],"right_children":[2,4,6,-1,-1,8,-1,-1,-1],"split_conditions":[5.685E2,1.305E2,1.536E4,-1.5599225E-1,-3.1939786E-2,4.825E2,1.621454E-1,-3.1939786E-2,7.1162194E-2],"split_indices":[21,28,19,0,0,26,0,0,0],"split_type":[0,0,0,0,0,0,0,0,0],"sum_hessian":[5.1050205E1,3.965007E1,1.1400133E1,3.8455345E1,1.1947263E0,4.9305763E0,6.469557E0,2.5492244E0,2.3813517E0],"tree_param":{"num_deleted":"0","num_feature":"31","num_nodes":"9","size_leaf_vector":"0"}},{"base_weights":[2.9949665E-1,-1.8822384E-1,4.020647E-1,-2.6638615E-1,6.1819147E-2,1.06920436E-1,4.5921734E-1,-3.4746575E-1,-1.022835E-1,2.830689E-1,4.97308E-1,-4.3753415E-1,-2.2487463E-1,2.830689E-1,3.9018846E-1],"categories":[],"categories_nodes":[],"categories_segments":[],"categories_sizes":[],"default_left":[1,1,1,1,0,0,1,1,0,1,0,0,0,0,0],"id":18,"left_children":[1,3,5,7,-1,-1,9,11,-1,13,-1,-1,-1,-1,-1],"loss_changes":[2.1501956E0,1.7060933E-1,1.0434556E0,1.04200244E-1,0E0,0E0,8.6411476E-2,4.4390142E-2,0E0,1.5919685E-2,0E0,0E0,0E0,0E0,0E0],"parents":[2147483647,0,0,1,1,2,2,3,3,6,6,7,7,9,9],"right_children":[2,4,6,8,-1,-1,10,12,-1,14,-1,-1,-1,-1,-1],"split_conditions":[2.75E1,1.5E0,1.75E1,1.5E0,1.8545745E-2,3.207613E-2,7.5E-1,9E0,-3.068505E-2,2.56E2,1.4919241E-1,-1.3126025E-1,-6.746239E-2,8.4920675E-2,1.1705654E-1],"split_indices":[22,5,20,1,0,0,14,22,0,26,0,0,0,0,0],"split_type":[0,0,0,0,0,0,0,0,0,0,0,0,0,0,0],"sum_hessian":[4.046999E1,6.886924E0,3.3583065E1,5.197003E0,1.6899209E0,1.8111603E0,3.1771906E1,3.6834996E0,1.5135032E0,6.9889593E0,2.4782946E1,2.6561327E0,1.0273668E0,2.6697817E0,4.3191776E0],"tree_param":{"num_deleted":"0","num_feature":"31","num_nodes":"15","size_leaf_vector":"0"}},{"base_weights":[-2.9949683E-1,-4.9469972E-1,2.8541917E-1,-5.118982E-1,-1.04640275E-1,-6.677894E-2,5.2604556E-1,-1.04640275E-1,2.296333E-1],"categories":[],"categories_nodes":[],"categories_segments":[],"categories_sizes":[],"default_left":[1,1,1,0,0,1,0,0,0],"id":19,"left_children":[1,3,5,-1,-1,7,-1,-1,-1],"loss_changes":[4.876131E0,2.400713E-1,9.6827745E-1,0E0,0E0,3.8580763E-1,0E0,0E0,0E0],"parents":[2147483647,0,0,1,1,2,2,5,5],"right_children":[2,4,6,-1,-1,8,-1,-1,-1],"split_conditions":[5.685E2,1.305E2,1.536E4,-1.5356947E-1,-3.1392083E-2,4.825E2,1.5781367E-1,-3.1392083E-2,6.888999E-2],"split_indices":[21,28,19,0,0,26,0,0,0],"split_type":[0,0,0,0,0,0,0,0,0],"sum_hessian":[4.0470016E1,3.0459173E1,1.0010843E1,2.9371695E1,1.0874801E0,4.3566365E0,5.6542068E0,2.195943E0,2.1606934E0],"tree_param":{"num_deleted":"0","num_feature":"31","num_nodes":"9","size_leaf_vector":"0"}},{"base_weights":[2.7241874E-1,-2.897297E-1,3.4989253E-1,-4.219876E-1,3.0081406E-2,3.0081406E-2,4.431434E-1,2.5077033E-1,4.8815307E-1,2.3661241E-1,3.6946172E-1],"categories":[],"categories_nodes":[],"categories_segments":[],"categories_sizes":[],"default_left":[1,1,1,0,0,0,1,1,0,0,0],"id":20,"left_children":[1,3,5,-1,-1,-1,7,9,-1,-1,-1],"loss_changes":[1.5564716E0,2.1606633E-1,1.447681E0,0E0,0E0,0E0,1.0586119E-1,5.305016E-2,0E0,0E0,0E0],"parents":[2147483647,0,0,1,1,2,2,6,6,7,7],"right_children":[2,4,6,-1,-1,-1,8,10,-1,-1,-1],"split_conditions":[1.75E1,1.5E0,9E0,-1.2659629E-1,9.024423E-3,9.024423E-3,7.5E-1,2.56E2,1.4644593E-1,7.098372E-2,1.1083852E-1],"split_indices":[20,5,22,0,0,0,14,26,0,0,0],"split_type":[0,0,0,0,0,0,0,0,0,0,0],"sum_hessian":[3.2410744E1,3.5938818E0,2.8816862E1,2.3607755E0,1.2331063E0,3.452877E0,2.5363985E1,6.05522E0,1.9308765E1,2.6577694E0,3.3974507E0],"tree_param":{"num_deleted":"0","num_feature":"31","num_nodes":"11","size_leaf_vector":"0"}},{"base_weights":[-2.7241883E-1,-4.815974E-1,2.7680257E-1,-5.041429E-1,-1.0239741E-1,-6.989482E-2,5.1237434E-1,-1.0239741E-1,2.2123976E-1],"categories":[],"categories_nodes":[],"categories_segments":[],"categories_sizes":[],"default_left":[1,1,1,0,0,1,0,0,0],"id":21,"left_children":[1,3,5,-1,-1,7,-1,-1,-1],"loss_changes":[3.9717138E0,2.5659037E-1,8.403008E-1,0E0,0E0,3.0088162E-1,0E0,0E0,0E0],"parents":[2147483647,0,0,1,1,2,2,5,5],"right_children":[2,4,6,-1,-1,8,-1,-1,-1],"split_conditions":[5.685E2,1.305E2,1.536E4,-1.5124287E-1,-3.0719224E-2,4.825E2,1.537123E-1,-3.0719224E-2,6.637193E-2],"split_indices":[21,28,19,0,0,26,0,0,0],"split_type":[0,0,0,0,0,0,0,0,0],"sum_hessian":[3.2410755E1,2.3560528E1,8.850226E0,2.2536003E1,1.0245247E0,3.8651206E0,4.9851065E0,1.9141985E0,1.950922E0],"tree_param":{"num_deleted":"0","num_feature":"31","num_nodes":"9","size_leaf_vector":"0"}},{"base_weights":[2.435484E-1,-2.0528023E-1,3.4107798E-1,-3.6374718E-1,-5.9719544E-2,6.789888E-2,4.2392796E-1,-1.4256898E-1,6.789888E-2,2.4591342E-1,4.7806334E-1],"categories":[],"categories_nodes":[],"categories_segments":[],"categories_sizes":[],"default_left":[1,1,1,0,1,0,1,0,0,0,0],"id":22,"left_children":[1,3,5,-1,7,-1,9,-1,-1,-1,-1],"loss_changes":[1.256601E0,1.0429232E-1,9.4432807E-1,0E0,6.301278E-2,0E0,1.2898779E-1,0E0,0E0,0E0,0E0],"parents":[2147483647,0,0,1,1,2,2,4,4,6,6],"right_children":[2,4,6,-1,8,-1,10,-1,-1,-1,-1],"split_conditions":[9E0,8.32E3,1.75E1,-1.0912416E-1,5.66E2,2.0369664E-2,7.5E-1,-4.2770695E-2,2.0369664E-2,7.3774025E-2,1.4341901E-1],"split_indices":[22,19,20,0,26,0,14,0,0,0,0],"split_type":[0,0,0,0,0,0,0,0,0,0,0],"sum_hessian":[2.6107014E1,4.463109E0,2.1643906E1,1.4191692E0,3.0439396E0,1.8262242E0,1.981768E1,2.0134175E0,1.0305223E0,5.0615106E0,1.475617E1],"tree_param":{"num_deleted":"0","num_feature":"31","num_nodes":"11","size_leaf_vector":"0"}},{"base_weights":[-2.4354869E-1,-4.6894705E-1,2.726678E-1,-4.9592882E-1,-9.813963E-2,-4.9593456E-2,4.947948E-1,-9.813963E-2,2.2260067E-1],"categories":[],"categories_nodes":[],"categories_segments":[],"categories_sizes":[],"default_left":[1,1,1,0,0,1,0,0,0],"id":23,"left_children":[1,3,5,-1,-1,7,-1,-1,-1],"loss_changes":[3.28189E0,2.3033714E-1,6.5954757E-1,0E0,0E0,2.7524522E-1,0E0,0E0,0E0],"parents":[2147483647,0,0,1,1,2,2,5,5],"right_children":[2,4,6,-1,-1,8,-1,-1,-1],"split_conditions":[5.685E2,1.29E2,1.536E4,-1.4877865E-1,-2.944189E-2,4.825E2,1.4843844E-1,-2.944189E-2,6.67802E-2],"split_indices":[21,28,19,0,0,26,0,0,0],"split_type":[0,0,0,0,0,0,0,0,0],"sum_hessian":[2.6107046E1,1.8236094E1,7.870954E0,1.7231575E1,1.0045166E0,3.5285199E0,4.342434E0,1.6572448E0,1.871275E0],"tree_param":{"num_deleted":"0","num_feature":"31","num_nodes":"9","size_leaf_vector":"0"}},{"base_weights":[2.138705E-1,-1.8382588E-1,3.098661E-1,-3.3165565E-1,-3.81743E-2,6.302011E-2,4.0309098E-1,-1.0322876E-1,6.302011E-2,2.3305555E-1,4.6709388E-1],"categories":[],"categories_nodes":[],"categories_segments":[],"categories_sizes":[],"default_left":[1,1,1,0,1,0,1,0,0,0,0],"id":24,"left_children":[1,3,5,-1,7,-1,9,-1,-1,-1,-1],"loss_changes":[9.1025317E-1,9.443012E-2,8.0487967E-1,0E0,3.0681306E-2,0E0,1.3894415E-1,0E0,0E0,0E0,0E0],"parents":[2147483647,0,0,1,1,2,2,4,4,6,6],"right_children":[2,4,6,-1,8,-1,10,-1,-1,-1,-1],"split_conditions":[9E0,7.5E-1,1.75E1,-9.94967E-2,1.5E0,1.8906035E-2,7.5E-1,-3.096863E-2,1.8906035E-2,6.9916666E-2,1.4012817E-1],"split_indices":[22,6,20,0,5,0,14,0,0,0,0],"split_type":[0,0,0,0,0,0,0,0,0,0,0],"sum_hessian":[2.1350872E1,3.973651E0,1.737722E1,1.3382946E0,2.6353564E0,1.7005292E0,1.5676692E1,1.6007028E0,1.0346537E0,4.345713E0,1.1330978E1],"tree_param":{"num_deleted":"0","num_feature":"31","num_nodes":"11","size_leaf_vector":"0"}},{"base_weights":[-2.1387015E-1,-4.0221053E-1,3.884034E-1,-4.7513843E-1,-5.1407825E-2,-1.3948178E-3,4.8010802E-1,-2.6327312E-1,-6.903574E-3],"categories":[],"categories_nodes":[],"categories_segments":[],"categories_sizes":[],"default_left":[1,1,1,0,1,0,0,0,0],"id":25,"left_children":[1,3,5,-1,7,-1,-1,-1,-1],"loss_changes":[2.6915307E0,4.237342E-1,2.091837E-1,0E0,2.0562486E-1,0E0,0E0,0E0,0E0],"parents":[2147483647,0,0,1,1,2,2,4,4],"right_children":[2,4,6,-1,8,-1,-1,-1,-1],"split_conditions":[1.536E4,5.685E2,6E1,-1.4254153E-1,4.825E2,-4.1844536E-4,1.4403242E-1,-7.8981936E-2,-2.0710723E-3],"split_indices":[19,21,29,0,26,0,0,0,0],"split_type":[0,0,0,0,0,0,0,0,0],"sum_hessian":[2.1350845E1,1.6517685E1,4.8331604E0,1.3381411E1,3.1362748E0,1.108058E0,3.7251022E0,1.4398437E0,1.6964312E0],"tree_param":{"num_deleted":"0","num_feature":"31","num_nodes":"9","size_leaf_vector":"0"}},{"base_weights":[1.8021964E-1,9.229336E-3,4.1589242E-1,-2.1940395E-1,1.7646381E-1,-3.7908784E-1,-2.147007E-2,-2.147007E-2,2.1256088E-1,-8.4097505E-2,-2.147007E-2,-2.147007E-2,5.2957796E-2],"categories":[],"categories_nodes":[],"categories_segments":[],"categories_sizes":[],"default_left":[1,1,0,1,1,0,1,1,0,0,0,0,0],"id":26,"left_children":[1,3,-1,5,7,-1,9,11,-1,-1,-1,-1,-1],"loss_changes":[7.47629E-1,4.910284E-1,0E0,1.9872499E-1,2.3070137E-1,0E0,8.070625E-3,1.0994305E-2,0E0,0E0,0E0,0E0,0E0],"parents":[2147483647,0,0,1,1,3,3,4,4,6,6,7,7],"right_children":[2,4,-1,6,8,-1,10,12,-1,-1,-1,-1,-1],"split_conditions":[4.75E1,7.5E-1,1.2476773E-1,7.5E-1,1.4E1,-1.13726355E-1,1.5E0,1.5E0,6.376827E-2,-2.5229253E-2,-6.4410213E-3,-6.4410213E-3,1.5887339E-2],"split_indices":[22,5,0,14,22,0,15,5,0,0,0,0,0],"split_type":[0,0,0,0,0,0,0,0,0,0,0,0,0],"sum_hessian":[1.764787E1,1.0829664E1,6.8182054E0,4.44321E0,6.386454E0,2.224939E0,2.218271E0,2.6822574E0,3.7041965E0,1.1752074E0,1.0430636E0,1.6143358E0,1.0679218E0],"tree_param":{"num_deleted":"0","num_feature":"31","num_nodes":"13","size_leaf_vector":"0"}},{"base_weights":[-1.8021972E-1,-4.3669423E-1,2.762354E-1,-4.793762E-1,-8.022942E-2,-2.7596645E-2,4.6929944E-1,-8.022942E-2,1.9785675E-1],"categories":[],"categories_nodes":[],"categories_segments":[],"categories_sizes":[],"default_left":[1,1,1,0,0,1,0,0,0],"id":27,"left_children":[1,3,5,-1,-1,7,-1,-1,-1],"loss_changes":[2.30372E0,2.2991061E-1,4.423973E-1,0E0,0E0,1.8347676E-1,0E0,0E0,0E0],"parents":[2147483647,0,0,1,1,2,2,5,5],"right_children":[2,4,6,-1,-1,8,-1,-1,-1],"split_conditions":[5.685E2,1.18E2,1.536E4,-1.4381287E-1,-2.4068827E-2,4.825E2,1.4078984E-1,-2.4068827E-2,5.935703E-2],"split_indices":[21,28,19,0,0,26,0,0,0],"split_type":[0,0,0,0,0,0,0,0,0],"sum_hessian":[1.7647871E1,1.1326816E1,6.3210564E0,1.0314976E1,1.0118399E0,2.7889857E0,3.5320706E0,1.1974325E0,1.5915533E0],"tree_param":{"num_deleted":"0","num_feature":"31","num_nodes":"9","size_leaf_vector":"0"}},{"base_weights":[1.6172053E-1,-2.1958497E-1,2.4589261E-1,-3.189289E-1,-3.661743E-2,1.3153821E-2,3.6782718E-1,1.904905E-1,4.434208E-1],"categories":[],"categories_nodes":[],"categories_segments":[],"categories_sizes":[],"default_left":[1,1,1,0,0,0,1,0,0],"id":28,"left_children":[1,3,5,-1,-1,-1,7,-1,-1],"loss_changes":[5.694994E-1,5.0716683E-2,6.830412E-1,0E0,0E0,0E0,1.2694192E-1,0E0,0E0],"parents":[2147483647,0,0,1,1,2,2,6,6],"right_children":[2,4,6,-1,-1,-1,8,-1,-1],"split_conditions":[1.75E1,7.5E-1,9E0,-9.567867E-2,-1.098523E-2,3.9461465E-3,7.5E-1,5.7147153E-2,1.3302624E-1],"split_indices":[20,14,22,0,0,0,14,0,0],"split_type":[0,0,0,0,0,0,0,0,0],"sum_hessian":[1.50617075E1,2.4326897E0,1.2629018E1,1.0950384E0,1.3376514E0,2.329028E0,1.029999E1,3.193626E0,7.1063643E0],"tree_param":{"num_deleted":"0","num_feature":"31","num_nodes":"9","size_leaf_vector":"0"}},{"base_weights":[-1.6171984E-1,-4.2087942E-1,2.540248E-1,-4.6836585E-1,-8.342731E-2,-3.1774033E-2,4.4331706E-1,-8.342731E-2,1.8527842E-1],"categories":[],"categories_nodes":[],"categories_segments":[],"categories_sizes":[],"default_left":[1,1,1,0,0,1,0,0,0],"id":29,"left_children":[1,3,5,-1,-1,7,-1,-1,-1],"loss_changes":[1.8374661E0,1.8624103E-1,3.814871E-1,0E0,0E0,1.6459729E-1,0E0,0E0,0E0],"parents":[2147483647,0,0,1,1,2,2,5,5],"right_children":[2,4,6,-1,-1,8,-1,-1,-1],"split_conditions":[5.685E2,1.135E2,1.536E4,-1.4050975E-1,-2.5028193E-2,4.825E2,1.3299513E-1,-2.5028193E-2,5.5583525E-2],"split_indices":[21,23,19,0,0,26,0,0,0],"split_type":[0,0,0,0,0,0,0,0,0],"sum_hessian":[1.5061677E1,9.270466E0,5.7912107E0,8.196656E0,1.0738091E0,2.6389668E0,3.152244E0,1.1284481E0,1.5105187E0],"tree_param":{"num_deleted":"0","num_feature":"31","num_nodes":"9","size_leaf_vector":"0"}},{"base_weights":[1.3390689E-1,-1.3903357E-2,3.7707347E-1,-2.1437037E-1,1.4602517E-1,-3.347913E-1,-3.4172602E-2,-3.4172602E-2,1.8158506E-1,-3.4172602E-2,-8.516341E-3],"categories":[],"categories_nodes":[],"categories_segments":[],"categories_sizes":[],"default_left":[1,1,0,1,1,0,0,1,0,0,0],"id":30,"left_children":[1,3,-1,5,7,-1,-1,9,-1,-1,-1],"loss_changes":[4.9973536E-1,3.3655375E-1,0E0,1.1131348E-1,1.5693153E-1,0E0,0E0,2.2943784E-4,0E0,0E0,0E0],"parents":[2147483647,0,0,1,1,3,3,4,4,7,7],"right_children":[2,4,-1,6,8,-1,-1,10,-1,-1,-1],"split_conditions":[4.75E1,7.5E-1,1.13122046E-1,7.5E-1,1.4E1,-1.00437395E-1,-1.0251781E-2,4.92E2,5.447552E-2,-1.0251781E-2,-2.5549026E-3],"split_indices":[22,5,0,14,22,0,0,26,0,0,0],"split_type":[0,0,0,0,0,0,0,0,0,0,0],"sum_hessian":[1.2757881E1,8.521102E0,4.2367783E0,3.630249E0,4.8908534E0,1.9083377E0,1.7219112E0,2.2643166E0,2.6265368E0,1.1416917E0,1.122625E0],"tree_param":{"num_deleted":"0","num_feature":"31","num_nodes":"11","size_leaf_vector":"0"}},{"base_weights":[-1.3390681E-1,-4.0177053E-1,2.5082955E-1,-4.5558012E-1,-7.547049E-2,-1.8555336E-2,4.283338E-1,-7.547049E-2,1.53968E-1],"categories":[],"categories_nodes":[],"categories_segments":[],"categories_sizes":[],"default_left":[1,1,1,0,0,1,0,0,0],"id":31,"left_children":[1,3,5,-1,-1,7,-1,-1,-1],"loss_changes":[1.5186203E0,1.7264068E-1,3.0740872E-1,0E0,0E0,8.9897975E-2,0E0,0E0,0E0],"parents":[2147483647,0,0,1,1,2,2,5,5],"right_children":[2,4,6,-1,-1,8,-1,-1,-1],"split_conditions":[5.685E2,1.11E2,1.536E4,-1.3667405E-1,-2.2641148E-2,6.705E2,1.2850015E-1,-2.2641148E-2,4.6190403E-2],"split_indices":[21,23,19,0,0,26,0,0,0],"split_type":[0,0,0,0,0,0,0,0,0],"sum_hessian":[1.2757876E1,7.4952254E0,5.262651E0,6.4945517E0,1.0006738E0,2.4460025E0,2.8166487E0,1.4180307E0,1.0279716E0],"tree_param":{"num_deleted":"0","num_feature":"31","num_nodes":"9","size_leaf_vector":"0"}},{"base_weights":[1.17915384E-1,-1.3919927E-2,3.5294965E-1,-1.9406426E-1,1.3280162E-1,-3.018307E-1,-3.0631319E-2,-3.0631319E-2,1.6951486E-1,-3.0631319E-2,-8.279928E-3],"categories":[],"categories_nodes":[],"categories_segments":[],"categories_sizes":[],"default_left":[1,1,0,1,1,0,0,1,0,0,0],"id":32,"left_children":[1,3,-1,5,7,-1,-1,9,-1,-1,-1],"loss_changes":[3.810801E-1,2.567665E-1,0E0,8.5554406E-2,1.3533828E-1,0E0,0E0,8.541811E-5,0E0,0E0,0E0],"parents":[2147483647,0,0,1,1,3,3,4,4,7,7],"right_children":[2,4,-1,6,8,-1,-1,10,-1,-1,-1],"split_conditions":[4.75E1,7.5E-1,1.058849E-1,7.5E-1,1.4E1,-9.0549216E-2,-9.189396E-3,4.92E2,5.0854463E-2,-9.189396E-3,-2.4839784E-3],"split_indices":[22,5,0,14,22,0,0,26,0,0,0],"split_type":[0,0,0,0,0,0,0,0,0,0,0],"sum_hessian":[1.1139976E1,7.739509E0,3.4004667E0,3.3292246E0,4.410284E0,1.7482005E0,1.5810242E0,2.102006E0,2.308278E0,1.0529128E0,1.0490932E0],"tree_param":{"num_deleted":"0","num_feature":"31","num_nodes":"11","size_leaf_vector":"0"}},{"base_weights":[-1.1791597E-1,-3.8417205E-1,2.3364235E-1,-4.4129726E-1,-7.526485E-2,-1.6474606E-2,4.0514934E-1,-7.526485E-2,1.1224521E-1],"categories":[],"categories_nodes":[],"categories_segments":[],"categories_sizes":[],"default_left":[1,1,1,0,0,1,0,0,0],"id":33,"left_children":[1,3,5,-1,-1,7,-1,-1,-1],"loss_changes":[1.2261173E0,1.3218856E-1,2.577811E-1,0E0,0E0,5.602584E-2,0E0,0E0,0E0],"parents":[2147483647,0,0,1,1,2,2,5,5],"right_children":[2,4,6,-1,-1,8,-1,-1,-1],"split_conditions":[5.685E2,1.04E2,1.536E4,-1.3238919E-1,-2.2579456E-2,5.625E2,1.2154481E-1,-2.2579456E-2,3.3673566E-2],"split_indices":[21,23,19,0,0,26,0,0,0],"split_type":[0,0,0,0,0,0,0,0,0],"sum_hessian":[1.1139994E1,6.2862635E0,4.8537307E0,5.218368E0,1.0678952E0,2.34209E0,2.5116408E0,1.258989E0,1.083101E0],"tree_param":{"num_deleted":"0","num_feature":"31","num_nodes":"9","size_leaf_vector":"0"}},{"base_weights":[1.0344012E-1,-1.5423289E-1,2.0316577E-1,-2.933678E-1,1.4834046E-2,2.446644E-2,3.2706687E-1,1.7576665E-1,4.0293053E-1],"categories":[],"categories_nodes":[],"categories_segments":[],"categories_sizes":[],"default_left":[1,1,1,0,0,0,1,0,0],"id":34,"left_children":[1,3,5,-1,-1,-1,7,-1,-1],"loss_changes":[3.1028837E-1,8.897698E-2,3.8897976E-1,0E0,0E0,0E0,6.2209785E-2,0E0,0E0],"parents":[2147483647,0,0,1,1,2,2,6,6],"right_children":[2,4,6,-1,-1,-1,8,-1,-1],"split_conditions":[9E0,8.32E3,1.75E1,-8.801034E-2,4.450214E-3,7.3399325E-3,7.5E-1,5.2729998E-2,1.20879166E-1],"split_indices":[22,19,20,0,0,0,14,0,0],"split_type":[0,0,0,0,0,0,0,0,0],"sum_hessian":[9.855653E0,2.5975313E0,7.258122E0,1.0215894E0,1.5759418E0,1.1235794E0,6.1345425E0,2.1653786E0,3.969164E0],"tree_param":{"num_deleted":"0","num_feature":"31","num_nodes":"9","size_leaf_vector":"0"}},{"base_weights":[-1.0343909E-1,-3.6621046E-1,2.1847768E-1,-4.270634E-1,-7.386639E-2,-1.3729487E-2,3.843547E-1,-7.386639E-2,1.0727293E-1],"categories":[],"categories_nodes":[],"categories_segments":[],"categories_sizes":[],"default_left":[1,1,1,0,0,1,0,0,0],"id":35,"left_children":[1,3,5,-1,-1,7,-1,-1,-1],"loss_changes":[9.982917E-1,1.1869854E-1,2.1732098E-1,0E0,0E0,4.9756512E-2,0E0,0E0,0E0],"parents":[2147483647,0,0,1,1,2,2,5,5],"right_children":[2,4,6,-1,-1,8,-1,-1,-1],"split_conditions":[5.685E2,1.025E2,1.536E4,-1.2811902E-1,-2.2159917E-2,5.625E2,1.15306415E-1,-2.2159917E-2,3.218188E-2],"split_indices":[21,23,19,0,0,26,0,0,0],"split_type":[0,0,0,0,0,0,0,0,0],"sum_hessian":[9.855626E0,5.3505406E0,4.5050855E0,4.346006E0,1.004535E0,2.2594156E0,2.2456696E0,1.2174377E0,1.0419779E0],"tree_param":{"num_deleted":"0","num_feature":"31","num_nodes":"9","size_leaf_vector":"0"}},{"base_weights":[7.824435E-2,-3.3942737E-2,3.0586162E-1,-1.9377355E-1,1.0623865E-1,-2.764281E-1,-4.3767452E-2,-4.3767452E-2,1.3595945E-1],"categories":[],"categories_nodes":[],"categories_segments":[],"categories_sizes":[],"default_left":[1,1,0,1,1,0,0,0,0],"id":36,"left_children":[1,3,-1,5,7,-1,-1,-1,-1],"loss_changes":[2.561327E-1,1.8518908E-1,0E0,4.9644545E-2,9.6516505E-2,0E0,0E0,0E0,0E0],"parents":[2147483647,0,0,1,1,3,3,4,4],"right_children":[2,4,-1,6,8,-1,-1,-1,-1],"split_conditions":[4.75E1,7.5E-1,9.175849E-2,7.5E-1,1.4E1,-8.2928434E-2,-1.3130236E-2,-1.3130236E-2,4.0787835E-2],"split_indices":[22,5,0,14,22,0,0,0,0],"split_type":[0,0,0,0,0,0,0,0,0],"sum_hessian":[8.623809E0,6.3466005E0,2.2772086E0,2.7868302E0,3.5597703E0,1.5266632E0,1.260167E0,1.8040273E0,1.755743E0],"tree_param":{"num_deleted":"0","num_feature":"31","num_nodes":"9","size_leaf_vector":"0"}},{"base_weights":[-7.824519E-2,-2.8137094E-1,2.983486E-1,-3.9780912E-1,-1.1005176E-2,3.0964565E-2,3.8401225E-1,-4.758835E-2,8.488834E-3],"categories":[],"categories_nodes":[],"categories_segments":[],"categories_sizes":[],"default_left":[1,1,1,0,1,0,0,0,0],"id":37,"left_children":[1,3,5,-1,7,-1,-1,-1,-1],"loss_changes":[8.2012993E-1,2.0863491E-1,7.646373E-2,0E0,5.121912E-3,0E0,0E0,0E0,0E0],"parents":[2147483647,0,0,1,1,2,2,4,4],"right_children":[2,4,6,-1,8,-1,-1,-1,-1],"split_conditions":[1.536E4,5.685E2,9.65E1,-1.1934274E-1,9.65E1,9.28937E-3,1.1520368E-1,-1.4276505E-2,2.5466504E-3],"split_indices":[19,21,28,0,29,0,0,0,0],"split_type":[0,0,0,0,0,0,0,0,0],"sum_hessian":[8.623828E0,5.7664146E0,2.8574138E0,3.7010937E0,2.0653207E0,1.023671E0,1.8337427E0,1.0221152E0,1.0432056E0],"tree_param":{"num_deleted":"0","num_feature":"31","num_nodes":"9","size_leaf_vector":"0"}},{"base_weights":[6.804183E-2,-1.4507206E-1,1.6493869E-1,-1.7930813E-1,-3.9613117E-2,9.933315E-3,2.936256E-1,9.933315E-3,1.672581E-2],"categories":[],"categories_nodes":[],"categories_segments":[],"categories_sizes":[],"default_left":[1,1,1,0,0,1,0,0,0],"id":38,"left_children":[1,3,5,-1,-1,7,-1,-1,-1],"loss_changes":[2.0571801E-1,4.7525465E-3,1.7658006E-1,0E0,0E0,9.132549E-6,0E0,0E0,0E0],"parents":[2147483647,0,0,1,1,2,2,5,5],"right_children":[2,4,6,-1,-1,8,-1,-1,-1],"split_conditions":[9E0,1.536E4,7.5E-1,-5.3792443E-2,-1.1883936E-2,5.25E1,8.808768E-2,2.9799948E-3,5.0177434E-3],"split_indices":[22,19,14,0,0,20,0,0,0],"split_type":[0,0,0,0,0,0,0,0,0],"sum_hessian":[7.8033624E0,2.2836177E0,5.5197444E0,1.195309E0,1.0883087E0,2.3780823E0,3.1416621E0,1.0415419E0,1.3365403E0],"tree_param":{"num_deleted":"0","num_feature":"31","num_nodes":"9","size_leaf_vector":"0"}},{"base_weights":[-6.804127E-2,-3.307314E-1,2.0611128E-1,-3.9225298E-1,-6.2310055E-2,-7.567307E-3,3.5713536E-1],"categories":[],"categories_nodes":[],"categories_segments":[],"categories_sizes":[],"default_left":[1,1,1,0,0,0,0],"id":39,"left_children":[1,3,5,-1,-1,-1,-1],"loss_changes":[7.021597E-1,6.660223E-2,1.6159539E-1,0E0,0E0,0E0,0E0],"parents":[2147483647,0,0,1,1,2,2],"right_children":[2,4,6,-1,-1,-1,-1],"split_conditions":[5.685E2,9.95E1,1.536E4,-1.176759E-1,-1.8693017E-2,-2.2701921E-3,1.0714061E-1],"split_indices":[21,23,19,0,0,0,0],"split_type":[0,0,0,0,0,0,0],"sum_hessian":[7.8033495E0,3.87959E0,3.9237597E0,2.8769991E0,1.0025909E0,2.018189E0,1.9055706E0],"tree_param":{"num_deleted":"0","num_feature":"31","num_nodes":"7","size_leaf_vector":"0"}},{"base_weights":[5.3412244E-2,-1.1632726E-1,1.5912522E-1,-1.8062846E-1,-1.6708832E-2,2.139898E-2,3.0687675E-1],"categories":[],"categories_nodes":[],"categories_segments":[],"categories_sizes":[],"default_left":[1,1,1,0,0,0,0],"id":40,"left_children":[1,3,5,-1,-1,-1,-1],"loss_changes":[1.6412485E-1,2.0631868E-2,1.7466377E-1,0E0,0E0,0E0,0E0],"parents":[2147483647,0,0,1,1,2,2],"right_children":[2,4,6,-1,-1,-1,-1],"split_conditions":[3.25E1,8.32E3,7.5E-1,-5.4188542E-2,-5.01265E-3,6.4196945E-3,9.2063025E-2],"split_indices":[22,19,14,0,0,0,0],"split_type":[0,0,0,0,0,0,0],"sum_hessian":[7.115076E0,2.6920855E0,4.422991E0,1.1418481E0,1.5502374E0,2.0119956E0,2.410995E0],"tree_param":{"num_deleted":"0","num_feature":"31","num_nodes":"7","size_leaf_vector":"0"}},{"base_weights":[-5.3413626E-2,-3.0951765E-1,2.0030223E-1,-3.714158E-1,-5.7236534E-2,-5.0743683E-3,3.4508023E-1],"categories":[],"categories_nodes":[],"categories_segments":[],"categories_sizes":[],"default_left":[1,1,1,0,0,0,0],"id":41,"left_children":[1,3,5,-1,-1,-1,-1],"loss_changes":[5.8929724E-1,4.7941357E-2,1.410154E-1,0E0,0E0,0E0,0E0],"parents":[2147483647,0,0,1,1,2,2],"right_children":[2,4,6,-1,-1,-1,-1],"split_conditions":[5.685E2,1.5E0,1.536E4,-1.11424744E-1,-1.717096E-2,-1.5223105E-3,1.03524074E-1],"split_indices":[21,1,19,0,0,0,0],"split_type":[0,0,0,0,0,0,0],"sum_hessian":[7.1151E0,3.431431E0,3.6836689E0,2.3761933E0,1.0552379E0,1.9220592E0,1.7616096E0],"tree_param":{"num_deleted":"0","num_feature":"31","num_nodes":"7","size_leaf_vector":"0"}},{"base_weights":[4.1567963E-2,-1.6766259E-1,1.2180179E-1,-2.2930399E-2,2.749778E-1,1.2602371E-1,3.366495E-1],"categories":[],"categories_nodes":[],"categories_segments":[],"categories_sizes":[],"default_left":[1,0,1,0,1,0,0],"id":42,"left_children":[1,-1,3,-1,5,-1,-1],"loss_changes":[1.4684296E-1,0E0,2.7848917E-1,0E0,1.6732037E-2,0E0,0E0],"parents":[2147483647,0,0,2,2,4,4],"right_children":[2,-1,4,-1,6,-1,-1],"split_conditions":[1.75E1,-5.029878E-2,9E0,-6.8791197E-3,7.5E-1,3.7807114E-2,1.00994855E-1],"split_indices":[20,0,22,0,14,0,0],"split_type":[0,0,0,0,0,0,0],"sum_hessian":[6.530743E0,1.5081571E0,5.022586E0,1.4572258E0,3.56536E0,1.5469335E0,2.0184267E0],"tree_param":{"num_deleted":"0","num_feature":"31","num_nodes":"7","size_leaf_vector":"0"}},{"base_weights":[-4.1567158E-2,-2.3115382E-1,2.6446253E-1,-3.5448372E-1,-3.91975E-3,5.8878865E-2,3.3215097E-1],"categories":[],"categories_nodes":[],"categories_segments":[],"categories_sizes":[],"default_left":[1,1,1,0,0,0,0],"id":43,"left_children":[1,3,5,-1,-1,-1,-1],"loss_changes":[4.9805796E-1,1.4388037E-1,2.702044E-2,0E0,0E0,0E0,0E0],"parents":[2147483647,0,0,1,1,2,2],"right_children":[2,4,6,-1,-1,-1,-1],"split_conditions":[1.536E4,5.685E2,2.75E1,-1.06345125E-1,-1.175925E-3,1.766366E-2,9.9645294E-2],"split_indices":[19,21,22,0,0,0,0],"split_type":[0,0,0,0,0,0,0],"sum_hessian":[6.5307302E0,4.1836257E0,2.3471045E0,2.3488226E0,1.8348029E0,1.0445235E0,1.3025811E0],"tree_param":{"num_deleted":"0","num_feature":"31","num_nodes":"7","size_leaf_vector":"0"}},{"base_weights":[2.7140763E-2,-5.2480213E-2,2.2315294E-1,-1.8972331E-1,7.865587E-2,-5.3150598E-2,8.533636E-2],"categories":[],"categories_nodes":[],"categories_segments":[],"categories_sizes":[],"default_left":[1,1,0,0,1,0,0],"id":44,"left_children":[1,3,-1,-1,5,-1,-1],"loss_changes":[1.2032168E-1,1.1856255E-1,0E0,0E0,4.0787727E-2,0E0,0E0],"parents":[2147483647,0,0,1,1,4,4],"right_children":[2,4,-1,-1,6,-1,-1],"split_conditions":[4.75E1,7.5E-1,6.694588E-2,-5.6916997E-2,1.4E1,-1.594518E-2,2.5600908E-2],"split_indices":[22,5,0,0,22,0,0],"split_type":[0,0,0,0,0,0,0],"sum_hessian":[5.959236E0,4.7585526E0,1.2006838E0,2.1068351E0,2.6517174E0,1.5149338E0,1.1367836E0],"tree_param":{"num_deleted":"0","num_feature":"31","num_nodes":"7","size_leaf_vector":"0"}},{"base_weights":[-2.7141357E-2,-2.78005E-1,1.9496939E-1,8.127427E-3,3.2254058E-1],"categories":[],"categories_nodes":[],"categories_segments":[],"categories_sizes":[],"default_left":[1,0,1,0,0],"id":45,"left_children":[1,-1,3,-1,-1],"loss_changes":[4.4196826E-1,0E0,9.936975E-2,0E0,0E0],"parents":[2147483647,0,0,2,2],"right_children":[2,-1,4,-1,-1],"split_conditions":[5.685E2,-8.34015E-2,1.536E4,2.438228E-3,9.676218E-2],"split_indices":[21,0,19,0,0],"split_type":[0,0,0,0,0],"sum_hessian":[5.9592457E0,2.6803102E0,3.2789352E0,1.7620009E0,1.5169343E0],"tree_param":{"num_deleted":"0","num_feature":"31","num_nodes":"5","size_leaf_vector":"0"}},{"base_weights":[2.6160436E-2,-1.2555659E-1,1.1417821E-1,-5.689189E-3,2.1816292E-1,1.0623687E-1,2.7077425E-1],"categories":[],"categories_nodes":[],"categories_segments":[],"categories_sizes":[],"default_left":[1,0,1,0,1,0,0],"id":46,"left_children":[1,-1,3,-1,5,-1,-1],"loss_changes":[1.019768E-1,0E0,1.0169077E-1,0E0,4.9961954E-3,0E0,0E0],"parents":[2147483647,0,0,2,2,4,4],"right_children":[2,-1,4,-1,6,-1,-1],"split_conditions":[9E0,-3.7666976E-2,5.25E1,-1.7067568E-3,7.5E-1,3.187106E-2,8.123228E-2],"split_indices":[22,0,20,0,5,0,0],"split_type":[0,0,0,0,0,0,0],"sum_hessian":[5.563E0,1.8858509E0,3.677149E0,1.3060435E0,2.3711057E0,1.2097352E0,1.1613705E0],"tree_param":{"num_deleted":"0","num_feature":"31","num_nodes":"7","size_leaf_vector":"0"}},{"base_weights":[-2.6162054E-2,-2.6030898E-1,1.7850885E-1,-3.0065218E-1,-8.061731E-2,3.2482545E-3,3.059039E-1],"categories":[],"categories_nodes":[],"categories_segments":[],"categories_sizes":[],"default_left":[1,1,1,0,0,0,0],"id":47,"left_children":[1,3,5,-1,-1,-1,-1],"loss_changes":[3.609875E-1,9.020865E-4,9.043987E-2,0E0,0E0,0E0,0E0],"parents":[2147483647,0,0,1,1,2,2],"right_children":[2,4,6,-1,-1,-1,-1],"split_conditions":[5.685E2,6.28E2,1.536E4,-9.0195656E-2,-2.4185194E-2,9.744764E-4,9.177118E-2],"split_indices":[21,26,19,0,0,0,0],"split_type":[0,0,0,0,0,0,0],"sum_hessian":[5.5630217E0,2.467882E0,3.0951395E0,1.4656644E0,1.0022175E0,1.7344754E0,1.3606641E0],"tree_param":{"num_deleted":"0","num_feature":"31","num_nodes":"7","size_leaf_vector":"0"}},{"base_weights":[2.1161364E-2,-1.1470814E-1,1.0265321E-1,-6.027464E-3,2.0445755E-1,9.9215046E-2,2.5410244E-1],"categories":[],"categories_nodes":[],"categories_segments":[],"categories_sizes":[],"default_left":[1,0,1,0,1,0,0],"id":48,"left_children":[1,-1,3,-1,5,-1,-1],"loss_changes":[8.043943E-2,0E0,8.72133E-2,0E0,3.7494153E-3,0E0,0E0],"parents":[2147483647,0,0,2,2,4,4],"right_children":[2,-1,4,-1,6,-1,-1],"split_conditions":[9E0,-3.4412444E-2,5.25E1,-1.8082393E-3,7.5E-1,2.9764514E-2,7.6230735E-2],"split_indices":[22,0,20,0,5,0,0],"split_type":[0,0,0,0,0,0,0],"sum_hessian":[5.2014713E0,1.7972891E0,3.4041822E0,1.2606792E0,2.143503E0,1.125569E0,1.017934E0],"tree_param":{"num_deleted":"0","num_feature":"31","num_nodes":"7","size_leaf_vector":"0"}},{"base_weights":[-2.11619E-2,-2.4052317E-1,1.753334E-1,-3.1047705E-1,-4.1221578E-2,-1.3664447E-2,3.153056E-1],"categories":[],"categories_nodes":[],"categories_segments":[],"categories_sizes":[],"default_left":[1,1,1,0,0,0,0],"id":49,"left_children":[1,3,5,-1,-1,-1,-1],"loss_changes":[3.0947697E-1,3.393306E-2,1.06147915E-1,0E0,0E0,0E0,0E0],"parents":[2147483647,0,0,1,1,2,2],"right_children":[2,4,6,-1,-1,-1,-1],"split_conditions":[9.95E1,8.25E1,1.536E4,-9.314312E-2,-1.2366474E-2,-4.099334E-3,9.4591685E-2],"split_indices":[23,29,19,0,0,0,0],"split_type":[0,0,0,0,0,0,0],"sum_hessian":[5.2014794E0,2.3518648E0,2.8496146E0,1.3279394E0,1.0239253E0,1.5964206E0,1.253194E0],"tree_param":{"num_deleted":"0","num_feature":"31","num_nodes":"7","size_leaf_vector":"0"}},{"base_weights":[1.6732797E-2,-5.703749E-2,1.7321567E-1,-1.8781856E-1,5.8089092E-2,-6.486473E-2,5.8089092E-2],"categories":[],"categories_nodes":[],"categories_segments":[],"categories_sizes":[],"default_left":[1,1,0,0,1,0,0],"id":50,"left_children":[1,3,-1,-1,5,-1,-1],"loss_changes":[7.8008235E-2,8.581402E-2,0E0,0E0,5.732689E-2,0E0,0E0],"parents":[2147483647,0,0,1,1,4,4],"right_children":[2,4,-1,-1,6,-1,-1],"split_conditions":[1.5E0,3.75E1,5.1964704E-2,-5.634557E-2,7.5E-1,-1.945942E-2,1.742673E-2],"split_indices":[5,22,0,0,14,0,0],"split_type":[0,0,0,0,0,0,0],"sum_hessian":[4.901742E0,3.7631798E0,1.138562E0,1.5189139E0,2.244266E0,1.1226503E0,1.1216158E0],"tree_param":{"num_deleted":"0","num_feature":"31","num_nodes":"7","size_leaf_vector":"0"}},{"base_weights":[-1.6731588E-2,-2.3733781E-1,1.6852422E-1,7.3647243E-3,2.850471E-1],"categories":[],"categories_nodes":[],"categories_segments":[],"categories_sizes":[],"default_left":[1,0,1,0,0],"id":51,"left_children":[1,-1,3,-1,-1],"loss_changes":[2.811924E-1,0E0,6.912212E-2,0E0,0E0],"parents":[2147483647,0,0,2,2],"right_children":[2,-1,4,-1,-1],"split_conditions":[5.685E2,-7.120135E-2,1.536E4,2.2094173E-3,8.5514136E-2],"split_indices":[21,0,19,0,0],"split_type":[0,0,0,0,0],"sum_hessian":[4.901727E0,2.1090698E0,2.7926571E0,1.6180215E0,1.1746355E0],"tree_param":{"num_deleted":"0","num_feature":"31","num_nodes":"5","size_leaf_vector":"0"}},{"base_weights":[1.5921723E-2,-9.55075E-2,1.0684303E-1,5.6677647E-3,2.1677703E-1],"categories":[],"categories_nodes":[],"categories_segments":[],"categories_sizes":[],"default_left":[1,0,1,0,0],"id":52,"left_children":[1,-1,3,-1,-1],"loss_changes":[6.733271E-2,0E0,5.5072837E-2,0E0,0E0],"parents":[2147483647,0,0,2,2],"right_children":[2,-1,4,-1,-1],"split_conditions":[7.5E-1,-2.8652253E-2,3.25E1,1.7003295E-3,6.503311E-2],"split_indices":[5,0,22,0,0],"split_type":[0,0,0,0,0],"sum_hessian":[4.638808E0,2.0616713E0,2.5771363E0,1.5190707E0,1.0580655E0],"tree_param":{"num_deleted":"0","num_feature":"31","num_nodes":"5","size_leaf_vector":"0"}},{"base_weights":[-1.5921205E-2,-2.2438332E-1,1.6554809E-1,-2.7632308E-1,-6.005123E-2,-1.29330205E-2,2.9693794E-1],"categories":[],"categories_nodes":[],"categories_segments":[],"categories_sizes":[],"default_left":[1,1,1,0,0,0,0],"id":53,"left_children":[1,3,5,-1,-1,-1,-1],"loss_changes":[2.5045916E-1,9.428978E-3,8.802831E-2,0E0,0E0,0E0,0E0],"parents":[2147483647,0,0,1,1,2,2],"right_children":[2,4,6,-1,-1,-1,-1],"split_conditions":[9.95E1,7.95E1,1.536E4,-8.2896926E-2,-1.801537E-2,-3.8799064E-3,8.9081384E-2],"split_indices":[23,29,19,0,0,0,0],"split_type":[0,0,0,0,0,0,0],"sum_hessian":[4.6388025E0,2.0487864E0,2.590016E0,1.0389255E0,1.0098609E0,1.4804828E0,1.1095332E0],"tree_param":{"num_deleted":"0","num_feature":"31","num_nodes":"7","size_leaf_vector":"0"}},{"base_weights":[1.4521587E-2,-1.13293104E-1,9.71845E-2,-8.054301E-3,1.9319606E-1],"categories":[],"categories_nodes":[],"categories_segments":[],"categories_sizes":[],"default_left":[1,0,1,0,0],"id":54,"left_children":[1,-1,3,-1,-1],"loss_changes":[6.835973E-2,0E0,6.7824215E-2,0E0,0E0],"parents":[2147483647,0,0,2,2],"right_children":[2,-1,4,-1,-1],"split_conditions":[9E0,-3.3987932E-2,5.25E1,-2.4162903E-3,5.795882E-2],"split_indices":[22,0,20,0,0],"split_type":[0,0,0,0,0],"sum_hessian":[4.4279685E0,1.593512E0,2.8344564E0,1.10972E0,1.7247366E0],"tree_param":{"num_deleted":"0","num_feature":"31","num_nodes":"5","size_leaf_vector":"0"}},{"base_weights":[-1.4521353E-2,-2.0154546E-1,1.6790196E-1,-2.8245938E-1,-1.855524E-2,2.7645258E-2,2.2052561E-1],"categories":[],"categories_nodes":[],"categories_segments":[],"categories_sizes":[],"default_left":[1,1,1,0,0,0,0],"id":55,"left_children":[1,3,5,-1,-1,-1,-1],"loss_changes":[2.1902874E-1,4.1171983E-2,1.8210858E-2,0E0,0E0,0E0,0E0],"parents":[2147483647,0,0,1,1,2,2],"right_children":[2,4,6,-1,-1,-1,-1],"split_conditions":[9.7E1,6.95E1,9.35E1,-8.4737815E-2,-5.5665723E-3,8.2935775E-3,6.6157684E-2],"split_indices":[28,29,29,0,0,0,0],"split_type":[0,0,0,0,0,0,0],"sum_hessian":[4.427964E0,2.1346521E0,2.293312E0,1.1032465E0,1.0314057E0,1.0418446E0,1.2514673E0],"tree_param":{"num_deleted":"0","num_feature":"31","num_nodes":"7","size_leaf_vector":"0"}}]},"name":"gbtree"},"learner_model_param":{"base_score":"5E-1","boost_from_average":"1","num_class":"2","num_feature":"31","num_target":"1"},"objective":{"name":"multi:softmax","softmax_multiclass_param":{"num_class":"2"}}},"version":[1,7,3]}